\data\
ngram 1=15838
ngram 2=41464
ngram 3=44645

\1-grams:
-4.6801233	<unk>	0
0	<s>	-0.16965142
-1.4454558	</s>	0
-4.581435	"pelayan	-0.035502512
-2.6950884	kurang	-0.13583846
-3.7933803	ajer,	-0.035502512
-4.052705	lip	-0.035502512
-3.5505059	kotor	-0.2078114
-2.1933246	ame	-0.107948
-3.6795251	bau,	-0.06331577
-2.8275795	aer	-0.30009735
-3.1309216	jamban	-0.13425739
-3.863894	lancar	-0.035502512
-2.1949623	tapi	-0.18739326
-3.3703723	panas	-0.14187513
-2.4117296	dari	-0.08647327
-3.863894	kucuran	-0.035502512
-4.357265	mantep,	-0.035502512
-3.451166	keresikan	-0.09132909
-3.5894036	bantal	-0.16244078
-3.451166	sepre	-0.053294685
-2.636884	kudu	-0.076441236
-4.581435	diepaluasi	-0.035502512
-3.6321309	lagi.	-0.035502486
-3.7933803	Sayang	-0.035502512
-2.8346791	bener	-0.09677096
-4.581435	potensi	-0.035502512
-2.3173528	yang	-0.14875071
-3.262171	bae	-0.072997235
-1.9875765	kagak	-0.23365255
-4.1907473	ngedukung	-0.035502512
-4.581435	propesionalisme	-0.035502512
-4.581435	SDM	-0.035502512
-3.7327323	nye,	-0.035502512
-4.581435	pungsi	-0.035502512
-4.581435	kontrolnye	-0.035502512
-4.581435	diingetin"	-0.035502512
-4.581435	"biar	-0.035502512
-4.581435	pulpen	-0.035502512
-2.3705022	ntu	-0.11792396
-2.4226782	jadi	-0.072866276
-4.357265	kenangan	-0.035502512
-2.2798676	ama	-0.08969282
-4.581435	ingetan	-0.035502512
-2.3396668	kalo	-0.14554317
-2.0815263	aye	-0.18743598
-3.7327323	perne	-0.035502486
-3.3703723	dateng	-0.11165524
-2.3306031	buat	-0.07720681
-4.581435	namu	-0.035502512
-4.581435	nyerite	-0.035502512
-2.6748075	ampe	-0.070862524
-4.581435	nulis.	-0.035502512
-4.052705	mesem	-0.035502512
-1.9590183	nyang	-0.15469652
-2.4513223	kaga	-0.19600959
-2.4602973	bakal	-0.08297152
-3.6795251	ilang	-0.035502512
-4.581435	tawe	-0.035502512
-3.3956695	selalu	-0.065000005
-4.581435	inget,	-0.035502512
-4.357265	makasih.	-0.035502512
-3.6321309	nyok	-0.06619762
-2.565853	kite	-0.09918665
-4.052705	nutup	-0.035502512
-3.1169884	hal	-0.18286134
-3.1453166	make	-0.07862207
-3.5148077	lagu	-0.05720401
-2.9580162	eni	-0.07226582
-3.1602051	:	-0.035502512
-2.7330313	[URL]"	-1.6783698
-4.581435	"Kartosoewiryo	-0.035502512
-4.357265	beragame	-0.035502512
-2.70031	mao	-0.058405016
-4.052705	bunuh	-0.035502512
-4.357265	Soekarno.	-0.035502512
-3.6795251	Yang	-0.06619762
-4.1907473	Sayyidina	-0.147582
-4.1907473	Ali	-0.035502512
-2.428258	pas	-0.16820544
-4.052705	solat	-0.035502512
-4.581435	subuh	-0.035502512
-3.5894036	seorang	-0.11165524
-4.581435	Hafidz	-0.035502512
-4.581435	Quran,	-0.035502512
-4.357265	Ibnu	-0.21674308
-4.581435	Muljam.	-0.035502512
-3.6321309	Ampe	-0.035502512
-1.9403632	di	-0.13664012
-4.052705	sini	-0.035502512
-2.4396372	udeh	-0.10003156
-3.7327323	danta	-0.035502486
-4.357265	belom,	-0.035502512
-4.581435	bang?	-0.035502512
-4.581435	"Saban	-0.035502512
-4.581435	pegih,	-0.035502512
-3.451166	Tuhan	-0.035502512
-4.357265	mesti	-0.035502512
-4.581435	ngegantiinnye	-0.035502512
-3.0416462	dengan	-0.05720401
-4.357265	kebahagiaan	-0.035502512
-4.357265	baru.	-0.035502512
-4.357265	Au	-0.035502512
-4.581435	ape."	-0.035502512
-4.581435	"Katekan	-0.035502512
-2.9044113	pade	-0.06229243
-4.581435	slingkuh,	-0.035502512
-4.581435	katekan	-0.035502512
-4.581435	mendue	-0.035502512
-4.581435	m	-0.035502512
-3.5148077	???	-0.2425735
-2.636884	?	-0.12599792
-4.581435	Katakan	-0.035502512
-4.581435	Tidak	-0.035502512
-3.6321309	oleh	-0.27565643
-3.4225318	Afgan	-0.11245651
-4.581435	https://path.com/p/2LMpC	-0.035502512
-2.478824	"	-1.738812
-4.581435	inayah_k	-0.035502512
-4.581435	iyeiye	-0.035502512
-4.581435	'	-0.035502512
-4.581435	kagak-useh	-0.035502512
-3.9481184	mewek	-0.035502486
-3.863894	gituh	-0.08004723
-4.581435	"Ape	-0.035502512
-4.357265	Hatta	-0.035502512
-4.581435	Mimpin	-0.035502512
-4.1907473	PAN	-0.035502512
-4.581435	Slalu	-0.035502512
-4.581435	Dibaweh	-0.035502512
-4.581435	Awang-awang	-0.035502512
-4.581435	Demokrat?""""	-0.035502512
-4.581435	@SangPemburu99:	-0.035502512
-4.581435	@M4ngU5il	-0.035502512
-3.6321309	...	-0.035502512
-4.581435	http://bit.ly/1vMAMmk	-0.035502512
-4.581435	"Pas	-0.035502512
-4.1907473	organisasi	-0.035502512
-4.581435	halangan	-0.035502512
-3.6795251	balek	-0.035502512
-3.5148077	lama	-0.035502512
-4.581435	kerumah,	-0.035502512
-4.357265	laluh	-0.035502512
-2.6601954	ape	-0.13832682
-4.357265	kabarnye	-0.035502512
-4.581435	kerjaan	-0.035502512
-4.1907473	kuluyah	-0.035502512
-4.581435	ngenal	-0.035502512
-4.581435	waktu?	-0.035502512
-3.5894036	Kudu	-0.035502512
-4.052705	kesono	-0.11673615
-4.1907473	kemari	-0.035502512
-3.5148077	demi	-0.035502512
-4.1907473	contoh	-0.035502512
-4.581435	kerjaan.	-0.035502512
-2.9774628	Kagak	-0.105217196
-4.052705	ngedumel	-0.035502512
-3.1602051	cume	-0.09327893
-4.581435	ngambingitemin	-0.035502512
-4.581435	organisasi.	-0.035502512
-3.9481184	jelas	-0.035502486
-4.357265	seenak	-0.035502512
-4.581435	ftv"	-0.035502512
-4.581435	"cc	-0.035502512
-4.357265	@raffiahmadlagi	-0.035502512
-3.451166	RT	-0.035502512
-4.581435	@TRANS7:	-0.035502512
-4.581435	""""Sebader-badernye	-0.035502512
-4.1907473	Laki	-0.035502512
-2.546996	die	-0.20634188
-3.3703723	milih	-0.035502512
-3.1034884	wadon	-0.14712204
-4.052705	bae-bae	-0.035502486
-3.863894	Enyak	-0.035502512
-4.581435	anak-anaknye"	-0.035502512
-2.8346791	bukan	-0.070763215
-4.052705	maksud	-0.035502512
-2.669882	guah	-0.079718545
-4.581435	maksudluh	-0.035502512
-3.5505059	sêlalu	-0.035502512
-4.581435	ngêrècètin	-0.035502512
-4.581435	onoh-onoh	-0.035502512
-4.581435	baè~	-0.035502512
-4.1907473	Air	-0.035502512
-2.0943508	dan	-0.09505362
-4.581435	Api	-0.035502512
-3.4225318	olèh	-0.11291993
-3.6321309	Raffi	-0.5957972
-4.1907473	Ahmad	-0.06619762
-4.581435	https://path.com/p/2MHtdu	-0.035502512
-4.581435	"Mau	-0.035502512
-4.357265	merad?	-0.035502512
-4.357265	Gih	-0.035502512
-4.581435	dah..	-0.035502512
-3.5505059	:)	-0.07321653
-4.357265	Asal	-0.035502512
-3.6321309	lo	-0.035502486
-2.6748075	bise	-0.08920835
-3.9481184	jage	-0.035502512
-3.1916068	diri	-0.14745039
-4.581435	nyesel,karne	-0.035502512
-4.581435	nyia-nyiain	-0.035502512
-2.5289237	orang	-0.17661922
-3.5505059	bener-bener	-0.07184702
-2.7937243	sayang	-0.093262665
-3.5505059	:)"	-0.87106025
-3.2082024	adè	-0.073611505
-4.357265	korsi	-0.035502512
-3.1916068	dalêm	-0.05460058
-4.1907473	pangkèng.	-0.035502512
-4.581435	sêrta	-0.035502512
-3.3956695	saluran	-0.108240835
-4.581435	tipinyè	-0.035502512
-2.7274036	banyak	-0.09577038
-4.357265	rênyêk	-0.035502512
-2.8418968	kayak	-0.098785155
-4.1907473	sêmut	-0.035502512
-4.581435	bêkêrumun.	-0.035502512
-4.581435	kênyamanan	-0.035502512
-3.1169884	pangkèng	-0.08929046
-3.5894036	cakêp	-0.035502512
-4.581435	"Baru	-0.035502512
-4.581435	persiapan	-0.035502512
-3.863894	doang	-0.035502512
-4.581435	gosong	-0.035502512
-3.5505059	begimane	-0.060928743
-3.2254574	waktu	-0.1052991
-4.581435	ospek	-0.035502512
-4.357265	entar,	-0.035502512
-3.5505059	6	-0.060928743
-3.3703723	hari	-0.124933735
-4.581435	dilatih	-0.035502512
-4.357265	militer	-0.035502512
-4.357265	woy.	-0.035502512
-4.357265	Naek	-0.035502512
-4.581435	outbond	-0.035502512
-2.4663856	aje	-0.12520175
-3.9481184	ngenes	-0.035502486
-4.1907473	sialan	-0.035502512
-3.9481184	gare-gare	-0.09922832
-3.481822	iseng	-0.09337732
-4.357265	ketinggian.	-0.035502512
-4.581435	Begimane	-0.035502512
-4.581435	diksarlin	-0.035502512
-3.7327323	entar	-0.035502486
-3.3022773	ya	-0.13364582
-4.581435	tuhan"	-0.035502512
-4.581435	"Tapi	-0.035502512
-4.581435	Sartre,	-0.035502512
-3.1169884	bikin	-0.08602427
-4.1907473	sadar.	-0.035502512
-3.9481184	si,	-0.035502486
-4.1907473	PR	-0.035502512
-3.451166	gede	-0.055723023
-3.00837	dalem	-0.081039734
-2.9875228	idup	-0.0703953
-3.3956695	aye.	-0.064685665
-3.451166	Ame	-0.076931134
-2.9676306	dapet	-0.08836267
-4.581435	dipungkiri,	-0.035502512
-4.581435	Sarte	-0.035502512
-3.4225318	sedikit	-0.054431275
-4.581435	banyaknye	-0.035502512
-2.5736313	juge	-0.13309883
-4.581435	mempengaruhin	-0.035502512
-4.581435	pikirian	-0.035502512
-2.856702	Tapi	-0.07739585
-2.9580162	masih	-0.07687146
-3.3703723	yakin	-0.035502512
-4.581435	kok."	-0.035502512
-4.581435	"Bapak	-0.035502512
-4.581435	Kos	-0.035502512
-3.863894	delok	-0.035502512
-4.1907473	sinetron	-0.035502512
-3.6321309	ruang	-0.08317995
-4.581435	tenge.	-0.035502512
-4.581435	Bule	-0.035502512
-3.0903955	trus	-0.044053413
-3.262171	bilang	-0.047053013
-4.581435	""Mewek-mewek	-0.035502512
-4.052705	terus,	-0.035502512
-3.262171	kenape	-0.035502512
-3.3703723	Indonesia	-0.035502512
-4.1907473	pelem	-0.035502486
-4.581435	mewek-mewek	-0.035502512
-4.581435	terus""	-0.035502512
-4.581435	emmm	-0.035502512
-4.581435	kire-kire?"	-0.035502512
-4.581435	"Selama	-0.035502512
-3.6795251	die-die	-0.2847389
-2.8275795	pangkeng	-0.11101153
-4.581435	suruh	-0.035502512
-4.581435	cem-ceman	-0.035502512
-3.6795251	bawa	-0.035502512
-4.052705	temennye	-0.035502512
-4.357265	ngurusin	-0.035502512
-4.581435	goib	-0.035502512
-3.0653372	juga	-0.065000005
-4.581435	tuh.	-0.035502512
-4.581435	Selama	-0.035502512
-4.357265	pangkeng,	-0.035502512
-3.6795251	denger	-0.12863012
-3.7327323	cinta	-0.035502512
-4.581435	gegerawakan,	-0.035502512
-4.052705	cekikikan	-0.11673615
-4.581435	kunti,	-0.035502512
-4.581435	ngerang	-0.035502512
-4.052705	keras	-0.11673615
-3.7933803	gitu.	-0.08004723
-3.6795251	Ntu	-0.035502512
-4.052705	kejadian	-0.035502512
-3.5148077	ampir	-0.083670706
-4.581435	sejaman.	-0.035502512
-4.581435	#memetwit"	-0.035502512
-4.581435	"Rupiah	-0.035502512
-4.581435	Nyungsep,	-0.035502512
-4.357265	kemane	-0.035502512
-3.2082024	Jokowi	-0.076500684
-4.357265	epek	-0.035502512
-4.581435	minggat?	-0.035502512
-4.581435	http://bit.ly/1Dox5bU"	-0.035502512
-4.1907473	#Golkar	-0.147582
-4.357265	#ARB	-0.035502486
-4.1907473	polisi	-0.035502512
-4.581435	ringkus	-0.035502512
-4.1907473	cowok	-0.035502512
-4.581435	plaku	-0.035502512
-4.581435	penusukan	-0.035502512
-4.581435	http://bit.ly/186RNTw	-0.035502512
-4.581435	"Babeh	-0.035502512
-4.581435	nihhh	-0.035502512
-2.5815513	ade	-0.123838775
-4.581435	buket	-0.035502512
-4.581435	bunge	-0.035502512
-2.5081854	elu	-0.153364
-4.581435	,maapin	-0.035502512
-4.357265	ngambek	-0.035502512
-2.7503655	karne	-0.10799357
-4.357265	ngabarin	-0.035502512
-4.357265	tadi,	-0.035502512
-4.581435	ayee	-0.035502512
-4.581435	eluuu"	-0.035502512
-4.581435	"budak	-0.035502512
-3.0653372	cinte	-0.09985
-3.0191813	ituh	-0.048877675
-4.357265	kah	-0.035502512
-4.052705	aye?	-0.035502512
-4.357265	tulus	-0.035502512
-3.481822	maap	-0.09922832
-3.1309216	inih	-0.079769276
-2.9580162	emang	-0.089762785
-3.6795251	dunie	-0.035502512
-4.581435	tipu-tipu,	-0.035502512
-3.2817614	soal	-0.035502512
-3.346468	rase	-0.04984901
-4.357265	nyata.	-0.035502512
-2.6748075	ye	-0.081594564
-3.9481184	sayang,	-0.035502486
-3.7933803	sumringah	-0.08004723
-4.581435	sumringah,	-0.035502512
-4.581435	mewek.	-0.035502512
-4.052705	coba	-0.035502512
-3.4225318	gimane	-0.09495945
-4.357265	caranye	-0.035502512
-3.4225318	maen	-0.054431275
-4.1907473	dunia	-0.035502512
-4.581435	tipu-tipu	-0.035502512
-4.052705	inih,	-0.035502512
-3.7327323	tanpa	-0.035502512
-2.8879192	pake	-0.06635318
-4.052705	perasaan	-0.035502512
-4.581435	nyata"	-0.035502512
-4.581435	"#Ruangngasoh	-0.035502512
-4.581435	Dongkol	-0.035502512
-4.357265	diledekin	-0.035502512
-4.581435	miskin,	-0.035502512
-2.780888	ini	-0.0841896
-3.346468	beli	-0.064685665
-3.1453166	mobil	-0.035502512
-4.357265	mahal	-0.035502512
-3.2082024	duit	-0.085390575
-4.581435	recehan	-0.035502512
-4.581435	LOGAM	-0.035502512
-4.581435	http://dlvr.it/8I17bm	-0.035502512
-4.1907473	#Assadiqulhaq"	-0.26900026
-3.0533302	Kalo	-0.09176129
-4.1907473	maren-maren	-0.035502512
-2.896087	sih	-0.085852385
-3.262171	pernah	-0.041593067
-4.1907473	nyetel	-0.035502512
-3.9481184	pideo	-0.035502486
-4.581435	ituh..	-0.035502512
-3.6795251	ngerih	-0.069746085
-4.1907473	bise.	-0.035502486
-3.3022773	paling	-0.04984901
-4.581435	akhir.	-0.035502512
-4.581435	Ngemeng-ngemeng	-0.035502512
-4.581435	Moga	-0.035502512
-3.863894	saleh	-0.109136835
-4.357265	jawaban	-0.035502512
-4.581435	poting	-0.035502512
-4.581435	setlahnye.	-0.035502512
-4.581435	"masuk	-0.035502512
-3.1602051	jem	-0.06331577
-4.581435	7.30	-0.035502512
-4.1907473	malem,	-0.035502512
-3.1916068	kasih	-0.10402346
-3.0191813	kamar	-0.14694229
-4.581435	221	-0.035502512
-4.1907473	pojok	-0.035502512
-3.4225318	jauh	-0.20906855
-3.9481184	bunting	-0.16016795
-3.863894	tue	-0.069746085
-2.525398	lagi	-0.09461466
-3.863894	capek	-0.035502512
-3.1756222	jalan	-0.06821984
-3.0416462	mayan	-0.056193687
-2.546996	ke	-0.06609718
-4.1907473	kamar.	-0.035502486
-3.0653372	masuk	-0.067067154
-4.052705	kamar,	-0.035502486
-2.641447	ada	-0.10970503
-4.1907473	tutup	-0.035502512
-4.581435	lapisannye,	-0.035502512
-4.581435	BAB/BAK	-0.035502512
-4.581435	bol	-0.035502512
-4.1907473	sakit.	-0.035502512
-4.1907473	TIPI	-0.035502512
-3.4225318	biase	-0.1562679
-3.5894036	wifi	-0.17255856
-4.581435	rungseb,	-0.035502512
-3.863894	lame	-0.069746085
-4.581435	panasnye,	-0.035502512
-3.2254574	ac	-0.21373875
-3.863894	terlalu	-0.035502512
-4.581435	berase.	-0.035502512
-4.581435	Nginep	-0.035502512
-2.9978213	2	-0.07807003
-4.581435	kapok."	-0.035502512
-3.5894036	@RaffiAhmadLagi	-0.08778544
-3.7933803	nyengir	-0.08004723
-3.7327323	bini	-0.035502512
-4.581435	@Lagi6igi	-0.035502512
-4.1907473	menarik	-0.035502512
-3.9481184	ati,	-0.035502486
-4.357265	jagain	-0.035502512
-3.863894	pare	-0.035502512
-4.581435	kumbang-kumbang	-0.035502512
-4.1907473	haha"	-0.26900026
-4.581435	"Dokter	-0.035502512
-3.5148077	sekali	-0.076039985
-4.357265	pegang	-0.035502512
-4.357265	pasien	-0.035502512
-4.052705	berape	-0.035502512
-4.357265	menit,	-0.035502512
-4.357265	ratusan	-0.035502512
-4.581435	rebu..tapi	-0.035502512
-3.7327323	lupe	-0.035502512
-4.581435	ngitung	-0.035502512
-4.581435	dibutuin	-0.035502512
-4.052705	dokter	-0.035502486
-4.357265	kolah,	-0.035502512
-4.357265	kuluyah,	-0.035502512
-4.581435	praktek	-0.035502512
-3.1602051	..	-0.075531155
-4.581435	"Panteng	-0.035502512
-3.9481184	konser	-0.035502512
-3.00837	dulu	-0.047995087
-3.7933803	ah	-0.035502512
-4.357265	penyanyi	-0.035502512
-4.357265	idola	-0.21674308
-3.5894036	Ini	-0.035502512
-2.8720303	baru	-0.058456518
-3.7327323	namanye	-0.035502512
-4.581435	konser,	-0.035502512
-4.581435	lagunye	-0.035502512
-4.581435	tenar	-0.035502512
-4.581435	lagi....	-0.035502512
-4.581435	nyok!"	-0.035502512
-4.1907473	Êni	-0.035502512
-4.581435	dibuiin	-0.035502512
-2.6507201	[USERNAME]	-0.13760042
-4.581435	diaduin..êni	-0.035502512
-4.581435	mêcah	-0.035502512
-4.581435	bêlah	-0.035502512
-4.581435	"[USERNAME]	-0.035502512
-4.581435	Murun	-0.035502512
-4.581435	Yusufk09	-0.035502512
-4.581435	sêringnyah	-0.035502512
-3.3022773	nonton	-0.07191181
-4.1907473	biduan	-0.035502512
-4.357265	dangdut	-0.035502512
-2.6234748	tibang	-0.07408667
-4.581435	""jual""	-0.035502512
-4.581435	goyangan	-0.035502512
-3.2254574	atau	-0.059882626
-4.581435	busana	-0.035502512
-4.581435	bahènol	-0.035502512
-3.863894	dibanding	-0.035502512
-4.357265	suara	-0.035502512
-4.357265	cakêp"	-0.21674308
-4.581435	"Wayah	-0.035502486
-2.636884	ayè	-0.08441485
-4.581435	digombalin	-0.035502512
-4.052705	murid	-0.035502512
-3.7933803	ayè,	-0.035502512
-4.581435	""Ibu	-0.035502512
-3.7933803	boto	-0.035502512
-3.2817614	jugè	-0.035502512
-4.581435	bu,""	-0.035502512
-3.346468	têrus	-0.05057894
-3.9481184	salèh	-0.13674437
-4.581435	tingkèh	-0.035502512
-4.581435	eumph	-0.035502512
-3.6321309	jawab	-0.035502486
-3.2254574	êlu	-0.046217714
-3.1916068	gè	-0.04549507
-4.581435	kok..	-0.035502512
-4.1907473	Têrus	-0.035502512
-4.581435	emph..	-0.035502512
-4.581435	Dibilang	-0.035502512
-3.1916068	masing	-0.10203631
-4.1907473	mudè	-0.035502512
-3.481822	mangkin	-0.035502512
-3.5894036	bisè	-0.048582517
-3.2254574	ngomong	-0.04516911
-4.581435	apè-apè.."	-0.035502512
-3.863894	Tipi	-0.08004723
-3.9481184	sinyal	-0.035502486
-4.581435	parabola	-0.035502512
-2.8418968	nye	-0.11638944
-4.1907473	lemah	-0.035502512
-4.1907473	AC-nyè	-0.035502512
-3.7933803	radè	-0.08004723
-3.7327323	apêk	-0.12863012
-4.581435	grapari	-0.035502512
-4.581435	btc	-0.035502512
-4.357265	bandung	-0.035502512
-4.581435	dicatet	-0.035502512
-3.863894	buke	-0.035502512
-4.581435	10:00	-0.035502512
-2.8642986	-	-0.04897911
-4.581435	21:00	-0.035502512
-3.9481184	barusan	-0.09922832
-3.6321309	ganti	-0.035502512
-4.052705	kartu	-0.035502512
-4.052705	sim	-0.11673615
-4.1907473	nano	-0.035502512
-4.581435	diterime.	-0.035502512
-4.581435	Alesan	-0.035502512
-4.1907473	siap-siap	-0.035502512
-4.581435	tutup.	-0.035502512
-4.357265	Propesional	-0.035502512
-3.9481184	Sumur	-0.035502486
-3.0533302	bau	-0.08513812
-4.581435	tetesan	-0.035502512
-4.357265	AC.	-0.035502512
-4.581435	"Ustad	-0.035502512
-4.357265	radikal	-0.035502512
-4.581435	tambeh	-0.035502512
-4.581435	dicangap	-0.035502512
-4.581435	maunye	-0.035502512
-4.581435	terbukti	-0.035502512
-4.581435	1T	-0.035502512
-4.581435	Rizik	-0.035502512
-4.1907473	cabul	-0.035502512
-3.863894	setelah	-0.035502512
-4.581435	ngumpulin	-0.035502512
-4.581435	212	-0.035502512
-4.581435	gebleg,	-0.035502512
-3.3703723	sekarang	-0.05138713
-4.581435	pendukungnye	-0.035502512
-4.581435	geragotin	-0.035502512
-4.1907473	jari	-0.035502512
-4.581435	digeblegin	-0.035502512
-4.052705	imam	-0.035502512
-3.3956695	minggat	-0.1079632
-4.581435	Arab..,	-0.035502512
-3.0302684	gegares	-0.07664739
-3.7933803	noh	-0.035502512
-3.7933803	janji	-0.035502512
-4.581435	surge.	-0.035502512
-3.6795251	Selamet	-0.125574
-3.2817614	pagi	-0.05891915
-4.357265	kesayangan	-0.035502512
-4.581435	#rans	-0.035502512
-3.6795251	abang	-0.035502486
-3.6321309	mpo	-0.035502486
-4.357265	@lady6igi	-0.035502512
-4.581435	"KAGAK.	-0.035502512
-4.357265	SOALNYE	-0.035502512
-3.7327323	SAYANG	-0.07422276
-4.581435	NGTU	-0.035502512
-3.6321309	KAGAK	-0.06619762
-4.581435	NGELIET	-0.035502512
-4.581435	UMUR.	-0.035502512
-3.5894036	AYE	-0.06331577
-4.357265	BAKALAN	-0.035502512
-4.052705	CINTE	-0.035502486
-4.1907473	BENER	-0.11673615
-4.052705	AME	-0.035502486
-4.581435	GACOAN	-0.035502512
-4.581435	AYE,	-0.035502512
-4.357265	JADI	-0.035502512
-4.1907473	MAO	-0.035502512
-4.581435	TUE	-0.035502512
-3.9481184	APE	-0.035502486
-4.581435	MUDE	-0.035502512
-4.581435	NYE	-0.035502512
-4.1907473	DIE	-0.035502512
-4.581435	INTILIN	-0.035502512
-4.581435	MULU"	-0.035502512
-4.581435	"Ngadepin	-0.035502512
-4.1907473	Pilkade	-0.035502512
-4.357265	Barengan,	-0.21674308
-3.2254574	PDIP	-0.09513334
-4.581435	Lage	-0.035502512
-4.1907473	Manpaatin	-0.147582
-4.581435	Epek:	-0.035502512
-4.581435	nekenin	-0.035502512
-3.6795251	kepade	-0.035502486
-4.581435	setiep	-0.035502512
-4.581435	kadernye...	-0.035502512
-4.581435	http://bit.ly/1AZ5dxb	-0.035502512
-4.357265	adem...	-0.035502512
-4.581435	brasa	-0.035502512
-4.581435	kering	-0.035502512
-3.5505059	adem	-0.1688774
-4.581435	"Kebanyakan	-0.035502512
-4.052705	kriteria	-0.035502512
-3.4225318	nyari	-0.035502512
-3.863894	pacar	-0.035502512
-2.9978213	pengen	-0.05663672
-4.581435	lucu,	-0.035502512
-3.2434263	pedahal	-0.11316682
-4.1907473	anggepan	-0.035502512
-3.9481184	wadon,	-0.035502512
-4.581435	ganteng=	-0.035502512
-4.581435	lucu.	-0.035502512
-3.1916068	Jadi	-0.035502512
-4.357265	depinisi	-0.035502512
-3.9481184	lucu	-0.035502512
-4.581435	disini	-0.035502512
-4.357265	ganteng.	-0.035502512
-4.581435	Lu-lu	-0.035502512
-3.7327323	jelek	-0.07422276
-4.581435	kismin	-0.035502512
-3.7933803	tolong	-0.08004723
-4.357265	ngartiin	-0.035502512
-4.581435	eni..."	-0.035502512
-3.2434263	Allah	-0.06251936
-4.581435	ingetin	-0.035502512
-4.581435	khilap	-0.035502512
-3.4225318	mulu	-0.054431275
-3.1916068	biar	-0.07803899
-4.581435	kagak-pernah	-0.035502512
-4.581435	nyisain	-0.035502512
-4.581435	0:)	-0.035502512
-4.581435	Sukses	-0.035502512
-4.581435	Tim	-0.035502512
-4.581435	Ombudsman	-0.035502512
-4.052705	RI	-0.035502512
-4.1907473	segale	-0.035502512
-3.5894036	mohon	-0.035502512
-4.581435	kebeneran	-0.035502512
-4.581435	pakta	-0.035502512
-4.581435	ditindak	-0.035502512
-4.581435	lanjuti	-0.035502512
-4.1907473	serius	-0.035502512
-4.1907473	Waktu	-0.035502512
-4.357265	singkat	-0.035502512
-4.357265	jadiin	-0.035502512
-3.9481184	masaleh	-0.035502486
-3.863894	ngebikin	-0.08004723
-3.3956695	nunggu	-0.05057894
-3.7933803	mirip	-0.07422276
-4.581435	penundaan	-0.035502512
-4.581435	berlaru	-0.035502512
-4.581435	"Ngomong-ngomong	-0.035502512
-4.581435	sejau	-0.035502512
-4.581435	JL.	-0.035502512
-4.052705	Jakarte	-0.035502486
-4.1907473	bahaye	-0.035502512
-2.9044113	banget	-0.076381974
-3.481822	ye,	-0.035502512
-4.581435	belobang,	-0.035502512
-4.581435	apekabar	-0.035502512
-3.262171	nih	-0.035502512
-4.357265	dinas	-0.035502512
-4.581435	PU	-0.035502512
-4.581435	Malang?	-0.035502512
-4.357265	Diem	-0.035502512
-3.7327323	diem	-0.069746085
-4.581435	baee	-0.035502512
-4.581435	#kotamalang	-0.035502512
-4.581435	#savejalanraye	-0.035502512
-4.581435	#Malang"	-0.035502512
-4.581435	"Dapêt	-0.035502512
-4.581435	201,	-0.035502512
-4.357265	bohlam	-0.035502512
-3.6321309	dêpan	-0.035502486
-4.357265	modar,	-0.035502512
-3.863894	konci	-0.035502512
-4.581435	manual	-0.035502512
-4.052705	susèh	-0.035502512
-4.357265	dikonci,	-0.035502512
-3.3238108	aèr	-0.12031385
-4.357265	dipakè"	-0.21674308
-4.581435	"Tlambat	-0.035502512
-4.357265	ngampus,	-0.035502512
-3.2254574	ato	-0.035502486
-4.357265	ngantor	-0.035502512
-3.7933803	mending	-0.035502512
-3.5894036	daripade	-0.06331577
-4.581435	tlambat	-0.035502512
-4.581435	ngungkepin	-0.035502512
-4.581435	prasean.	-0.035502512
-4.357265	keburu	-0.035502512
-4.357265	diambil	-0.035502512
-3.1453166	temen	-0.12942751
-4.581435	dienye..	-0.035502512
-4.581435	#ARSI"	-0.035502512
-4.581435	"wipi	-0.035502512
-4.357265	kenceng,	-0.035502512
-3.2817614	deket	-0.12255677
-4.581435	alun-alun	-0.035502512
-4.581435	merdeka	-0.035502512
-2.9978213	tempat	-0.08091774
-4.357265	solat.	-0.035502512
-3.3956695	cemilan	-0.131917
-3.2254574	dikasih	-0.054431275
-4.1907473	kecewa	-0.09922832
-3.5148077	banget,	-0.035502512
-3.0302684	kek	-0.09646587
-4.581435	diberesin,	-0.035502512
-3.863894	spre	-0.035502512
-4.357265	dekil"	-0.21674308
-3.4225318	wipi	-0.12330368
-3.7933803	sesuei	-0.12863012
-4.581435	iklanin..	-0.035502512
-4.581435	"tapi	-0.035502512
-4.581435	smsan,	-0.035502512
-4.052705	gw	-0.035502512
-2.879902	lebih	-0.100036286
-3.0903955	demen	-0.07053797
-4.357265	teken	-0.035502512
-4.357265	kirim	-0.035502512
-4.581435	bejeda	-0.035502512
-4.581435	alinea	-0.035502512
-3.6321309	panjang	-0.035502486
-3.262171	gitu	-0.07598719
-4.581435	ngetiknye	-0.035502512
-3.9481184	mutusin	-0.09922832
-3.5148077	aje.	-0.035502512
-4.581435	hahahaah"	-0.035502512
-4.581435	"Kagak	-0.035502512
-4.357265	sanggup	-0.035502512
-4.357265	ngilangin	-0.035502512
-3.262171	sakit	-0.21911773
-2.9044113	Aye	-0.078794286
-3.481822	slalu	-0.054431275
-4.1907473	perjuangin	-0.035502512
-3.9481184	kite,	-0.035502512
-3.5505059	salah	-0.11165524
-4.581435	patut	-0.035502512
-3.863894	dapetin	-0.035502512
-4.581435	Keseriusan	-0.035502512
-4.1907473	elu.	-0.035502512
-2.8492362	.	-0.120002836
-4.581435	@acehkite	-0.035502512
-4.1907473	Setuju	-0.035502512
-4.581435	#KoinbuatAustralia	-0.035502512
-4.357265	Mari	-0.035502512
-4.581435	kebaliin	-0.035502512
-4.581435	bantuan	-0.035502512
-4.1907473	bentuk	-0.035502512
-4.581435	koin	-0.035502512
-4.1907473	nyesek	-0.035502512
-3.3238108	kantor	-0.060882732
-4.581435	abbot.	-0.035502512
-3.1169884	Dan	-0.07076526
-4.581435	lanjutin	-0.035502512
-4.1907473	tindakan	-0.035502512
-4.581435	ituh!	-0.035502512
-4.581435	"keresikan	-0.035502512
-4.581435	selimut,	-0.035502512
-4.052705	sarung	-0.19785714
-4.581435	bantal,	-0.035502512
-3.262171	anduk	-0.073566236
-4.052705	wangi	-0.035502512
-4.581435	bise"	-0.035502512
-3.6795251	Ade	-0.054431275
-3.3956695	hape	-0.05138713
-4.581435	ngingetin	-0.035502512
-2.705595	gue	-0.08405642
-3.2434263	tentang	-0.04802958
-2.9580162	semue	-0.05980654
-3.863894	terjadi	-0.035502512
-4.357265	diantara	-0.035502512
-3.7933803	:')	-0.08004723
-4.357265	Amè	-0.035502512
-4.1907473	carè	-0.035502512
-4.581435	bêpolitik	-0.035502512
-4.357265	dilakuin	-0.035502512
-3.2817614	karang	-0.05891915
-3.0776856	amat	-0.058919124
-3.1916068	mungkin	-0.056437347
-4.581435	dipilih	-0.035502512
-3.5505059	rakyat	-0.05891915
-4.1907473	(lagi)	-0.035502512
-4.581435	#PilkadaBarêngan	-0.035502512
-4.581435	#pêndapêt	-0.035502512
-4.581435	"cèbol	-0.035502512
-4.357265	gantêng	-0.035502512
-4.581435	ogah??	-0.035502512
-3.6321309	Mao	-0.035502486
-4.581435	sêgantêng	-0.035502512
-4.581435	cèbol	-0.035502512
-4.052705	bodo	-0.035502512
-4.581435	nanan,têtêp	-0.035502512
-4.1907473	ogah	-0.035502512
-4.581435	http://ask.fm/a/bo7moif6"	-0.035502512
-3.481822	Buat	-0.035502512
-4.581435	apwlah	-0.035502512
-3.4225318	suseh	-0.054431275
-3.7327323	cari	-0.035502512
-4.052705	didepan	-0.035502512
-4.581435	mate?	-0.035502512
-4.581435	Kamulah	-0.035502512
-4.581435	Takdirku	-0.035502512
-2.9394028	&	-0.035502512
-4.1907473	Nagita	-0.147582
-4.581435	Slavina	-0.035502512
-4.581435	https://path.com/p/1IctLX	-0.035502512
-3.5894036	Demokrat	-0.14248161
-4.357265	anggep	-0.035502512
-4.581435	ketetepan	-0.035502512
-3.5505059	presiden	-0.11165524
-3.7327323	ngasi	-0.035502512
-4.357265	kepastian	-0.035502512
-4.581435	http://ow.ly/2USpru	-0.035502512
-4.581435	"AC	-0.035502512
-3.863894	adem,	-0.035502512
-4.1907473	ngubah	-0.035502512
-4.052705	parkiran	-0.035502486
-4.357265	sempit	-0.035502512
-3.3022773	cukup	-0.035502512
-3.6321309	5	-0.035502486
-4.581435	motor.	-0.035502512
-4.581435	Cukup	-0.035502512
-4.581435	deh"	-0.035502512
-4.581435	hadeh	-0.035502512
-4.581435	mentang-mentang	-0.035502512
-4.1907473	botoh	-0.035502512
-3.3956695	eluh	-0.09342939
-4.357265	nilei	-0.035502512
-4.1907473	kejelekan	-0.035502512
-4.581435	semaunye	-0.035502512
-3.7933803	begituh	-0.035502512
-3.1309216	jangan	-0.0445771
-4.581435	somse	-0.035502512
-3.9481184	mpok	-0.035502486
-3.0903955	punye	-0.07477507
-4.581435	harge..	-0.035502512
-3.3022773	pelayanan	-0.13628767
-4.357265	staf	-0.035502512
-4.581435	amet.	-0.035502512
-4.357265	panas.	-0.035502512
-4.357265	kuning	-0.035502512
-3.9481184	semue.	-0.035502486
-4.1907473	anduknye	-0.035502512
-4.357265	coklat	-0.035502512
-3.4225318	belon	-0.09018011
-4.581435	kering.	-0.035502512
-4.581435	lift	-0.035502512
-3.863894	betah	-0.035502512
-3.7327323	disono	-0.035502512
-4.581435	"kalo	-0.035502486
-3.1169884	poto	-0.06331577
-4.581435	profil	-0.035502512
-3.481822	èmang	-0.035502512
-4.581435	vulgar	-0.035502512
-3.346468	yè	-0.064685665
-3.9481184	oke	-0.035502486
-4.581435	apè-apè,	-0.035502512
-4.581435	swapoto,	-0.035502512
-4.052705	jarak	-0.035502512
-3.863894	dêkêt	-0.08793666
-3.3956695	gono	-0.035502512
-4.581435	sêlèhèr	-0.035502512
-3.2434263	ajè	-0.07111861
-4.1907473	bawèh	-0.035502512
-3.3703723	dikit	-0.035502512
-4.052705	kêliatan	-0.035502512
-4.581435	dadènyè	-0.035502512
-4.1907473	acan	-0.147582
-3.863894	....	-0.035502512
-3.6795251	pakè	-0.069746085
-4.581435	kudungan."	-0.035502512
-4.581435	"#OrangKayèLamèKagakNgêrasèin	-0.035502512
-4.581435	paniknyè	-0.035502512
-4.357265	bênda	-0.035502512
-3.2434263	êni	-0.047521472
-4.1907473	dibagiin	-0.035502512
-4.357265	guru	-0.035502512
-4.581435	kêlas.	-0.035502512
-4.581435	Rèla	-0.035502512
-2.9303873	kê	-0.058465436
-4.357265	kantin	-0.035502512
-2.9394028	sumur	-0.053895313
-3.9481184	dêmi	-0.035502486
-4.581435	jagè	-0.035502512
-3.9481184	êni.	-0.035502486
-3.9481184	Bukan	-0.035502486
-3.0416462	karna	-0.086498596
-4.357265	jêngah	-0.035502512
-4.581435	hargènyè,	-0.035502512
-3.3022773	ngêri	-0.09040121
-4.581435	kêtauan	-0.035502512
-4.357265	namè	-0.035502512
-4.581435	tuè."	-0.035502512
-4.581435	"Woh,	-0.035502512
-3.0903955	kok	-0.044307493
-4.581435	bisè?	-0.035502512
-4.357265	:D	-0.035502512
-4.581435	@Arlaaan:	-0.035502512
-4.581435	kêsampèan	-0.035502512
-4.581435	nyobèin	-0.035502512
-4.581435	kimchi	-0.035502512
-4.581435	chigae	-0.035502512
-4.1907473	bikinan	-0.035502512
-4.581435	Farah	-0.035502512
-4.581435	Quinn	-0.035502512
-4.581435	:D"	-0.035502512
-4.581435	siang..	-0.035502512
-3.9481184	Semoge	-0.035502486
-3.7933803	gegaresan	-0.035502512
-3.9481184	berkah	-0.035502486
-4.052705	ye..	-0.035502512
-4.581435	"Pangkeng	-0.035502486
-3.5148077	resik,	-0.07537828
-3.9481184	perlengkapan	-0.035502486
-4.581435	guyang	-0.035502512
-4.1907473	oke,	-0.035502512
-4.581435	tiban	-0.035502512
-4.1907473	kebangetan	-0.035502512
-4.581435	wangi"	-0.035502512
-4.581435	"Sêlamêt	-0.035502512
-2.9580162	atu	-0.06294203
-3.2817614	bulan	-0.07132011
-4.1907473	jadian	-0.035502512
-4.357265	Maap	-0.035502512
-3.5148077	bêlon	-0.055723023
-4.581435	têrbaèk	-0.035502512
-4.357265	êlu,	-0.035502512
-4.581435	bahagièin	-0.035502512
-4.581435	sêpênuhnyè.	-0.035502512
-3.7933803	nyoba	-0.07422276
-3.9481184	bêrobah	-0.09922832
-3.1756222	lêbih	-0.1080022
-3.6795251	baèk	-0.05720401
-4.581435	Aley	-0.035502512
-3.863894	cintè	-0.08793666
-4.052705	têtêp	-0.035502512
-2.9875228	amè	-0.05498291
-4.581435	"Karang	-0.035502512
-4.1907473	gaweannye	-0.035502512
-4.581435	inpo,	-0.035502512
-3.6795251	care	-0.035502512
-4.1907473	emak	-0.035502512
-3.1756222	yg	-0.04549507
-4.581435	ngebrojolin	-0.035502512
-4.581435	nyegerin.	-0.035502512
-3.5505059	Karne	-0.08317995
-4.581435	disegerin,	-0.035502512
-3.6321309	awak	-0.06619762
-4.581435	boong	-0.035502512
-4.1907473	ga	-0.035502512
-4.581435	si?	-0.035502512
-4.581435	Ngerinye	-0.035502512
-4.357265	drop	-0.035502512
-3.1916068	malah	-0.046619672
-4.052705	ngaruh	-0.11673615
-2.9875228	si	-0.05403662
-4.581435	orok"	-0.035502512
-4.581435	"Kok	-0.035502512
-2.7109454	lu	-0.08097073
-4.581435	poni	-0.035502512
-4.1907473	samping	-0.035502512
-3.863894	Apelagi	-0.13674437
-4.581435	gini,	-0.035502512
-4.052705	rela	-0.035502512
-2.9580162	dah	-0.041993275
-3.7933803	ngelakuin	-0.035502512
-4.581435	apage	-0.035502512
-4.052705	ngejage	-0.035502512
-4.581435	senyuman	-0.035502512
-4.581435	dimuke	-0.035502512
-3.6795251	Dari	-0.035502486
-3.7327323	[USERNAME]"	-0.694969
-4.581435	Penting	-0.035502512
-4.581435	banget-->@VIVA_log:	-0.035502512
-4.052705	Tas	-0.393939
-4.1907473	Hermes	-0.08793666
-3.7933803	tengah	-0.069746085
-4.581435	miliar	-0.035502512
-3.863894	dipake	-0.035502512
-4.357265	blanje	-0.035502512
-4.357265	sayur	-0.21674308
-4.1907473	ma	-0.035502512
-4.1907473	syahrini	-0.035502512
-4.357265	http://dlvr.it/8fs9jm	-0.035502512
-4.581435	"sekoleh	-0.035502512
-4.1907473	hotelnye.	-0.035502512
-4.1907473	keresikannye	-0.035502512
-4.581435	biselah	-0.035502512
-4.1907473	ditambahin	-0.035502512
-3.451166	lagi,	-0.055723023
-4.581435	bala-bala	-0.035502512
-4.1907473	nyarapnye	-0.035502512
-3.346468	belom	-0.03550254
-4.581435	mateng	-0.035502512
-4.581435	gegares"	-0.035502512
-4.581435	"Auk	-0.035502512
-4.581435	kapankah	-0.035502512
-4.1907473	onoh,	-0.035502512
-3.1453166	onoh	-0.035502512
-4.581435	nyari,??	-0.035502512
-4.357265	Kamu	-0.035502512
-4.357265	Kutunggu	-0.035502512
-3.7933803	(barêng	-0.035502512
-4.357265	Afgan)	-0.035502512
-4.357265	Rossa	-0.147582
-4.581435	https://path.com/p/15tpWQ"	-0.035502512
-4.357265	min	-0.035502512
-4.581435	pengajuan	-0.035502512
-4.581435	reksa	-0.035502512
-4.1907473	dane	-0.035502512
-4.581435	setujui	-0.035502512
-4.581435	tgl	-0.035502512
-4.581435	28/05.	-0.035502512
-4.1907473	Kok	-0.035502486
-4.357265	hadieh	-0.035502512
-4.581435	diskon.	-0.035502512
-4.581435	Cek	-0.035502512
-4.052705	surat	-0.035502512
-4.581435	elektronik	-0.035502512
-2.9774628	[URL]	-0.7779403
-4.581435	"Lagu	-0.035502512
-4.357265	kesenengan	-0.035502512
-4.052705	album	-0.035502512
-3.863894	Makasih	-0.035502512
-4.581435	Nambawan,	-0.035502512
-3.5894036	makasih	-0.06331577
-4.581435	Dynamic	-0.035502512
-4.581435	Duo,	-0.035502512
-4.581435	GRAY	-0.035502512
-4.581435	oppa,	-0.035502512
-4.1907473	semuenye	-0.035502512
-4.581435	Lagunye	-0.035502512
-4.581435	semenggah	-0.035502512
-4.357265	kerjain	-0.035502512
-4.581435	skripsishit	-0.035502512
-4.581435	#WannaOne	-0.035502512
-4.581435	#lagidimaenin	-0.035502512
-4.1907473	Walao	-0.26900026
-4.581435	syarat	-0.035502512
-3.5148077	dua	-0.05891915
-4.581435	bucin	-0.035502512
-4.581435	baejin	-0.035502512
-4.357265	wanna	-0.21674308
-4.581435	one	-0.035502512
-3.7933803	siape	-0.12075446
-4.581435	anggotanye	-0.035502512
-4.581435	bejanji	-0.035502512
-4.581435	ngebuang	-0.035502512
-4.581435	barang-barang	-0.035502512
-4.581435	"Entong	-0.035502512
-3.9481184	Jokowi,	-0.035502486
-4.581435	golput	-0.035502512
-4.581435	sekalian,	-0.035502512
-3.6321309	ntar	-0.035502486
-4.581435	Pancasila	-0.035502512
-3.9481184	dasar	-0.035502486
-3.5505059	negare	-0.060928743
-4.1907473	ikutan	-0.035502512
-4.581435	keganti..	-0.035502512
-4.581435	Mao??	-0.035502512
-4.581435	Ogaaaahh!!!"	-0.035502512
-4.581435	"Paling	-0.035502512
-3.7327323	males	-0.035502512
-3.9481184	melek	-0.16016795
-3.863894	mate	-0.035502512
-4.357265	sekola.	-0.035502512
-4.581435	cuaca	-0.035502512
-4.581435	mendung	-0.035502512
-4.581435	grimis,	-0.035502512
-4.581435	pengennya	-0.035502512
-3.9481184	ujan	-0.035502486
-3.6321309	bagen	-0.12863012
-4.052705	berangkat	-0.035502512
-3.9481184	sekola	-0.035502486
-4.581435	"Elu	-0.035502512
-4.581435	hal-hal	-0.035502512
-4.581435	antepin,sungguh	-0.035502512
-4.581435	mencintai	-0.035502512
-4.581435	betarung	-0.035502512
-4.581435	sesek	-0.035502512
-4.581435	napas."	-0.035502512
-4.581435	"Jamban	-0.035502512
-4.581435	engap	-0.035502512
-2.9128985	soalnye	-0.09378503
-4.581435	ilir	-0.035502512
-4.581435	nyale,	-0.035502512
-4.052705	kotor,	-0.035502486
-3.0776856	AC	-0.18217349
-3.9481184	dingin	-0.035502512
-4.581435	rendah	-0.035502512
-4.1907473	suhu	-0.035502512
-4.581435	25degC"	-0.035502512
-4.581435	"Coba	-0.035502512
-3.6795251	deh	-0.06619762
-4.581435	taro	-0.035502512
-4.581435	pot	-0.035502512
-4.357265	taneman	-0.035502512
-3.9481184	sekitar	-0.035502512
-4.1907473	meja	-0.035502512
-4.357265	kantor.	-0.035502512
-3.3022773	Kaga	-0.10076417
-3.3238108	cuman	-0.035502512
-4.357265	ngecakepin	-0.035502512
-4.581435	ruangan,	-0.035502512
-4.581435	manpaat	-0.035502512
-3.3238108	laen	-0.056437347
-4.581435	lho!	-0.035502512
-3.481822	liet	-0.05720401
-4.581435	vlive	-0.035502512
-4.581435	kemaren-kemaren	-0.035502512
-4.1907473	megang	-0.147582
-4.357265	jae	-0.035502512
-4.581435	do	-0.035502512
-3.5505059	serem	-0.035502512
-4.581435	layarnye	-0.035502512
-4.581435	kekonci	-0.035502512
-3.2434263	terus	-0.035502486
-3.481822	satu	-0.035502512
-3.2817614	same	-0.08786431
-4.581435	sidik	-0.035502512
-4.581435	jari?!!!!!!!!!!!!!!!	-0.035502512
-3.2082024	lah	-0.08178809
-4.357265	Wifi	-0.035502512
-3.9481184	bilik	-0.09922832
-4.581435	dikonci...	-0.035502512
-4.581435	"Baca	-0.035502512
-3.863894	pêsên	-0.23934917
-4.581435	Whatsapp	-0.035502512
-4.581435	mikir..	-0.035502512
-3.5894036	Guah	-0.08793666
-3.451166	tuh	-0.035502512
-3.3022773	kadang	-0.049186487
-3.9481184	suka	-0.035502486
-3.6321309	kêbangêtan	-0.035502486
-3.7327323	orang.	-0.035502512
-4.357265	nyadar.	-0.035502512
-3.5148077	Ora	-0.035502512
-3.6795251	jarang	-0.035502512
-3.5894036	sih,	-0.06331577
-4.581435	sêlalu.	-0.035502512
-4.581435	Nauin,	-0.035502512
-3.5148077	kèk	-0.05891915
-4.581435	malaèkat."	-0.035502512
-4.581435	"Ade	-0.035502512
-3.7327323	bang	-0.035502512
-4.581435	gegares?	-0.035502512
-4.581435	(wah	-0.035502512
-4.581435	tumben,	-0.035502512
-4.581435	nanyain)	-0.035502512
-4.357265	duluan	-0.035502512
-4.581435	Ade:	-0.035502512
-4.357265	maksudnye	-0.035502512
-4.581435	kucingnye	-0.035502512
-4.581435	Aye:	-0.035502512
-4.581435	hetdah	-0.035502512
-3.5148077	liat	-0.083670706
-3.5505059	sono	-0.055723023
-4.581435	gegaresannye.	-0.035502512
-3.5148077	Emang	-0.076039985
-4.581435	emang"	-0.035502512
-4.581435	Kasarnye	-0.035502512
-4.052705	dengerin	-0.035502512
-3.863894	musik	-0.035502512
-3.6321309	kuar	-0.035502512
-4.581435	musiknye	-0.035502512
-4.581435	Shinhwa	-0.035502512
-4.052705	mulu.	-0.035502512
-4.052705	Bikin	-0.035502486
-4.1907473	joget	-0.035502512
-3.5894036	wkwk	-0.08778544
-4.581435	xD.	-0.035502512
-4.052705	namenye	-0.035502512
-4.357265	reaksi	-0.035502512
-4.581435	spontan	-0.035502512
-4.581435	xD	-0.035502512
-3.7327323	iye	-0.035502512
-4.357265	tur	-0.035502512
-4.1907473	blagu	-0.035502512
-4.1907473	:d	-0.035502512
-4.357265	:/	-0.035502512
-4.581435	"Pokoknye	-0.035502512
-3.863894	pilihan	-0.035502512
-4.357265	jalanan	-0.035502512
-3.863894	ini,	-0.035502512
-4.581435	ingett	-0.035502512
-4.1907473	alam	-0.035502512
-2.9486098	tau	-0.07656355
-3.5505059	kapan	-0.035502512
-4.581435	cobaanye,	-0.035502512
-3.6321309	gampang	-0.035502512
-4.581435	suseh."	-0.035502512
-4.581435	"Jem	-0.035502512
-3.1169884	malem	-0.09067431
-3.7327323	panteng	-0.035502512
-4.581435	pidio-pidio	-0.035502512
-4.357265	penampakan	-0.21674308
-4.581435	yutup,	-0.035502512
-3.481822	mane	-0.035502512
-3.7327323	lampu	-0.035502512
-3.9481184	rumeh	-0.035502512
-3.9481184	matiin	-0.035502486
-4.357265	semue."	-0.21674308
-4.581435	"Nutup	-0.035502512
-4.1907473	malu	-0.035502512
-4.581435	""""@NKRIndonesia79:	-0.035502512
-4.1907473	Aneh	-0.035502512
-4.1907473	bin	-0.147582
-4.581435	Ajaib	-0.035502512
-4.1907473	>>	-0.035502512
-4.581435	Dinilei	-0.035502512
-3.6795251	jike	-0.035502512
-3.863894	Terime	-0.13674437
-3.863894	Badrodin	-0.20406169
-4.052705	Kapolri	-0.035502512
-4.581435	http://ln.is/nasional.inilah.com/T4Bdw	-0.035502512
-4.581435	||@PinterPolitik"	-0.035502512
-4.581435	"Kalu	-0.035502512
-4.357265	rumah.	-0.035502512
-4.357265	Lêbih	-0.035502512
-4.357265	ènak	-0.035502512
-4.581435	rêbahan,	-0.035502512
-4.581435	maènin	-0.035502512
-4.581435	hapè,	-0.035502512
-4.1907473	dêngêrin	-0.035502512
-4.357265	tipi.	-0.035502512
-4.052705	Ama	-0.035502512
-3.1034884	kalu	-0.094079785
-3.1916068	udah	-0.035502512
-4.357265	bosên	-0.035502512
-3.6795251	pisan	-0.100311026
-4.581435	rumah,	-0.035502512
-3.863894	molor.	-0.035502512
-4.581435	"Rumeh	-0.035502512
-4.052705	sekedar	-0.035502512
-4.581435	benda	-0.035502512
-3.3238108	mati	-0.06619762
-3.7327323	kembali	-0.035502512
-4.052705	sesudeh	-0.035502512
-4.581435	minggat,	-0.035502512
-3.451166	iyelah	-0.053294685
-4.581435	sgale	-0.035502512
-4.581435	minggat,kek	-0.035502512
-4.581435	kluarge	-0.035502512
-4.581435	(babeh	-0.035502512
-4.581435	enyak)	-0.035502512
-4.581435	ayem	-0.035502512
-4.1907473	ngamuk	-0.035502512
-3.1309216	tetep	-0.06022161
-4.581435	mendukung	-0.035502512
-4.357265	titik	-0.035502512
-4.581435	terendeh	-0.035502512
-3.5148077	kite.	-0.035502512
-4.052705	Rumeh	-0.035502512
-4.1907473	surge	-0.035502512
-4.581435	"pagi	-0.035502512
-3.3703723	ênih	-0.035502486
-4.581435	bêrita	-0.035502512
-4.581435	tajuk	-0.035502512
-4.581435	bêritanyah	-0.035502512
-3.4225318	ngêja	-0.035502512
-3.7933803	mulè	-0.069746085
-4.581435	'Laki	-0.035502512
-4.581435	bini'	-0.035502512
-2.9875228	,	-0.05498291
-4.581435	'Êngkong	-0.035502512
-4.581435	mêrkosa	-0.035502512
-4.581435	cucu'	-0.035502512
-4.581435	'Ayam	-0.035502512
-4.357265	bakar	-0.035502512
-4.581435	solo'	-0.035502512
-3.481822	êmên	-0.055723023
-4.581435	bêrita"	-0.035502512
-4.581435	"masyarakat	-0.035502512
-4.1907473	nelayan	-0.035502512
-4.581435	kbt	-0.035502512
-4.581435	merauke	-0.035502512
-4.581435	papua,	-0.035502512
-4.581435	waswas	-0.035502512
-4.357265	gelise	-0.035502512
-4.581435	leletnye	-0.035502512
-4.581435	(dokumen)	-0.035502512
-4.052705	kapal	-0.035502512
-4.357265	malahan	-0.035502512
-4.581435	taunan,pedahal	-0.035502512
-3.7327323	masyarakat	-0.035502512
-4.581435	ngebayar	-0.035502512
-3.9481184	20	-0.035502486
-4.581435	jutaan	-0.035502512
-4.357265	ditamba	-0.035502512
-4.581435	seringnye	-0.035502512
-4.581435	pungutan	-0.035502512
-4.581435	liar.."	-0.035502512
-4.581435	Nangroe	-0.035502512
-4.581435	Aceh	-0.035502512
-4.581435	Darussalam	-0.035502512
-4.581435	Istimewa	-0.035502512
-4.581435	Al	-0.035502512
-4.581435	Fatihah	-0.035502512
-4.357265	Teuku	-0.21674308
-4.581435	Markam	-0.035502512
-4.052705	salam	-0.035502512
-4.581435	hormat	-0.035502512
-3.7327323	keluarge	-0.035502512
-4.581435	"Abis	-0.035502512
-4.581435	Maké	-0.035502512
-4.581435	Bêrlian	-0.035502512
-4.581435	Miliar,	-0.035502512
-4.357265	Karang	-0.035502512
-3.1309216	Syahrini	-0.06483498
-4.581435	Dandan	-0.035502512
-4.581435	Sêrasi:	-0.035502512
-4.357265	sari-sarinyah	-0.035502512
-4.357265	tampil	-0.035502512
-4.581435	mèwah	-0.035502512
-4.581435	dibarêngin	-0.035502512
-4.357265	p...	-0.035502512
-4.581435	http://bit.ly/18c9pNO"	-0.035502512
-4.1907473	Pangkengnye	-0.035502486
-3.2082024	cakep	-0.089862674
-3.7933803	banget.	-0.035502512
-3.6795251	pelayan	-0.035502512
-4.052705	lelet	-0.11673615
-4.581435	"tolong	-0.035502512
-4.581435	kemren	-0.035502512
-4.357265	dagangan	-0.035502512
-4.581435	kilat	-0.035502512
-3.7327323	bayar	-0.069746085
-4.1907473	dikabarin	-0.035502512
-4.581435	stoknye	-0.035502512
-4.581435	bures,	-0.035502512
-4.581435	dang	-0.035502512
-4.1907473	ngecek	-0.035502512
-4.357265	stok	-0.035502512
-4.581435	ape?	-0.035502512
-4.581435	Ngênyênêngin.	-0.035502512
-3.346468	Tibang	-0.09043927
-3.6795251	ajah	-0.069746085
-4.1907473	têrlebih	-0.035502512
-4.357265	jambannyah	-0.035502512
-4.581435	sirêmannyah	-0.035502512
-3.7327323	butut	-0.07422276
-3.3703723	rada	-0.06619762
-3.863894	cêbrik	-0.08004723
-3.7933803	bênêr	-0.035502512
-2.6748075	ora	-0.15137917
-3.2434263	bisa	-0.035502512
-4.581435	dipakèin.	-0.035502512
-3.9481184	Ada	-0.08004723
-4.1907473	déposit	-0.035502512
-3.9481184	50	-0.035502486
-4.581435	rèbu	-0.035502512
-4.1907473	walo	-0.035502512
-3.6795251	nanti	-0.035502512
-4.581435	dikêmbaliin.	-0.035502512
-4.581435	"hotelnye	-0.035502512
-4.581435	cakep,pelayanan	-0.035502512
-4.357265	kurangnye	-0.035502512
-4.357265	dingin"	-0.21674308
-4.581435	"CA	-0.035502512
-3.7933803	usahe	-0.08004723
-4.581435	lanjutan	-0.035502512
-4.357265	pelayan,	-0.035502512
-4.357265	kurang..	-0.035502512
-3.1309216	kali	-0.08475975
-3.0302684	ati	-0.110894494
-4.357265	airy.."	-0.21674308
-4.581435	"nyesel	-0.035502512
-3.2254574	nginep	-0.2154689
-4.581435	sini,	-0.035502512
-4.052705	mesen	-0.035502486
-4.1907473	lewat	-0.035502512
-3.863894	airyrooms	-0.035502512
-3.3956695	pasilitas	-0.053294685
-3.5505059	sama	-0.05891915
-4.357265	sekali,	-0.035502512
-3.6795251	nyakitin	-0.22989891
-4.052705	15	-0.11673615
-3.9481184	menit	-0.035502512
-3.863894	parkir	-0.035502512
-4.1907473	sumpek	-0.035502512
-3.3956695	ajer	-0.10007547
-4.581435	intinye"	-0.035502512
-4.1907473	Sobat	-0.035502512
-4.1907473	nemenin	-0.035502512
-4.581435	maopun	-0.035502512
-3.9481184	seneng.	-0.035502486
-3.5894036	seneng	-0.035502512
-3.7933803	pergi	-0.035502512
-4.581435	sengsare	-0.035502512
-4.581435	"{MU}	-0.035502512
-3.7933803	temen-temen	-0.035502512
-4.357265	ngecet	-0.21674308
-4.357265	rambut,	-0.035502512
-4.052705	sebelomnye	-0.035502512
-3.3703723	minta	-0.035502512
-4.1907473	saran	-0.035502512
-4.581435	warnanye	-0.035502512
-3.5894036	ye?	-0.035502512
-4.581435	heboh-heboh	-0.035502512
-4.581435	kaget"	-0.035502512
-4.357265	Harge	-0.035502512
-4.1907473	disediain	-0.035502512
-4.581435	impas	-0.035502512
-3.3703723	Pas	-0.03550254
-4.357265	diminta	-0.035502512
-4.052705	ada.	-0.035502486
-3.262171	kate	-0.07969727
-3.3703723	resik	-0.10948714
-3.6795251	standar	-0.06619762
-4.357265	hotel.	-0.035502512
-3.7327323	Banyak	-0.035502512
-4.052705	debu	-0.035502512
-3.5148077	apelagi	-0.05891915
-4.1907473	buka	-0.035502512
-4.581435	ordeng	-0.035502512
-3.7327323	keliatan	-0.035502512
-3.6321309	kayenye	-0.035502512
-4.581435	berbulan-bulan	-0.035502512
-4.581435	dibersiin.	-0.035502512
-4.581435	berbau	-0.035502512
-4.1907473	sedep.	-0.147582
-3.3238108	rade	-0.085551746
-3.9481184	merah-meruh	-0.035502486
-3.863894	jambannye	-0.147582
-3.9481184	seprenye	-0.035502486
-4.581435	Sêmêntara	-0.035502512
-4.581435	bêgonoh	-0.035502512
-4.581435	kêngêrian	-0.035502512
-4.581435	ngêlanjutin	-0.035502512
-3.7933803	hubungan	-0.035502512
-3.9481184	arah	-0.035502486
-4.357265	sêrius	-0.035502512
-4.581435	ngêmutusin	-0.035502512
-4.581435	pisah	-0.035502512
-3.6795251	lanang	-0.035502512
-4.052705	guah.	-0.035502486
-3.863894	hotèl	-0.08004723
-4.581435	lêba	-0.035502512
-4.581435	pêsawahan	-0.035502512
-4.052705	pêranti	-0.035502512
-4.581435	kêtênangan..	-0.035502512
-4.581435	kumplit..	-0.035502512
-4.581435	kêrak	-0.035502512
-4.581435	dêbu	-0.035502512
-4.581435	pangkéng	-0.035502512
-4.581435	nauin	-0.035502512
-4.052705	didandanin	-0.035502512
-4.581435	309	-0.035502512
-4.357265	ngerembes	-0.21674308
-4.052705	Pake	-0.035502486
-4.581435	jaket	-0.035502512
-3.4225318	pakean	-0.09018011
-4.581435	tebel	-0.035502512
-4.052705	ngurangin	-0.035502512
-4.357265	menjage	-0.035502512
-3.7327323	badan	-0.069746085
-3.9481184	anget	-0.124933735
-4.581435	"Tipi	-0.035502512
-4.581435	jernih,	-0.035502512
-4.581435	nyarap,	-0.035502512
-3.7327323	pangkengnye	-0.035502486
-4.357265	kedep	-0.035502512
-3.5148077	suare	-0.035502512
-3.5894036	luar	-0.13889034
-4.581435	kedengeran."	-0.035502512
-4.581435	"di	-0.035502512
-4.357265	stiap	-0.035502512
-4.357265	tatapan	-0.035502512
-4.581435	mate,	-0.035502512
-4.357265	genggeman	-0.035502512
-4.581435	tangan,	-0.035502512
-4.581435	dekepan	-0.035502512
-4.581435	anget,	-0.035502512
-3.5505059	bagi	-0.08793666
-3.9481184	tiep	-0.035502486
-4.581435	pasangan,	-0.035502512
-4.581435	pemahaman	-0.035502512
-4.581435	berbeda,	-0.035502512
-4.581435	pengartian	-0.035502512
-4.581435	beda,	-0.035502512
-3.4225318	bejibun	-0.035502512
-4.581435	terluke,	-0.035502512
-3.3238108	itu	-0.10076417
-4.357265	berenti	-0.035502512
-4.581435	cinte.	-0.035502512
-3.3703723	Cinte	-0.052286863
-4.581435	sempurne"	-0.035502512
-4.581435	"Èmangnyah	-0.035502512
-4.357265	montên	-0.035502512
-4.052705	nuduh	-0.035502512
-4.581435	dah...	-0.035502512
-4.357265	Apahlagih	-0.035502512
-3.6321309	pêrnah	-0.035502512
-4.581435	barêng...	-0.035502512
-4.581435	Wuuuh,	-0.035502512
-4.357265	bêrasa	-0.035502512
-4.052705	sêmuanyah	-0.035502512
-4.581435	dong..	-0.035502512
-4.357265	Idup	-0.035502512
-4.581435	ngêkos	-0.035502512
-3.6795251	barêng	-0.035502512
-4.581435	=	-0.035502512
-4.052705	ngalahin	-0.035502512
-4.581435	taun..."	-0.035502512
-4.1907473	terjage	-0.035502512
-4.581435	"Temen	-0.035502512
-4.357265	SMA	-0.035502512
-4.052705	nih,	-0.035502512
-4.357265	bgt	-0.035502512
-4.581435	jomblo	-0.035502512
-2.9215548	ari	-0.05929524
-4.1907473	mengkenye	-0.035502512
-4.581435	gangguin	-0.035502512
-4.357265	Barangkali	-0.035502512
-4.581435	kenalan.	-0.035502512
-3.6795251	Die	-0.100311026
-3.6795251	maren	-0.035502512
-4.357265	cemceman	-0.035502512
-4.581435	ngeetiin	-0.035502512
-4.581435	hehew	-0.035502512
-3.9481184	Tulung	-0.035502486
-4.052705	tambahin	-0.035502512
-3.5148077	lagih	-0.035502512
-4.581435	kêrêsikannyah	-0.035502512
-4.357265	têrutama	-0.035502512
-4.357265	sêpréh	-0.035502512
-3.481822	ulang	-0.11150544
-3.3238108	taun	-0.035502512
-4.581435	perkawinan	-0.035502512
-4.581435	bil	-0.035502512
-4.357265	wkwkwk,	-0.035502512
-4.1907473	bedue	-0.035502512
-4.581435	radiiitt,	-0.035502512
-3.863894	gile	-0.035502512
-4.581435	radit	-0.035502512
-3.6795251	niat	-0.035502512
-3.5894036	loh	-0.035502512
-4.581435	ucapan	-0.035502512
-4.581435	enipnyee,	-0.035502512
-3.451166	sampe	-0.07422276
-4.581435	dibantuin	-0.035502512
-4.581435	cewe-cewe	-0.035502512
-4.581435	dimarih:))))"	-0.035502512
-4.581435	"pêlayanannyah	-0.035502512
-4.052705	gêpyak	-0.035502512
-4.581435	pangkêngnyah	-0.035502512
-3.6795251	walopun	-0.035502512
-4.357265	sêpréhnyah	-0.035502512
-4.1907473	dêkil	-0.035502512
-4.581435	ngapah-ngapah	-0.035502512
-4.1907473	soalnyah	-0.035502512
-4.357265	sêlimut	-0.035502512
-4.581435	sèrêp	-0.035502512
-4.357265	kêlimpungan	-0.035502512
-4.052705	sêmbahyang	-0.035502512
-4.052705	turun	-0.08793666
-4.581435	langgar	-0.035502512
-4.357265	minjêm	-0.035502512
-4.581435	mêkêna.	-0.035502512
-4.581435	ribêt	-0.035502512
-4.581435	ujan"	-0.035502512
-4.581435	"Gemes	-0.035502512
-4.052705	nganggep	-0.035502512
-4.357265	wajar	-0.035502512
-3.7327323	pelecehan	-0.109136835
-4.357265	seksual	-0.035502512
-3.9481184	secare	-0.035502486
-4.357265	lisan	-0.035502512
-4.357265	pisik	-0.035502512
-4.357265	am	-0.035502512
-3.9481184	juge,	-0.035502486
-4.581435	dibenerin!"	-0.035502512
-4.581435	"Mendikbud:	-0.035502512
-4.581435	Sekoleh	-0.035502512
-4.052705	dikasihin	-0.035502512
-4.1907473	keyakinan	-0.035502512
-4.581435	nentuin	-0.035502512
-4.581435	kelulusan,	-0.035502512
-4.581435	diharepin	-0.035502512
-4.1907473	ntu"	-0.26900026
-4.581435	"Buat	-0.035502512
-4.581435	cegat	-0.035502512
-4.581435	radikalisme?	-0.035502512
-4.581435	deskripsiin	-0.035502512
-4.581435	batesan	-0.035502512
-4.581435	radikalisme.	-0.035502512
-4.581435	batesannye	-0.035502512
-4.581435	kriminalisasi	-0.035502512
-4.357265	ajaran	-0.035502512
-4.357265	Islam,	-0.035502512
-4.581435	radikalisme	-0.035502512
-4.581435	Sekuler.	-0.035502512
-4.357265	45	-0.035502512
-4.357265	ledakan	-0.035502512
-4.581435	Libya	-0.035502512
-4.1907473	Timur	-0.035502512
-4.581435	http://bit.ly/1AWa82b	-0.035502512
-4.581435	"Makasih	-0.035502512
-4.581435	donasi	-0.035502512
-4.581435	@DDsulsel	-0.035502512
-4.581435	brupe	-0.035502512
-4.581435	seragam	-0.035502512
-4.581435	olahrage,seragam	-0.035502512
-4.581435	sekola,tas	-0.035502512
-4.357265	sepatu	-0.035502512
-4.581435	"Lagi	-0.035502512
-4.581435	terjadi:	-0.035502512
-4.1907473	kulieh	-0.035502512
-3.3022773	sering	-0.060857654
-4.357265	ngatain	-0.035502512
-4.1907473	pemerentah	-0.035502512
-3.863894	lah,	-0.035502512
-3.481822	ngirim	-0.17860202
-3.5894036	pesen	-0.07422276
-4.052705	nanye	-0.035502512
-4.581435	tipsnye	-0.035502512
-3.2434263	supaye	-0.16971141
-4.357265	lolos	-0.035502512
-3.863894	tes	-0.035502512
-4.581435	CPNS?"	-0.035502512
-4.581435	"Heran	-0.035502512
-4.581435	mondar-mandir	-0.035502512
-4.581435	Salemba.	-0.035502512
-3.5148077	due	-0.05891915
-4.1907473	Minggu	-0.035502512
-2.9394028	abis	-0.06172854
-4.581435	nonjok	-0.035502512
-3.481822	bocah	-0.035502512
-4.581435	RW	-0.035502512
-4.581435	iyeng	-0.035502512
-4.581435	nanggepin	-0.035502512
-4.581435	keluhan	-0.035502512
-4.581435	wargenye.	-0.035502512
-3.1169884	airy	-0.09968122
-4.581435	rooms	-0.035502512
-3.1034884	ngasih	-0.05332577
-4.581435	garansi	-0.035502512
-3.6321309	gratis	-0.06619762
-3.7327323	nambah	-0.035502512
-3.7933803	Rp	-0.035502512
-4.581435	10.000/malem	-0.035502512
-3.6795251	cocok	-0.099924095
-3.1916068	tipi	-0.1242104
-4.581435	tabung	-0.035502512
-4.581435	LED	-0.035502512
-4.581435	"Luh	-0.035502512
-3.7327323	ngapah	-0.035502512
-4.1907473	galau	-0.035502512
-4.581435	baè:(	-0.035502512
-3.7327323	luh	-0.17874639
-4.581435	mênêng,	-0.035502512
-3.7933803	sênêng	-0.035502512
-4.581435	mênêng.	-0.035502512
-4.357265	Sêmangêt	-0.035502512
-3.5505059	dong	-0.035502512
-3.6795251	Mpok	-0.035502512
-4.581435	Nanas	-0.035502512
-4.581435	nèpain	-0.035502512
-3.3703723	orang-orang	-0.052286863
-4.581435	loh:(	-0.035502512
-4.581435	wkwk"	-0.035502512
-4.581435	#faktèsobat	-0.035502512
-3.2817614	diè	-0.08317995
-3.7327323	tukang	-0.06619762
-4.581435	minjêmin	-0.035502512
-3.3703723	hapè	-0.052286863
-3.3703723	kitè	-0.035502512
-4.357265	pulsè	-0.035502512
-4.581435	"zzz	-0.035502512
-3.7327323	-_-	-0.109136835
-4.581435	""""@izzizraa:	-0.035502512
-4.357265	Salam	-0.035502512
-3.5148077	baju	-0.035502512
-3.7327323	haha	-0.109136835
-4.581435	?@esthii29:	-0.035502512
-4.581435	@LiskaLasantu2	-0.035502512
-4.581435	,semue	-0.035502512
-4.357265	terbae	-0.035502512
-4.581435	????"	-0.035502512
-4.581435	"Kotor,	-0.035502512
-4.1907473	aer,	-0.035502512
-4.581435	merah-meruh,	-0.035502512
-4.581435	kerasan."	-0.035502512
-4.581435	Tebang	-0.035502512
-4.581435	Ucapan	-0.035502512
-4.1907473	Makasi	-0.035502512
-4.1907473	Charles	-0.26900026
-4.357265	Honoris	-0.035502512
-4.581435	http://bit.ly/1yQcWfy	-0.035502512
-4.581435	#JokowiJK	-0.035502512
-3.9481184	Jadwal	-0.24733719
-4.1907473	Padet	-0.26900026
-4.581435	Semp...	-0.035502512
-4.357265	http://bit.ly/1vQMAEj	-0.21674308
-4.581435	"ape	-0.035502512
-4.357265	ubungannye	-0.035502512
-3.9481184	antare	-0.035502486
-3.7933803	puase	-0.035502512
-3.7933803	kosong	-0.035502512
-4.581435	marenmaren	-0.035502512
-3.9481184	dibuat	-0.035502486
-3.863894	kesel	-0.035502512
-3.5505059	tiap	-0.07932076
-4.357265	gegara	-0.035502512
-3.863894	giliran	-0.035502512
-4.357265	mobil,	-0.035502512
-4.581435	melompong	-0.035502512
-4.581435	#LYFE"	-0.035502512
-4.581435	"Pertama	-0.035502512
-4.052705	kêtêmu	-0.035502512
-3.1916068	wayah	-0.08004723
-4.357265	orok	-0.035502512
-3.7327323	umur	-0.035502512
-3.3238108	3	-0.14689341
-4.052705	kêlas	-0.11673615
-3.2817614	1	-0.060857654
-4.581435	SD,	-0.035502512
-4.357265	begonoh	-0.035502512
-4.581435	gasik...	-0.035502512
-4.357265	namanyah	-0.035502512
-4.581435	Raditya	-0.035502512
-3.6795251	punya	-0.035502512
-4.357265	cita	-0.035502512
-4.581435	pêgawè	-0.035502512
-4.581435	pêmadêm	-0.035502512
-4.357265	kêbakaran.	-0.035502512
-4.581435	Pintêr	-0.035502512
-3.3022773	yak	-0.06331577
-4.581435	Tong	-0.035502512
-4.581435	sêkolanyah"	-0.035502512
-4.581435	[askMF]	-0.035502512
-4.357265	presentasi	-0.035502512
-3.6321309	lu-lu	-0.46119794
-4.357265	ni	-0.035502512
-3.5148077	depan	-0.04984901
-4.052705	umum	-0.035502512
-4.357265	canggung	-0.035502512
-4.581435	gt	-0.035502512
-3.481822	ngeri	-0.035502512
-3.6795251	sale	-0.16028935
-4.357265	ngomong?	-0.035502512
-4.581435	"Orang	-0.035502512
-4.581435	kejem	-0.035502512
-3.5894036	ujug-ujug	-0.035502512
-4.357265	dateng,	-0.035502512
-4.1907473	pegih	-0.035502512
-3.9481184	saat	-0.08004723
-3.863894	suse	-0.035502512
-4.357265	payah	-0.035502512
-4.581435	bangkit."	-0.035502512
-4.581435	Bejibun	-0.035502512
-4.1907473	kecoe	-0.035502512
-4.357265	kutu	-0.035502512
-3.5148077	aernye	-0.035502512
-4.581435	ngênipuin	-0.035502512
-4.581435	idèntitas	-0.035502512
-3.481822	adalah	-0.035502512
-4.581435	ênyaklu	-0.035502512
-4.1907473	dèwèk,	-0.147582
-4.357265	WA	-0.035502486
-4.357265	pêrnèh	-0.035502512
-3.9481184	dèwèk	-0.035502486
-4.1907473	ayè.	-0.035502512
-4.581435	klién	-0.035502512
-4.581435	ganjên,	-0.035502512
-3.863894	ngajak	-0.035502512
-4.357265	kêtêmu,	-0.035502512
-3.5505059	padahal	-0.060928743
-4.581435	ayènyè	-0.035502512
-4.581435	boro-boro	-0.035502512
-4.581435	modusin"	-0.035502512
-4.581435	Kêbêranian	-0.035502512
-4.052705	Gigi	-0.035502512
-4.581435	@dahSyatMusik	-0.035502512
-4.581435	http://youtu.be/Lc4_J28QK-U?a	-0.035502512
-4.581435	"Wifi	-0.035502512
-4.052705	lelet,	-0.11673615
-4.052705	panas,	-0.035502486
-4.357265	resik"	-0.21674308
-4.581435	"Dari	-0.035502486
-3.7933803	mulain	-0.035502512
-4.581435	disuruh-suruh,	-0.035502512
-4.581435	dibentak,	-0.035502512
-4.357265	diomel-omelin.	-0.035502512
-4.581435	Untungnye	-0.035502512
-4.357265	kekerasan	-0.035502512
-3.863894	sisi	-0.035502512
-4.052705	mental	-0.035502512
-4.581435	iseng/kagak	-0.035502512
-3.3703723	kerasan	-0.073566236
-3.6321309	sekoleh	-0.035502512
-3.7327323	dewek.	-0.06619762
-4.1907473	katanye	-0.035502512
-4.581435	ekting,	-0.035502512
-4.581435	ajelah	-0.035502512
-4.581435	ngebekas."	-0.035502512
-4.581435	suseh...	-0.035502512
-4.581435	langsung..	-0.035502512
-4.052705	okeh	-0.035502512
-4.581435	"Nenek-nenek	-0.035502512
-4.581435	'Nerbangin'	-0.035502512
-4.581435	Jeep,	-0.035502512
-4.581435	Nibanin	-0.035502512
-3.7327323	tige	-0.035502512
-3.4225318	Mobil	-0.053294685
-4.581435	Mewah	-0.035502512
-4.581435	http://bit.ly/1A5lpGq	-0.035502512
-3.346468	liwat	-0.05057894
-4.581435	@VIVAnews"	-0.035502512
-4.581435	"Pinan	-0.035502512
-3.9481184	KPK	-0.12075446
-4.581435	Usulan	-0.035502512
-4.052705	SBY	-0.035502512
-4.1907473	Dipilih	-0.19785714
-4.357265	http://kom.ps/AFploc	-0.035502512
-4.581435	""""@wahyudi_sudibya:	-0.035502512
-4.581435	Bersihkan	-0.035502512
-4.581435	Rezim	-0.035502512
-4.581435	SBY?	-0.035502512
-4.581435	http://brt.st/4t5j"	-0.035502512
-4.581435	Tige	-0.035502512
-4.581435	Remaje	-0.035502512
-3.863894	Wadon	-0.035502512
-4.581435	Dikhawatirin	-0.035502512
-4.357265	Ngikut	-0.035502512
-4.581435	ISIS	-0.035502512
-4.581435	http://goo.gl/fb/BPCFGS	-0.035502512
-4.357265	http://goo.gl/VUXs9j	-0.21674308
-4.1907473	Lu	-0.035502512
-4.1907473	bile	-0.035502512
-4.357265	pembangunan	-0.035502512
-4.357265	dilanjutin	-0.035502512
-3.4225318	mikir	-0.035502512
-4.581435	berikutnye	-0.035502512
-4.581435	ngebangun?	-0.035502512
-4.357265	Ngape	-0.035502512
-4.581435	utang	-0.035502512
-4.581435	ngegunung	-0.035502512
-3.9481184	jokowi	-0.035502486
-4.581435	bangkrut???	-0.035502512
-4.581435	cebi	-0.035502512
-4.581435	syaratnye	-0.035502512
-3.6795251	otak	-0.035502486
-4.581435	"Inih	-0.035502512
-3.262171	mah	-0.048582517
-4.581435	nyariin	-0.035502512
-4.581435	(geer),,	-0.035502512
-4.581435	trisanye	-0.035502512
-3.3022773	lage	-0.03550254
-4.581435	tapa	-0.035502512
-4.581435	(bace:	-0.035502512
-4.052705	afgan	-0.035502512
-4.581435	konser)..	-0.035502512
-3.7933803	[pic]	-0.4408952
-4.581435	https://path.com/p/2pRqC3	-0.035502512
-4.581435	"Pengelole	-0.035502512
-4.1907473	lapangan	-0.035502512
-4.581435	komunikatif,	-0.035502512
-3.863894	cebrik	-0.08793666
-4.581435	(kuning-kuning	-0.035502512
-4.581435	nempel	-0.035502512
-4.581435	ubin),	-0.035502512
-3.1916068	kureng	-0.10431419
-4.052705	banyak,	-0.035502512
-4.581435	pengelole	-0.035502512
-3.863894	ngilang	-0.035502512
-4.581435	bujetnye	-0.035502512
-4.581435	rebu.	-0.035502512
-4.581435	"Apik,	-0.035502512
-3.863894	kerasan,	-0.035502512
-4.581435	indeh.	-0.035502512
-4.1907473	setengah	-0.035502512
-3.863894	tempatnye	-0.035502512
-4.581435	utame."	-0.035502512
-4.581435	"Kaga	-0.035502512
-4.357265	gunenye	-0.035502512
-3.9481184	ngadu	-0.035502486
-4.581435	wadonan	-0.035502512
-4.1907473	laen,	-0.035502512
-4.1907473	terutame	-0.035502512
-4.581435	perlakuan	-0.035502512
-4.357265	nyenengin.	-0.035502512
-4.357265	Kayenye	-0.035502512
-4.052705	wadon-wadon	-0.035502512
-4.357265	empati	-0.035502512
-4.581435	dilecehin,	-0.035502512
-3.7327323	bukannye	-0.035502512
-4.581435	lawan,	-0.035502512
-4.1907473	dianggep	-0.035502512
-4.1907473	Die-die	-0.035502512
-4.581435	malu-maluin!"	-0.035502512
-4.1907473	Jamban	-0.035502512
-3.9481184	rêsik	-0.12075446
-4.052705	cakêp.	-0.035502512
-4.581435	Pangkèngnyè	-0.035502512
-4.357265	ngêlêkêb	-0.035502512
-4.357265	kotor.	-0.035502512
-3.863894	kayaknye	-0.035502512
-4.1907473	ambalnye	-0.035502512
-4.1907473	bercak	-0.035502512
-4.052705	node	-0.035502512
-4.581435	"Aer	-0.035502486
-3.9481184	mampet	-0.035502512
-4.581435	genting,	-0.035502512
-4.1907473	catetan	-0.035502512
-4.357265	ditentuin	-0.035502512
-4.357265	kan?	-0.035502512
-4.052705	Jem	-0.035502512
-4.357265	enem	-0.21674308
-3.863894	sore	-0.035502512
-4.581435	berpungsi,	-0.035502512
-3.481822	mandi	-0.053294685
-4.581435	ari?	-0.035502512
-4.581435	Justru	-0.035502512
-4.1907473	penting	-0.035502512
-4.581435	kegiatannye	-0.035502512
-4.581435	mandi"	-0.035502512
-4.581435	"Wipinye	-0.035502512
-4.581435	konek,	-0.035502512
-4.581435	Ruangan	-0.035502512
-4.052705	gelap	-0.035502512
-4.581435	jendela"	-0.035502512
-4.581435	"Pohon	-0.035502512
-4.581435	plastik,	-0.035502512
-4.052705	tong	-0.21674308
-3.9481184	sampah	-0.035502512
-4.581435	ndak	-0.035502512
-4.581435	perhatianku.	-0.035502512
-4.581435	Hanya	-0.035502512
-4.581435	perhatianku,	-0.035502512
-4.581435	SAMPAH!	-0.035502512
-4.052705	Nyari	-0.035502512
-4.052705	konten	-0.035502512
-4.052705	status	-0.11673615
-4.052705	nyinyir	-0.035502486
-4.1907473	gak	-0.035502512
-4.581435	sumbangsih	-0.035502512
-4.581435	thdp	-0.035502512
-4.581435	kebersihan.	-0.035502512
-4.581435	Semudah	-0.035502512
-4.581435	membuat	-0.035502512
-4.581435	berbanding	-0.035502512
-4.581435	terbalik	-0.035502512
-4.357265	dgn	-0.035502512
-3.3956695	pada	-0.04984901
-4.581435	Hidup	-0.035502512
-4.581435	hanya	-0.035502512
-4.581435	sebatas	-0.035502512
-4.581435	kuota!"	-0.035502512
-4.357265	sejauh	-0.035502512
-4.357265	aneh	-0.035502512
-4.1907473	Mpo	-0.035502512
-3.5894036	maleh	-0.035502512
-3.9481184	dukung	-0.035502512
-4.052705	IG	-0.035502486
-4.052705	dikonci	-0.11673615
-4.581435	"Badei,	-0.035502512
-4.581435	Gepeng	-0.035502512
-4.581435	Ketiban	-0.035502512
-4.581435	Pohon	-0.035502512
-4.581435	http://republika.co.id/r/nk56vy	-0.035502512
-4.581435	"nomer	-0.035502512
-4.1907473	telpon	-0.035502512
-4.581435	dibel,	-0.035502512
-4.581435	penjage"	-0.035502512
-4.581435	Sêlemêt	-0.035502512
-4.357265	bulanan	-0.035502512
-4.581435	Babéh	-0.035502512
-4.357265	wah	-0.035502512
-4.581435	udéh	-0.035502512
-4.1907473	ajè.	-0.035502512
-3.481822	Ayè	-0.076039985
-4.357265	mujur	-0.035502512
-3.346468	bangêt	-0.04984901
-4.581435	dapêtin	-0.035502512
-3.9481184	babèh	-0.035502486
-4.052705	têrimè	-0.19785714
-4.357265	sêlamè	-0.035502512
-3.1756222	udèh	-0.04516911
-4.1907473	jalanin	-0.035502512
-3.863894	ngêjè	-0.035502512
-4.581435	mèsêm.	-0.035502512
-3.6795251	ngarti	-0.035502512
-4.357265	sayangnyè	-0.035502512
-4.581435	gimanè..	-0.035502512
-4.581435	Intinyè	-0.035502512
-4.581435	AYÈ	-0.035502512
-4.581435	CINTÈ	-0.035502512
-4.581435	ÊLU!	-0.035502512
-4.581435	Mureh	-0.035502512
-3.9481184	kamarnye	-0.035502486
-3.7933803	rembes	-0.12863012
-4.581435	perabotan	-0.035502512
-4.581435	"Alhamdulillah	-0.035502512
-4.581435	'ala	-0.035502512
-4.581435	kulli	-0.035502512
-4.581435	haal,	-0.035502512
-4.581435	Jazakumullah	-0.035502512
-3.6321309	Babeh	-0.06619762
-4.581435	Arief	-0.035502512
-4.581435	Basyit	-0.035502512
-3.7327323	atas	-0.035502512
-4.581435	bimbingan,	-0.035502512
-4.581435	arahan,	-0.035502512
-4.581435	coretan,	-0.035502512
-4.581435	revisi,	-0.035502512
-4.581435	omelan	-0.035502512
-4.581435	sebageinye	-0.035502512
-3.5505059	selame	-0.035502512
-4.357265	semester	-0.035502512
-3.9481184	ini.	-0.08793666
-4.357265	Sehat	-0.035502512
-4.357265	babeh.	-0.035502512
-4.581435	Teteplah	-0.035502512
-4.581435	menginspirasi.	-0.035502512
-4.581435	#postingantelat"	-0.035502512
-4.581435	"Dipikir	-0.035502512
-4.581435	Mayit,	-0.035502512
-4.581435	Kêluargè	-0.035502512
-4.581435	Kêrubut	-0.035502512
-4.581435	Pêmbawè	-0.035502512
-4.581435	Barang	-0.035502512
-4.581435	Punyè	-0.035502512
-4.357265	Korban	-0.035502512
-4.581435	http://dlvr.it/8fyR9L"	-0.035502512
-4.1907473	Politikus	-0.035502512
-3.863894	Kate	-0.035502512
-4.581435	Megawati	-0.035502512
-3.7933803	Udeh	-0.035502512
-4.581435	http://Dikriminalisasi-JPNN.com	-0.035502512
-4.581435	JAKARTE	-0.035502512
-4.581435	PDI	-0.035502512
-4.357265	Perjuangan	-0.035502512
-4.581435	Sukur	-0.035502512
-4.581435	Nababan...	-0.035502512
-4.581435	http://bit.ly/19MJ0GD	-0.035502512
-4.581435	Pemko	-0.035502512
-4.581435	Gagal	-0.035502512
-4.357265	Jage	-0.035502512
-4.581435	Gedong	-0.035502512
-4.581435	Bersejareh	-0.035502512
-4.581435	@ramadhanpohan1	-0.035502512
-4.1907473	@MedanBangkit	-0.035502512
-4.581435	http://jurnaldemokratmedan.com/indek.php/berita/sosial-budaya/sejarah/item/329-pemko-gagal-jaga-gedung-bersejarah	-0.035502512
-4.052705	Baru	-0.035502512
-4.581435	kêlar	-0.035502512
-4.581435	saur	-0.035502512
-4.581435	Git	-0.035502512
-3.7327323	dêmên	-0.035502512
-4.581435	duè-duènyè,	-0.035502512
-4.581435	eehhh	-0.035502512
-4.052705	Tadi	-0.035502486
-4.581435	saurnyè	-0.035502512
-3.7327323	makè	-0.035502512
-4.052705	ayam	-0.035502512
-3.9481184	gorèng	-0.035502486
-4.581435	êmih	-0.035502512
-4.357265	nih"	-0.21674308
-4.581435	"Selame	-0.035502512
-4.581435	Kepale	-0.035502512
-4.581435	Departemen	-0.035502512
-4.581435	Menejer	-0.035502512
-3.9481184	Hotel	-0.035502486
-4.581435	benci	-0.035502512
-2.9676306	langsung	-0.052598607
-4.1907473	kepale	-0.035502512
-4.581435	betanduk	-0.035502512
-3.2082024	anak	-0.072997235
-4.581435	buah	-0.035502512
-3.7933803	ditanye	-0.08004723
-4.581435	jawabnye	-0.035502512
-4.052705	tau,	-0.035502486
-4.357265	maapin,	-0.035502512
-4.1907473	kedue	-0.035502512
-4.581435	ketiga	-0.035502512
-4.581435	seterusnye	-0.035502512
-4.581435	TAU?	-0.035502512
-4.581435	plaakkk	-0.035502512
-4.581435	#%\?+=*%"	-0.035502512
-3.7327323	lebi	-0.035502512
-3.6795251	pantes	-0.035502512
-4.581435	ngedapetinnye?	-0.035502512
-3.6795251	Kite	-0.035502512
-3.5505059	nempo	-0.060928743
-4.052705	perjuangan	-0.035502486
-3.4225318	tanpe	-0.053294685
-4.581435	keliat	-0.035502512
-4.581435	Sederhananye,	-0.035502512
-3.9481184	masing-masing	-0.035502486
-4.581435	dikasiin	-0.035502512
-4.581435	ketuker."	-0.035502512
-4.1907473	Ati	-0.035502512
-4.357265	loh.	-0.035502512
-4.581435	Gêmêtêr	-0.035502512
-3.6795251	gimanè	-0.06619762
-4.581435	nontonnyè	-0.035502512
-4.052705	:'(	-0.035502512
-4.581435	apèlagi	-0.035502512
-4.581435	dicêrmatin	-0.035502512
-4.581435	liriknyè	-0.035502512
-4.357265	bêgini	-0.035502512
-3.3956695	Nyang	-0.035502486
-3.6321309	punyè	-0.035502486
-4.357265	rasè	-0.035502512
-4.581435	arèma	-0.035502512
-4.581435	sêjati	-0.035502512
-3.863894	ngêrasèin	-0.035502512
-4.581435	"Cemburu	-0.035502512
-3.7327323	ngeliat	-0.035502512
-4.581435	ngebahagiain	-0.035502512
-4.581435	gacoannye,	-0.035502512
-4.581435	saleh.	-0.035502512
-3.6795251	Elu	-0.06619762
-4.052705	ngarti,	-0.035502512
-3.3956695	beberape	-0.053294685
-4.581435	terpakse	-0.035502512
-4.581435	udahin	-0.035502512
-4.581435	dewekan"	-0.035502512
-4.581435	"Kemaren	-0.035502512
-4.1907473	perut	-0.035502512
-4.581435	bulanan.	-0.035502512
-4.052705	Balik	-0.035502486
-4.581435	kagapokus	-0.035502512
-4.581435	TO	-0.035502512
-4.357265	kan.	-0.035502512
-4.1907473	Ternyate	-0.035502512
-3.481822	penuh	-0.05720401
-4.052705	sakitnye	-0.035502512
-3.863894	parah	-0.035502512
-3.1309216	kaye	-0.043813623
-4.581435	biasa.	-0.035502512
-4.1907473	Gare-gare	-0.035502512
-4.357265	nyeri	-0.035502512
-4.581435	plus	-0.035502512
-4.581435	serangan	-0.035502512
-4.581435	nerpes	-0.035502512
-3.863894	acare	-0.035502512
-4.581435	besok.	-0.035502512
-4.581435	Kagatenang	-0.035502512
-4.581435	cuy..."	-0.035502512
-4.581435	"Sêbagè	-0.035502512
-3.9481184	anggota	-0.035502486
-4.357265	komitê	-0.035502512
-4.581435	mèdik	-0.035502512
-4.357265	RS	-0.035502512
-3.6321309	têmpat	-0.06619762
-4.581435	bêgawè,	-0.035502512
-4.357265	ngomongin	-0.035502512
-3.9481184	kasus	-0.035502512
-4.357265	kêmatian	-0.035502512
-4.357265	rapat	-0.035502512
-4.581435	mèdik.	-0.035502512
-4.581435	Ngomongin	-0.035502512
-4.357265	pasièn	-0.035502512
-4.581435	pêrawatan	-0.035502512
-4.581435	pêgimanè	-0.035502512
-4.581435	nyenêngin	-0.035502512
-4.581435	gè."	-0.035502512
-4.581435	Wkwkwk	-0.035502512
-3.9481184	benerin	-0.035502486
-4.357265	sedewekan,	-0.035502512
-4.581435	dikenalin	-0.035502512
-4.581435	abangnye,	-0.035502512
-3.863894	ngerasa	-0.035502512
-4.1907473	lari	-0.035502512
-4.1907473	audah	-0.035502512
-4.581435	pelarian	-0.035502512
-4.1907473	mantan	-0.035502512
-4.581435	(lanang	-0.035502512
-4.357265	kedemenan	-0.035502512
-4.581435	aye),	-0.035502512
-4.581435	pelarian"	-0.035502512
-4.581435	#10TaunLepas	-0.035502512
-4.1907473	sms	-0.035502512
-4.581435	mate.	-0.035502512
-4.581435	beranak	-0.035502512
-4.581435	Pipi	-0.035502512
-4.581435	pande.	-0.035502512
-4.052705	7	-0.035502512
-4.052705	@Lady6igi	-0.035502512
-4.581435	""""@melly_goeslaw:	-0.035502512
-4.581435	MAkasih	-0.035502512
-3.481822	tadi	-0.035502512
-4.581435	40	-0.035502512
-4.581435	hariannye	-0.035502512
-3.451166	enyak	-0.07321653
-3.5894036	??	-0.11928895
-4.581435	http://instagram.com/p/zT2KmhAx_4"	-0.035502512
-4.052705	Kamar	-0.035502486
-4.581435	bagus	-0.035502512
-4.052705	muasin	-0.035502512
-4.581435	pesen,	-0.035502512
-3.7933803	obrolan	-0.035502512
-4.1907473	mangkinan	-0.035502512
-4.357265	pendek	-0.035502512
-3.9481184	bales	-0.035502486
-4.357265	lelet.	-0.035502512
-4.357265	kabar,	-0.035502512
-3.863894	akhirnye	-0.07422276
-4.581435	asing.	-0.035502512
-4.052705	kerasan...	-0.035502512
-4.357265	malem.	-0.035502512
-3.5148077	Ape	-0.035502512
-3.6795251	minum	-0.035502512
-3.7933803	tebang	-0.035502512
-4.052705	dikasi	-0.035502512
-3.3956695	pertame	-0.09040121
-4.581435	masuk?	-0.035502512
-4.1907473	Pedahal	-0.035502512
-3.4225318	kan	-0.053294685
-4.581435	bayarnye	-0.035502512
-4.581435	harge.	-0.035502512
-3.7327323	kena	-0.07422276
-4.581435	tambahan	-0.035502512
-4.357265	biaye	-0.035502512
-3.9481184	pikir	-0.035502486
-3.4225318	pan	-0.035502512
-3.1916068	saban	-0.16261631
-4.581435	arinye	-0.035502512
-3.3022773	hotel	-0.035502486
-3.7933803	laen.	-0.035502512
-4.581435	"Katherine	-0.035502512
-4.581435	sofia	-0.035502512
-4.1907473	ngrase	-0.035502512
-4.1907473	cape	-0.035502486
-4.581435	gawean,	-0.035502512
-4.052705	minimal	-0.035502512
-4.052705	seminggu	-0.11673615
-4.581435	pengargaan	-0.035502512
-3.7933803	semacem	-0.035502512
-4.357265	ngeluangin	-0.035502512
-4.581435	ngemanjain	-0.035502512
-4.581435	diri~"	-0.035502512
-3.9481184	Entong	-0.035502512
-4.357265	nyesel	-0.035502512
-4.357265	pegih.	-0.035502512
-4.357265	mewekin	-0.035502512
-4.052705	ade.	-0.08004723
-3.9481184	bangun	-0.035502512
-4.357265	bine	-0.035502512
-4.581435	"Katanye	-0.035502512
-3.7327323	sebelom	-0.07422276
-4.581435	lambat	-0.035502512
-4.581435	perpanjang	-0.035502512
-3.7327323	dimane	-0.035502512
-3.4225318	aje,	-0.066699035
-4.581435	Mana	-0.035502512
-3.7327323	keluar	-0.035502512
-4.052705	kote	-0.035502512
-4.581435	Kemaren	-0.035502512
-4.052705	lebaran	-0.035502486
-4.581435	kebagian	-0.035502512
-4.581435	kuote	-0.035502512
-3.9481184	????	-0.09922832
-4.357265	tisu,	-0.035502512
-4.581435	dipinta	-0.035502512
-3.9481184	dulu,	-0.035502512
-4.581435	tenga	-0.035502512
-4.581435	kebangun	-0.035502512
-4.581435	token	-0.035502512
-3.7933803	listrik	-0.035502512
-4.1907473	abis,	-0.035502512
-4.357265	kasi	-0.035502512
-4.581435	kaca.	-0.035502512
-4.581435	cuplikannye	-0.035502512
-4.581435	terkaget-kaget.	-0.035502512
-4.357265	ide	-0.035502512
-4.581435	nyampurin	-0.035502512
-3.7327323	pilem	-0.07422276
-4.581435	nusantare	-0.035502512
-4.357265	tampilan	-0.035502512
-4.581435	WILD	-0.035502512
-4.581435	WEST	-0.035502512
-4.581435	ngejanjiin.	-0.035502512
-4.581435	sebelonnye.	-0.035502512
-4.581435	kreatip.	-0.035502512
-4.1907473	mangkanye	-0.035502512
-4.052705	ngarepin	-0.11673615
-4.357265	ngedapetin	-0.035502512
-4.357265	biase.	-0.035502512
-4.581435	"Keresikan	-0.035502512
-4.581435	diengehin,	-0.035502512
-4.052705	didalem	-0.11673615
-4.581435	nyengat"	-0.035502512
-4.581435	"abang	-0.035502512
-3.863894	besok	-0.035502512
-4.581435	ye"""",	-0.035502512
-4.581435	krucil	-0.035502512
-4.581435	@SBMatahari	-0.035502512
-3.346468	sambil	-0.035502512
-3.9481184	manis	-0.09922832
-4.581435	*dan	-0.035502512
-4.581435	meleleh~~	-0.035502512
-4.357265	:"""")"	-0.21674308
-4.581435	Takut	-0.035502512
-4.357265	dagang	-0.035502512
-4.581435	boongan.	-0.035502512
-3.6321309	Gue	-0.035502512
-4.357265	seuprit	-0.035502512
-3.6321309	kabar	-0.035502512
-4.357265	barangnye	-0.035502512
-4.581435	kaga.	-0.035502512
-4.357265	Inih	-0.035502512
-4.581435	blanjean	-0.035502512
-4.581435	langganan	-0.035502512
-4.581435	beliin.	-0.035502512
-3.6321309	:(	-0.20604686
-4.581435	"Jadi,	-0.035502512
-4.1907473	gegares,	-0.035502512
-4.581435	deh,	-0.035502512
-4.581435	tuh,	-0.035502512
-4.581435	""""Saling	-0.035502512
-4.581435	tau""""	-0.035502512
-4.581435	Nyesek	-0.035502512
-4.1907473	kerase	-0.035502512
-4.581435	dimule.	-0.035502512
-4.581435	:))"	-0.035502512
-4.581435	"Murat,	-0.035502512
-4.581435	laah	-0.035502512
-4.1907473	kicit	-0.035502512
-4.581435	pangkengnye,	-0.035502512
-4.581435	alasnye	-0.035502512
-4.581435	bercaknye"	-0.035502512
-4.581435	"?	-0.035502512
-4.581435	""""@JANJISUCI_TTV:	-0.035502512
-4.581435	waah...	-0.035502512
-4.581435	coo	-0.035502512
-4.581435	mesreee	-0.035502512
-4.581435	bangettt	-0.035502512
-4.357265	nyuapin	-0.035502512
-4.581435	Ngaku	-0.035502512
-4.052705	Sakit	-0.035502512
-4.581435	Digêroin	-0.035502512
-4.581435	Polisi:	-0.035502512
-4.581435	NAMÈ	-0.035502512
-4.581435	sêkaligus	-0.035502512
-4.581435	sosialita	-0.035502512
-4.581435	kêsèrèt	-0.035502512
-4.581435	Fe...	-0.035502512
-4.581435	http://bit.ly/1Lo54Fh	-0.035502512
-4.1907473	tipe	-0.147582
-4.581435	dimintain	-0.035502512
-4.581435	Males	-0.035502512
-4.357265	ye...	-0.035502512
-4.581435	"Ayè	-0.035502512
-4.581435	dêmên,	-0.035502512
-3.9481184	kêrasan	-0.035502486
-4.357265	tênang,	-0.035502512
-4.1907473	bêbau	-0.035502512
-4.581435	masalèh	-0.035502512
-4.581435	puas"	-0.035502512
-4.581435	Seneng	-0.035502512
-4.581435	akur-akur...jangan	-0.035502512
-4.581435	sirik	-0.035502512
-4.357265	berdua	-0.035502512
-4.581435	"Pelayanan	-0.035502512
-3.7933803	baek,	-0.035502512
-4.581435	kaennye	-0.035502512
-3.863894	agak	-0.08793666
-4.581435	"Kejadian	-0.035502512
-3.0776856	balik	-0.09079167
-4.581435	00.25	-0.035502512
-4.1907473	cuci	-0.147582
-3.451166	muke	-0.054431275
-4.581435	selesei	-0.035502512
-4.581435	andukin	-0.035502512
-4.581435	""tolong""	-0.035502512
-4.581435	dibelakang	-0.035502512
-4.581435	persis.	-0.035502512
-4.581435	sesering	-0.035502512
-4.581435	romannye	-0.035502512
-4.1907473	lame-lame	-0.035502512
-4.1907473	keganggu	-0.035502512
-4.357265	juge"	-0.21674308
-4.357265	mureh	-0.035502512
-4.581435	diskon..resik	-0.035502512
-4.581435	pripat	-0.035502512
-4.1907473	kekurangan	-0.035502512
-4.581435	panas...	-0.035502512
-4.581435	restoran	-0.035502512
-4.581435	kurang..bakal	-0.035502512
-4.581435	lah..	-0.035502512
-4.581435	"Rencane	-0.035502512
-4.581435	garap	-0.035502512
-4.581435	proyek,	-0.035502512
-3.5505059	ternyate	-0.07932076
-4.581435	kecogroh	-0.035502512
-4.581435	sekali..	-0.035502512
-3.9481184	Tau	-0.08793666
-3.5894036	gini	-0.035502512
-4.581435	ah,	-0.035502512
-3.6795251	minggu	-0.09303286
-4.581435	kemaren..	-0.035502512
-4.581435	hm	-0.035502512
-4.581435	hikmah	-0.035502512
-4.581435	romadon:	-0.035502512
-4.357265	ngelewatin	-0.035502512
-3.6321309	belajar	-0.06331577
-4.1907473	aje"	-0.26900026
-4.581435	"kurang	-0.035502512
-4.581435	okehlah"	-0.035502512
-4.581435	Jaye	-0.035502512
-4.581435	dandim1621	-0.035502512
-4.581435	tts	-0.035502512
-3.7327323	tugas	-0.035502512
-4.1907473	mulie	-0.035502512
-3.3238108	bareng	-0.06619762
-4.581435	berjaye	-0.035502512
-4.581435	kemajuan	-0.035502512
-4.357265	desa	-0.035502512
-4.052705	sukses	-0.035502512
-3.863894	pak	-0.035502512
-4.581435	babinsa	-0.035502512
-4.581435	met	-0.035502512
-4.357265	mulia	-0.035502512
-3.4225318	makin	-0.035502512
-4.357265	rosa	-0.035502512
-4.581435	tni	-0.035502512
-4.052705	jaye	-0.035502512
-4.357265	nkri	-0.035502512
-4.581435	"Terime	-0.035502512
-4.581435	donatur,	-0.035502512
-4.581435	keroyalannye	-0.035502512
-4.581435	RZ	-0.035502512
-3.9481184	bantu	-0.035502486
-4.581435	ngelanjutin	-0.035502512
-3.5894036	kolaan	-0.035502512
-4.581435	#BagibagiSumringah"	-0.035502512
-4.581435	"?Barang	-0.035502512
-4.581435	menjuju	-0.035502512
-4.1907473	mesjid	-0.035502512
-4.581435	berjamaah?ah,	-0.035502512
-4.357265	langkeh	-0.035502512
-4.581435	ngapus	-0.035502512
-4.581435	kesaahan	-0.035502512
-3.6321309	?"	-0.791879
-4.581435	"masih	-0.035502512
-4.581435	ubungin	-0.035502512
-4.1907473	nihh	-0.035502512
-4.357265	Indosat	-0.035502512
-4.052705	[USERNAME],	-0.035502512
-3.7933803	padaal	-0.035502512
-4.1907473	ane	-0.035502512
-4.357265	semuwa	-0.035502512
-4.581435	nasehat	-0.035502512
-4.357265	dianjurin	-0.035502512
-4.581435	neng-neng	-0.035502512
-3.9481184	ngebales	-0.035502486
-4.581435	Teritung	-0.035502512
-4.1907473	11	-0.035502512
-4.581435	sedaritadi.	-0.035502512
-4.581435	Pacar	-0.035502512
-4.581435	posesip	-0.035502512
-4.052705	ginih	-0.035502512
-4.581435	"Dibilang	-0.035502512
-4.581435	biase-biase	-0.035502512
-3.863894	ape-ape	-0.069746085
-4.1907473	biase,	-0.035502512
-4.357265	berbuat	-0.035502512
-4.581435	kehebatannye..	-0.035502512
-4.581435	#mr21	-0.035502512
-4.581435	#olahrage	-0.035502512
-4.581435	#sepakbole	-0.035502512
-4.581435	#penerusbangse	-0.035502512
-4.581435	#indonesia	-0.035502512
-4.581435	#atlit	-0.035502512
-4.581435	#olahragawan	-0.035502512
-4.581435	#adidas	-0.035502512
-4.581435	#nike	-0.035502512
-4.581435	#puma	-0.035502512
-4.581435	#specs	-0.035502512
-4.581435	#anakbole	-0.035502512
-4.581435	#timnasindonesia	-0.035502512
-4.581435	#sukses	-0.035502512
-4.581435	Potongan	-0.035502512
-3.9481184	30	-0.035502486
-4.052705	persen	-0.035502512
-4.581435	-konci	-0.035502512
-4.581435	-alat	-0.035502512
-3.7327323	plastik	-0.035502512
-3.6321309	+	-0.035502486
-3.9481184	potongan	-0.035502486
-3.7933803	10	-0.035502512
-4.581435	cicilan	-0.035502512
-4.357265	Mega	-0.035502512
-4.581435	#PotonganAkhirMingguan	-0.035502512
-4.581435	"Adè	-0.035502512
-3.7933803	pèngèn	-0.035502512
-4.581435	ngêbuka	-0.035502512
-4.581435	atilu.	-0.035502512
-4.581435	Ngapus	-0.035502512
-4.581435	tromalu.	-0.035502512
-4.581435	Bahagiè	-0.035502512
-4.581435	amèlu.	-0.035502512
-3.7933803	Mungkin	-0.035502512
-4.581435	drama,	-0.035502512
-4.581435	tangis	-0.035502512
-4.581435	mata,	-0.035502512
-3.9481184	bolèh	-0.035502486
-4.581435	duka.	-0.035502512
-4.357265	Namun	-0.035502512
-4.581435	pêrcayè	-0.035502512
-3.9481184	dah,	-0.035502486
-3.7933803	sêmuè	-0.035502512
-4.581435	sêmêntarè.	-0.035502512
-4.1907473	Kotak	-0.035502512
-3.6795251	siap	-0.035502512
-4.581435	kêbukè.	-0.035502512
-4.357265	bêrisi	-0.035502512
-4.581435	tawè	-0.035502512
-4.581435	candè	-0.035502512
-4.357265	bêmacêm	-0.035502512
-4.581435	cêritè.	-0.035502512
-4.581435	"Selalu	-0.035502512
-4.581435	keresaan	-0.035502512
-3.863894	ditinggal	-0.035502512
-3.863894	merad	-0.035502512
-4.581435	lakinye,	-0.035502512
-4.581435	““Die	-0.035502512
-4.357265	Bareng	-0.035502512
-4.357265	siape?	-0.035502512
-4.581435	jaga	-0.035502512
-4.581435	Tuhan””."	-0.035502512
-4.581435	"Kalo	-0.035502512
-4.357265	asil	-0.035502512
-4.581435	pengamatan,	-0.035502512
-4.581435	mengisep	-0.035502512
-4.357265	batang	-0.035502512
-4.052705	rokok	-0.035502512
-4.357265	ngrokok	-0.035502512
-4.581435	puluh	-0.035502512
-4.581435	batang.	-0.035502512
-4.581435	Sehingge,	-0.035502512
-4.581435	kangker	-0.035502512
-4.357265	gede."	-0.21674308
-3.7933803	rusak,	-0.035502512
-4.581435	plapon	-0.035502512
-4.581435	bolong,	-0.035502512
-4.581435	apek"	-0.035502512
-3.5148077	Golkar	-0.05720401
-4.581435	Nganggep	-0.035502512
-4.1907473	BG	-0.035502512
-4.357265	Jokowi:	-0.035502512
-3.6321309	Presiden	-0.035502486
-3.9481184	ngambil	-0.035502486
-4.581435	keputusan.	-0.035502512
-4.581435	http://bit.ly/1LmOHGZ	-0.035502512
-4.581435	125	-0.035502512
-3.863894	rebu	-0.035502512
-4.581435	sepuasnye	-0.035502512
-4.581435	Shabu	-0.035502512
-4.581435	Tei!	-0.035502512
-4.581435	http:ow.ly/JFs7w	-0.035502512
-4.581435	"Pacar	-0.035502512
-4.052705	sibuk	-0.035502512
-4.581435	lobet,	-0.035502512
-4.581435	""""berusaha""""	-0.035502512
-4.581435	""""kabar"""",	-0.035502512
-4.1907473	minjem	-0.035502512
-4.357265	hp	-0.035502512
-4.581435	temennye.	-0.035502512
-4.1907473	Anak	-0.035502512
-3.481822	jaman	-0.14730936
-4.357265	gatau	-0.035502512
-3.5148077	mau	-0.035502512
-4.581435	dibalesnye	-0.035502512
-4.581435	manaan	-0.035502512
-4.581435	URL	-0.035502512
-4.581435	:((	-0.035502512
-4.581435	pdkt	-0.035502512
-3.5505059	tinggal	-0.125574
-4.581435	nyocok-nyocokin	-0.035502512
-4.581435	kinder	-0.035502512
-3.7933803	girang	-0.035502512
-4.581435	#RecehinTwitter	-0.035502512
-4.357265	godaan	-0.035502512
-4.1907473	belanje	-0.035502512
-4.581435	terkutuk	-0.035502512
-4.581435	dongkol~	-0.035502512
-4.581435	"5.	-0.035502512
-4.581435	Cuacanyah	-0.035502512
-4.581435	pêntèr.	-0.035502512
-4.357265	pêrkara	-0.035502512
-4.581435	bêsukur	-0.035502512
-4.1907473	yak,	-0.035502512
-4.581435	Sorong	-0.035502512
-4.581435	puasa	-0.035502512
-3.9481184	gêtol	-0.035502486
-3.863894	bahkan	-0.035502512
-4.052705	Bali	-0.035502512
-4.357265	ênyak	-0.21674308
-4.581435	sêsêring	-0.035502512
-4.581435	marih.	-0.035502512
-4.581435	Sari-sarinyah	-0.035502512
-4.1907473	go	-0.035502512
-4.581435	pêntèr-pêntèr	-0.035502512
-4.581435	êmên.	-0.035502512
-4.581435	Ngomong-ngomong,	-0.035502512
-4.581435	Biak	-0.035502512
-4.581435	hawanyah	-0.035502512
-4.581435	adêm"	-0.035502512
-4.581435	"Sekarang	-0.035502512
-4.581435	wakti	-0.035502512
-4.1907473	dipakse	-0.035502512
-4.1907473	lembur	-0.147582
-4.581435	begadang	-0.035502512
-4.581435	semate-mate	-0.035502512
-3.863894	nyiapin	-0.035502512
-4.581435	kuda	-0.035502512
-3.5894036	gawean	-0.08778544
-3.863894	kelar	-0.035502512
-4.581435	waktunye.	-0.035502512
-4.581435	Okeh,	-0.035502512
-4.1907473	pelajaran	-0.035502512
-4.1907473	sayang"	-0.26900026
-4.581435	kate?tibang	-0.035502512
-4.581435	selogan?kayak	-0.035502512
-4.357265	""aye	-0.035502512
-4.581435	pancasila""	-0.035502512
-4.357265	Bukti	-0.035502512
-4.581435	dikatain	-0.035502512
-3.863894	gebleg	-0.035502512
-4.581435	diem?ajaib..	-0.035502512
-4.357265	Saran	-0.035502512
-4.581435	congor	-0.035502512
-4.581435	kenyataan	-0.035502512
-4.581435	disingkronin.."	-0.035502512
-4.581435	"#Teknologi	-0.035502512
-4.581435	Ngenesin,	-0.035502512
-4.581435	Kim	-0.035502512
-4.581435	Kardashian	-0.035502512
-4.581435	Utare	-0.035502512
-4.581435	http://dlvr.it/8h4vVV	-0.035502512
-4.581435	Alhamdulilleh	-0.035502512
-3.9481184	dukungan	-0.035502486
-4.1907473	unit	-0.035502512
-4.581435	penyambutan	-0.035502512
-4.581435	semarang	-0.035502512
-4.581435	penetepan	-0.035502512
-4.357265	terminal	-0.035502512
-4.357265	bandare	-0.035502512
-4.357265	a	-0.035502512
-4.581435	yani	-0.035502512
-4.581435	Semarang	-0.035502512
-4.581435	Nambeh	-0.035502512
-4.581435	alphard	-0.035502512
-3.481822	pintu	-0.076039985
-4.581435	dorong	-0.035502512
-3.7933803	2018	-0.035502512
-3.7933803	selamet	-0.035502512
-4.581435	"guru	-0.035502512
-4.357265	uplêk	-0.035502512
-4.357265	nêrangin,	-0.035502512
-3.7933803	maèn	-0.08004723
-4.581435	hapè."	-0.035502512
-4.581435	"Hiiihh	-0.035502512
-4.357265	têlat	-0.035502512
-4.357265	ajag-ijig	-0.035502512
-4.1907473	nyomot	-0.035502512
-4.357265	data	-0.035502512
-4.581435	kêtinggalan,	-0.035502512
-4.581435	dompèt	-0.035502512
-4.581435	kêtinggalan,?	-0.035502512
-4.581435	https://path.com/p/1QvUW7"	-0.035502512
-4.581435	"Kek	-0.035502512
-3.5505059	skarang	-0.035502512
-4.581435	dok,	-0.035502512
-4.581435	keliatannye	-0.035502512
-4.581435	seger	-0.035502512
-3.6321309	butuh	-0.06619762
-4.581435	sejatinye	-0.035502512
-4.1907473	rusak	-0.035502512
-4.581435	dalem"	-0.035502512
-4.581435	"Oh	-0.035502512
-4.581435	kirain	-0.035502512
-3.5894036	4	-0.035502512
-4.052705	wkwkwk	-0.035502512
-4.581435	ongkos	-0.035502512
-4.581435	gojeknye	-0.035502512
-4.581435	yeh..	-0.035502512
-4.581435	Bujug	-0.035502512
-4.581435	kesian..	-0.035502512
-3.7933803	dewekan,	-0.035502512
-4.581435	lain	-0.035502512
-3.7933803	eh	-0.08004723
-4.581435	digaresin	-0.035502512
-4.357265	orang..	-0.035502512
-4.581435	Cakeplah	-0.035502512
-4.581435	idep,	-0.035502512
-4.581435	kolokan"	-0.035502512
-4.357265	nyambung,	-0.035502512
-4.1907473	mesin	-0.035502512
-3.7327323	masak	-0.035502512
-4.581435	aer"	-0.035502512
-4.581435	"Sumpeh,	-0.035502512
-4.357265	panutan	-0.035502512
-4.581435	dewase	-0.035502512
-4.1907473	banget..	-0.035502512
-4.1907473	alesannye	-0.035502512
-4.581435	ngidolein	-0.035502512
-4.357265	die..	-0.035502512
-4.052705	bangge	-0.035502512
-4.581435	idole	-0.035502512
-4.581435	Ldy	-0.035502512
-4.581435	Smanget	-0.035502512
-4.052705	ye!	-0.035502512
-4.581435	kesihatan!	-0.035502512
-4.581435	sekebon!"	-0.035502512
-4.581435	1)	-0.035502512
-4.581435	gegares!	-0.035502512
-4.357265	Eni	-0.035502512
-4.357265	sebab	-0.035502512
-4.581435	Asuransi!	-0.035502512
-4.581435	Gangguan	-0.035502512
-4.581435	tipes	-0.035502512
-4.1907473	nyebabin	-0.035502512
-4.581435	rawat	-0.035502512
-4.581435	inep	-0.035502512
-4.581435	#FinClic	-0.035502512
-4.357265	buktiin	-0.035502512
-3.3703723	gawe	-0.052286863
-4.581435	nyate,	-0.035502512
-3.6321309	hanye	-0.06619762
-4.581435	diucapin	-0.035502512
-4.581435	doang....jangan	-0.035502512
-4.581435	pilkade	-0.035502512
-4.581435	rakyat,	-0.035502512
-4.581435	kepilih...lupe	-0.035502512
-4.581435	ntu....kite	-0.035502512
-3.9481184	tunggu	-0.035502512
-4.357265	....."	-0.21674308
-4.581435	"aye	-0.035502512
-4.581435	skz	-0.035502512
-4.581435	kemonesan	-0.035502512
-4.581435	kagetnye	-0.035502512
-4.581435	sepantaran	-0.035502512
-3.3956695	aye,	-0.069746085
-4.357265	motipasi	-0.035502512
-4.581435	sih"	-0.035502512
-4.581435	Haihailohaa	-0.035502512
-4.581435	pagi!	-0.035502512
-4.1907473	Semangat	-0.035502512
-4.581435	eni!	-0.035502512
-4.581435	Moge-moge	-0.035502512
-4.581435	berkah..	-0.035502512
-3.863894	Lagi	-0.035502512
-4.581435	dijalan	-0.035502512
-4.357265	mo	-0.035502512
-4.581435	sekola!	-0.035502512
-4.052705	Hahaha	-0.035502512
-3.4225318	entong	-0.052286863
-3.863894	lupa	-0.035502512
-3.481822	nyarap	-0.076931134
-4.581435	"Sepre	-0.035502512
-3.863894	bekas	-0.035502512
-4.581435	node,	-0.035502512
-4.357265	bergune	-0.035502512
-3.6795251	bae,	-0.06331577
-4.581435	pitik"	-0.035502512
-4.581435	"Salah	-0.035502512
-4.357265	sangke	-0.21674308
-4.581435	ngasilin	-0.035502512
-3.7933803	sebuah	-0.035502512
-4.581435	kecewa.	-0.035502512
-4.357265	Kekecewaan	-0.21674308
-4.581435	dasarnye	-0.035502512
-3.6795251	alesan	-0.069746085
-4.357265	kuat.	-0.035502512
-3.9481184	Tapi,	-0.035502486
-4.581435	keaaan	-0.035502512
-4.581435	kerar.	-0.035502512
-4.357265	Ituh	-0.035502512
-3.7327323	sesuatu	-0.11673615
-4.581435	lawak	-0.035502512
-4.581435	diinget."	-0.035502512
-4.581435	nyeselin	-0.035502512
-4.1907473	merad.	-0.035502512
-4.581435	tangisin	-0.035502512
-4.581435	"haghag	-0.035502512
-4.581435	*dugean*	-0.035502512
-4.357265	""""Kalo	-0.21674308
-4.581435	Adem	-0.035502512
-4.581435	Ayem,	-0.035502512
-4.357265	Artinye	-0.21674308
-4.581435	Sepakat	-0.035502512
-4.357265	Balek	-0.035502512
-4.1907473	Penunjukan	-0.19785714
-4.357265	Kapolri""""	-0.035502512
-4.581435	http://kom.ps/AFqKLU	-0.035502512
-4.581435	@Kompascom"	-0.035502512
-4.581435	"pesen	-0.035502512
-4.581435	slaah	-0.035502512
-4.581435	pesenan,	-0.035502512
-4.581435	harusnye	-0.035502512
-4.581435	ACA	-0.035502512
-3.863894	ada,	-0.035502512
-4.581435	dipan,	-0.035502512
-4.581435	ruangan.	-0.035502512
-4.581435	bocor.sepre	-0.035502512
-3.7933803	resik.	-0.035502512
-3.5148077	cakep,	-0.035502512
-3.9481184	pusat	-0.035502486
-4.581435	kote."	-0.035502512
-4.581435	"Tempat	-0.035502512
-4.581435	berak	-0.035502512
-3.7933803	disuruh	-0.08004723
-4.581435	pengak,	-0.035502512
-4.1907473	pokoknye	-0.035502512
-3.7327323	masalah	-0.035502512
-4.1907473	sumur,	-0.035502512
-3.863894	selang	-0.08793666
-4.1907473	mampet,	-0.035502512
-4.581435	dah...!!	-0.035502512
-3.5894036	Jangan	-0.035502512
-4.581435	muraan	-0.035502512
-3.9481184	kesian	-0.035502486
-4.357265	nginep.	-0.035502512
-4.581435	"Lage	-0.035502512
-4.1907473	ngaso	-0.035502512
-4.357265	hape,	-0.035502512
-4.581435	tibe-tibe	-0.035502512
-3.3956695	dipan	-0.053294685
-4.581435	goyang.	-0.035502512
-3.4225318	molor	-0.054431275
-3.3703723	dewekan	-0.06787487
-4.581435	beradaptasi	-0.035502512
-4.581435	'penunggu	-0.035502512
-4.581435	pangkeng'nye,	-0.035502512
-3.6795251	jadinye	-0.035502486
-4.357265	ngrasa	-0.035502512
-4.357265	berdoa	-0.035502512
-4.052705	baca	-0.035502486
-4.581435	ayat-ayat.	-0.035502512
-4.581435	Kirain	-0.035502512
-4.581435	'mahluk'	-0.035502512
-4.581435	resein	-0.035502512
-4.1907473	aye."	-0.26900026
-3.9481184	ngoceh	-0.035502512
-4.581435	sadis	-0.035502512
-4.581435	sadis-_-	-0.035502512
-4.581435	http://ask.fm/a/bpbe6bl4	-0.035502512
-4.581435	"#telatngunggeh	-0.035502512
-4.581435	alhamdulilleh..	-0.035502512
-4.581435	percume	-0.035502512
-4.357265	latian	-0.035502512
-3.7933803	tanggal	-0.035502512
-3.9481184	merah	-0.035502486
-4.581435	hahaa..	-0.035502512
-4.581435	sobat,	-0.035502512
-4.581435	https://instagram.com/p/zqccALpLDL/"	-0.035502512
-4.581435	"#WartaBerite	-0.035502512
-4.581435	ngejelasin	-0.035502512
-4.581435	sepakat-sepakat	-0.035502512
-4.581435	adanye.	-0.035502512
-4.581435	http://bit.ly/1vR9b3m"	-0.035502512
-4.581435	"Gegaresan	-0.035502512
-4.581435	enteng	-0.035502512
-4.357265	disajiin	-0.035502512
-4.581435	basi.	-0.035502512
-4.581435	hari.	-0.035502512
-4.581435	Anduk,	-0.035502512
-4.581435	sabun,	-0.035502512
-4.581435	gegaresan,	-0.035502512
-4.052705	minuman	-0.035502486
-3.5505059	2.	-0.035502512
-3.9481184	kelietan	-0.035502512
-4.052705	bedebu.	-0.035502512
-4.357265	kaca	-0.035502512
-4.052705	Tolong	-0.035502512
-4.052705	pelayanannye	-0.035502486
-4.581435	Makasih"	-0.035502512
-4.581435	"Eum	-0.035502512
-4.581435	Dewasa	-0.035502512
-4.052705	mah.	-0.035502512
-4.1907473	Oh	-0.035502512
-4.581435	iye,	-0.035502512
-4.357265	manje	-0.035502512
-4.357265	juge!	-0.035502512
-4.581435	napa-napa,	-0.035502512
-4.581435	Sabila	-0.035502512
-4.1907473	girang.	-0.035502512
-4.581435	elu!"	-0.035502512
-4.581435	"sumpek	-0.035502512
-3.863894	cebrik,	-0.069746085
-4.357265	kecoe."	-0.21674308
-4.581435	"Budak	-0.035502512
-4.581435	kolahan	-0.035502512
-4.052705	ruar	-0.035502512
-3.7327323	macem	-0.035502512
-4.357265	18	-0.035502512
-4.052705	heran	-0.035502512
-4.052705	la	-0.035502512
-4.581435	perjake	-0.035502512
-4.581435	kuliaan	-0.035502512
-4.581435	haih"	-0.035502512
-4.581435	"Puluh	-0.035502512
-4.581435	romadon	-0.035502512
-4.581435	trakhir,	-0.035502512
-4.1907473	serebu	-0.035502512
-4.357265	bulan,	-0.035502512
-4.1907473	slamet	-0.035502512
-4.357265	Dateng	-0.035502512
-4.581435	Lalilatul	-0.035502512
-4.581435	Qadar,	-0.035502512
-4.581435	beriman	-0.035502512
-3.481822	kangen	-0.05720401
-4.581435	kedatenga	-0.035502512
-4.581435	elu..."	-0.035502512
-4.581435	"Ngêjadi	-0.035502512
-4.581435	bêkêluh	-0.035502512
-4.581435	kêsah,	-0.035502512
-3.5894036	têmên	-0.09303286
-4.357265	cêrita,	-0.035502512
-4.581435	madang.	-0.035502512
-4.357265	Bahkan	-0.035502512
-3.7327323	sêring	-0.07422276
-3.863894	omongan	-0.035502512
-4.581435	""Abang-Mpok	-0.035502512
-4.581435	madang""	-0.035502512
-4.581435	kangênin	-0.035502512
-4.581435	pêrè	-0.035502512
-4.581435	jumpa	-0.035502512
-4.581435	numpahin	-0.035502512
-4.581435	rindu	-0.035502512
-4.581435	#HonorIndonèsia"	-0.035502512
-4.1907473	tipinyah	-0.035502512
-4.357265	nyampè	-0.035502512
-3.863894	sêmuah	-0.035502512
-4.581435	mimpin.soalnye	-0.035502512
-4.581435	sederhana	-0.035502512
-4.1907473	asli	-0.035502512
-4.581435	ribuan	-0.035502512
-4.581435	sertipikat	-0.035502512
-4.581435	makelar	-0.035502512
-4.1907473	taneh	-0.147582
-4.357265	jeger	-0.035502512
-4.357265	ambil	-0.035502512
-3.863894	hak	-0.035502512
-4.581435	sertipikat.kite	-0.035502512
-4.1907473	panasnye	-0.06619762
-4.581435	nyale..	-0.035502512
-4.052705	terakir	-0.035502512
-4.581435	ngebanyol-ngebanyol	-0.035502512
-4.581435	inshaallah	-0.035502512
-4.581435	pisah...	-0.035502512
-4.357265	Bagen	-0.035502512
-3.863894	berat	-0.035502512
-4.581435	gaboleh	-0.035502512
-4.581435	egois,	-0.035502512
-4.1907473	moga	-0.035502512
-4.581435	depan"	-0.035502512
-4.581435	#KonserDariAti	-0.035502512
-4.581435	@afgansyah_reza	-0.035502512
-4.581435	Terima	-0.035502512
-3.9481184	Kasih	-0.09922832
-3.6795251	Cinta	-0.13497956
-4.581435	https://path.com/p/6zN6L	-0.035502512
-4.581435	Cakêp....tibang	-0.035502512
-4.357265	mênu	-0.035502512
-4.581435	musuh	-0.035502512
-4.581435	kaen.	-0.035502512
-4.581435	Ati-ati	-0.035502512
-4.357265	pengianat.	-0.035502512
-4.1907473	Sampe	-0.035502486
-4.581435	kiamat,	-0.035502512
-4.581435	Jahat.	-0.035502512
-4.581435	"Pada	-0.035502512
-4.581435	rècèt	-0.035502512
-3.9481184	via	-0.17393999
-4.581435	vallèn	-0.035502512
-4.357265	Ngapah	-0.035502512
-4.052705	sih?	-0.035502512
-4.581435	Êmbung	-0.035502512
-4.357265	julid	-0.035502512
-4.581435	*Jadi	-0.035502512
-4.052705	sêorang	-0.035502512
-4.581435	pêmaèn	-0.035502512
-4.052705	bola	-0.035502512
-4.581435	têndang	-0.035502512
-4.1907473	bla	-0.147582
-4.581435	bla...	-0.035502512
-4.052705	Èh	-0.035502512
-4.052705	usah	-0.035502486
-4.357265	ditangkêp	-0.035502512
-3.9481184	layar	-0.035502486
-4.581435	kali,coba	-0.035502512
-3.7327323	bè	-0.07422276
-4.052705	biasa	-0.035502512
-3.7933803	puguh	-0.035502512
-4.1907473	Onoh	-0.035502512
-4.581435	,apah	-0.035502512
-4.581435	amis	-0.035502512
-4.581435	njing	-0.035502512
-4.357265	!"	-0.21674308
-4.581435	nyincang	-0.035502512
-4.581435	aye!!	-0.035502512
-3.863894	Masih	-0.035502512
-4.052705	tega	-0.035502512
-3.9481184	buang	-0.035502486
-4.581435	ngawur	-0.035502512
-4.357265	aje?	-0.035502512
-4.581435	pemakean	-0.035502512
-4.357265	kresek	-0.035502512
-4.357265	kemasan	-0.035502512
-4.357265	laen?	-0.035502512
-4.581435	"ac	-0.035502512
-3.9481184	dingin,	-0.035502512
-3.7933803	bangunan	-0.20369115
-4.052705	lame,	-0.11673615
-3.5894036	naek	-0.08317995
-3.451166	ubin	-0.069746085
-4.581435	tangge,	-0.035502512
-4.357265	wifi,	-0.035502512
-4.581435	palayanan	-0.035502512
-4.581435	muasin,	-0.035502512
-4.1907473	kualitas	-0.035502512
-3.7327323	kurang,	-0.035502486
-4.581435	layaknye	-0.035502512
-4.357265	siry	-0.035502512
-3.3956695	ruangan	-0.08475975
-3.7327323	makasih"	-0.694969
-3.9481184	Bakal	-0.035502512
-4.357265	kuliah	-0.035502512
-4.581435	jurusannye	-0.035502512
-4.581435	minat	-0.035502512
-4.581435	'dipakse'	-0.035502512
-4.581435	"Lupè	-0.035502512
-4.052705	yè,	-0.035502512
-4.052705	rasènyè	-0.035502512
-4.581435	dipêrjuangin,	-0.035502512
-4.581435	dipêrtahanin,	-0.035502512
-4.581435	ditêntang	-0.035502512
-4.1907473	supayè	-0.035502512
-3.7327323	pêgi	-0.035502512
-4.581435	sêsêorang?	-0.035502512
-4.581435	Samè.	-0.035502512
-4.1907473	:')"	-0.26900026
-4.357265	internetnye	-0.035502512
-4.581435	"seneng	-0.035502512
-4.1907473	bagi-bagi	-0.035502512
-4.357265	penggune	-0.21674308
-4.581435	saudare	-0.035502512
-3.863894	ngejalanin	-0.035502512
-4.357265	sembahyang	-0.035502512
-4.357265	nyebar	-0.035502512
-4.581435	ta'jil	-0.035502512
-4.052705	lauk	-0.035502512
-4.581435	pergelaran	-0.035502512
-4.581435	JNE	-0.035502512
-4.581435	Idol	-0.035502512
-4.357265	serta	-0.035502512
-4.581435	Frestyle	-0.035502512
-4.581435	ngeibur	-0.035502512
-4.581435	"Eni	-0.035502512
-4.357265	sebut	-0.035502512
-4.581435	KEGIRANGAN	-0.035502512
-4.052705	Anggote	-0.11673615
-4.581435	SJ	-0.035502512
-4.357265	berube	-0.035502512
-4.581435	negare,	-0.035502512
-4.581435	nyembunyiin	-0.035502512
-4.1907473	kegirangan	-0.035502512
-4.1907473	Taun	-0.035502512
-4.357265	ngelarin	-0.035502512
-3.9481184	perjalanan	-0.035502486
-4.581435	oppa	-0.035502512
-3.7327323	daptar	-0.035502512
-4.357265	wajib	-0.035502512
-4.581435	#BaliknyePangeranKecit	-0.035502512
-4.581435	"guah	-0.035502512
-4.581435	ngênalnyah,	-0.035502512
-4.357265	laènnyah	-0.035502512
-4.581435	kasar,	-0.035502512
-4.581435	bêrèngsèk,	-0.035502512
-4.581435	manpaatin	-0.035502512
-3.7327323	orang,	-0.035502512
-4.581435	ègois,	-0.035502512
-4.581435	bêcanda,	-0.035502512
-4.357265	cabul,	-0.035502512
-4.1907473	buruk	-0.035502512
-4.581435	laènnyah,	-0.035502512
-4.357265	yak..	-0.035502512
-3.2254574	diah	-0.04549507
-4.581435	psikopat	-0.035502512
-4.581435	kêduga."	-0.035502512
-4.581435	"Kate	-0.035502512
-4.357265	indah	-0.035502512
-4.357265	bibir	-0.035502512
-3.863894	umat	-0.035502512
-3.863894	manusie	-0.08793666
-4.357265	enyak,	-0.035502512
-4.357265	panggilan	-0.035502512
-4.357265	indeh	-0.035502512
-4.581435	INi	-0.035502512
-4.581435	harepan	-0.035502512
-4.052705	cinte,	-0.035502512
-4.581435	kedaleman	-0.035502512
-4.052705	ati.	-0.035502486
-4.581435	(Kahlil	-0.035502512
-4.581435	Gibran)"	-0.035502512
-4.357265	nyêri	-0.035502512
-4.052705	gigi	-0.035502486
-3.7933803	datêng	-0.035502512
-4.581435	bêbarêngan	-0.035502512
-4.052705	rasanyah	-0.035502512
-4.581435	bilang..	-0.035502512
-4.581435	""Terima	-0.035502512
-4.1907473	sayah	-0.035502512
-4.581435	kêsêmpêtan	-0.035502512
-4.581435	langka	-0.035502512
-4.357265	bêginih	-0.035502512
-4.581435	"pangkengnye	-0.035502512
-4.581435	kotoran"	-0.035502512
-4.581435	"Hahahaha,	-0.035502512
-4.581435	#YakinJokowi	-0.035502512
-4.357265	Protes	-0.147582
-4.052705	Pimpinan	-0.393939
-4.357265	http://kom.ps/AFploc"	-0.21674308
-4.357265	resik..	-0.035502512
-4.357265	wangi..	-0.035502512
-4.581435	kepasang/siap...tapi	-0.035502512
-4.581435	kekurangannye	-0.035502512
-4.581435	disiapin...	-0.035502512
-3.7327323	kudunye	-0.035502512
-4.1907473	siap..	-0.035502512
-4.581435	pelanggan	-0.035502512
-4.581435	masuk..	-0.035502512
-4.581435	bunge...bunge...bunge...bungee...(bacanye	-0.035502512
-4.581435	ala	-0.035502512
-4.581435	syahrini)	-0.035502512
-4.581435	#alasyahrini	-0.035502512
-4.581435	http://instagram.com/p/zWRW1vooOn/	-0.035502512
-4.581435	pantang	-0.035502512
-4.1907473	brojol	-0.035502512
-4.581435	atm	-0.035502512
-4.581435	nilep	-0.035502512
-4.581435	"Beneran	-0.035502512
-4.581435	BEJAD	-0.035502512
-4.581435	banget...!!	-0.035502512
-4.581435	DPR,	-0.035502512
-4.581435	Wakil	-0.035502512
-4.581435	Rakyat,	-0.035502512
-4.581435	diupahin	-0.035502512
-4.581435	rakyat.	-0.035502512
-4.1907473	Malah	-0.035502512
-4.1907473	nyalahin	-0.035502512
-4.581435	aparat/Densus	-0.035502512
-4.581435	88.	-0.035502512
-4.581435	Selaen	-0.035502512
-4.581435	Teroris."	-0.035502512
-4.581435	sêlimut.	-0.035502512
-4.581435	"salah	-0.035502512
-4.581435	poltekkes	-0.035502512
-4.581435	masukin	-0.035502512
-4.581435	sbm,	-0.035502512
-4.581435	ketitiran	-0.035502512
-4.581435	diledekim	-0.035502512
-4.581435	""elu	-0.035502512
-4.1907473	adek	-0.035502512
-3.5894036	kelas	-0.035502512
-4.581435	elu""	-0.035502512
-4.357265	dsb.	-0.035502512
-4.581435	tapikan	-0.035502512
-3.7933803	mase	-0.035502512
-4.581435	depan,	-0.035502512
-4.581435	hak:(	-0.035502512
-4.581435	anjir"	-0.035502512
-4.581435	"kantor	-0.035502512
-4.581435	tamu,	-0.035502512
-3.5505059	bener,	-0.060928743
-3.863894	ngejogrok	-0.035502512
-4.357265	isinye	-0.035502512
-4.581435	""ari	-0.035502512
-4.581435	enih	-0.035502512
-4.581435	tuges	-0.035502512
-4.581435	ape?""	-0.035502512
-4.581435	07.30.	-0.035502512
-4.581435	bangganye	-0.035502512
-4.581435	mrasa	-0.035502512
-4.581435	atu-atunye	-0.035502512
-4.581435	prawan	-0.035502512
-4.581435	kepercayaan-nye	-0.035502512
-4.581435	kolaan,	-0.035502512
-4.052705	ngungkapin	-0.035502512
-4.581435	keluargenye.	-0.035502512
-4.581435	"Karne	-0.035502512
-3.9481184	naro	-0.035502486
-4.581435	seluruh	-0.035502512
-4.052705	mimpi	-0.035502512
-4.052705	arepan	-0.035502512
-4.357265	Sang	-0.035502512
-4.1907473	Maha	-0.035502512
-4.581435	Pengasih,	-0.035502512
-4.581435	Penyayang.	-0.035502512
-4.581435	sebabnye,	-0.035502512
-4.581435	abis-abisnye	-0.035502512
-4.581435	(ngrasa)	-0.035502512
-4.581435	dikecewain."	-0.035502512
-4.581435	berojol.	-0.035502512
-4.581435	Ka	-0.035502512
-4.581435	tulisan-tulisan	-0.035502512
-4.357265	Selalu	-0.035502512
-3.9481184	kate-kate	-0.035502486
-4.357265	dateng.	-0.035502512
-4.581435	"Nunjuk	-0.035502512
-4.357265	Badrodin,	-0.147582
-4.581435	Bamsoet	-0.035502512
-4.581435	Ngire	-0.035502512
-4.581435	Deal	-0.035502512
-4.052705	PDIP:	-0.08793666
-4.581435	deal-dealan...	-0.035502512
-4.581435	http://bit.ly/1vR9cEw"	-0.035502512
-4.581435	dikonciin	-0.035502512
