seneng2 Nathania 1.0000000
dulu2 NULL 0.0000456
sim sim 0.1666667
sim NULL 0.0000912
sim mobil 0.0312500
minoruliciouces tersedie 0.1666667
"#Golkar sebelom 0.1250000
"#Golkar nyarap 0.0666667
"#Golkar "Hari 0.2500000
"#Golkar keempat, 0.1666667
"#Golkar Babeh 0.0714286
"#Golkar Seno 0.3333333
berlemah NULL 0.0000456
"Memangnya nuduh 0.2500000
"Memangnya "Èmangnyah 0.5000000
"Memangnya ama 0.0036900
"Memangnya montên 0.5000000
mengkonsumsi hixx" 0.2000000
bri ambalnye 0.1428571
"Tersulah sarjane 1.0000000
"Tersulah mulut 0.2500000
"Tersulah due 0.0769231
"Tersulah nye 0.0125000
"Tersulah kali, 1.0000000
"Tersulah bibinye 1.0000000
"Tersulah "Udeh 0.1666667
"Tersulah mao 0.0075758
@info: Pengalaman 0.5000000
@info: #telkom 0.1111111
@info: sering 0.0454545
@info: udeh 0.0044444
@info: inih 0.0294118
@info: soalnye 0.0181818
@info: banget 0.0156250
kedepan ame 0.0031447
penjaga" suse 0.1428571
penjaga" telpon 0.3333333
penjaga" dibel, 1.0000000
penjaga" ade 0.0052632
penjaga" kaga 0.0046948
penjaga" penjage" 0.2000000
penjaga" "nomer 1.0000000
(PAN) Kutau 0.1428571
terlantar NULL 0.0000912
hehe.. dagang. 1.0000000
meluas" udeh 0.0044444
Status êluh 0.0400000
feeling NULL 0.0000456
Awalnya NULL 0.0000456
penampakan ituh 0.0222222
penampakan NULL 0.0000456
sepuh Mpok 0.1111111
pastikan bis 0.2000000
https://path.com/p/Xgcq3 Kadang 0.1428571
depannya "Kalo 0.0454545
Matematikawan NULL 0.0000456
kembali rindu 0.3333333
kembali NULL 0.0007751
kembali bis 0.2000000
kembali balek 0.1111111
kembali Rumeh 0.2500000
kembali kembali 0.1111111
kembali keaaan 1.0000000
kecil. NULL 0.0000456
kecil. wadon 0.0263158
kecil. RT 0.0555556
kecil. @dedysatriono: 0.2500000
kecil. biase 0.0526316
kecil. obrolan 0.1428571
Bahagialah, NULL 0.0000456
adalah asin, 0.1111111
adalah ngartiin 0.5000000
adalah kêamanan 0.2000000
adalah taichangorèng 0.1666667
adalah isinyah." 0.2500000
adalah indah 0.1111111
adalah baejin 0.2000000
adalah sêkola 0.0500000
adalah Ngasih 0.1428571
adalah ikan 0.1666667
adalah INi 0.4000000
adalah NULL 0.0014135
adalah débitur 0.1250000
adalah terkutuk" 1.0000000
adalah Montana, 0.1111111
adalah ntu 0.0097087
adalah idèntitas 0.2000000
adalah nyape 0.2500000
:((((( Rp 0.0909091
:((((( http://gpon.co/7d9dr 0.2500000
:((((( 60.000 1.0000000
gol, Demi 0.1250000
noda, NULL 0.0000456
noda, ari.." 0.1250000
halaman, normal." 0.1428571
satu-satunya pesen 0.0625000
Jamaahnya buat 0.0041494
teman. http://goo.gl/fb/0XU7yQ" 0.3333333
http://youtu.be/UjfYJCrlCfo?a ~0228" 0.2000000
strategis,kamar @Pete2Merah 0.1250000
jaket Pake 0.1111111
jaket ato 0.0384615
jaket pakean 0.0500000
jaket jaket 1.0000000
jaket tebel 1.0000000
Udara THR 0.2000000
Udara NULL 0.0000456
mah" g 1.0000000
dirubah bêkas 0.5000000
diputusin êluh 0.0400000
ungulan slalu 0.0625000
ungulan ngeliat 0.1250000
ungulan ape-ape 0.1111111
ungulan ye 0.0204082
ungulan make 0.0322581
ungulan ungulan 0.5000000
ungulan baru 0.0151515
tahun- NULL 0.0000456
memudahkan NULL 0.0000456
terjadi" "Bênêr, 1.0000000
terjadi" NULL 0.0000456
ni? keluarge" 0.1666667
dibentak, Untungnye 0.2000000
keamanan. Colongan 0.2000000
lo, kurang..." 0.2500000
#mantan nantinyah." 0.2000000
pangkat Pondok 0.1428571
kecewa airy.." 0.2500000
kecewa termasuk 0.1000000
kecewa "sêsayang 0.3333333
kecewa NULL 0.0004560
kecewa "Wah 1.0000000
gabakal maleh 0.0833333
ex ye 0.0102041
ex minder... 0.1250000
ex aye 0.0019960
ex ebentar... 1.0000000
ex pengen 0.0178571
ex punye 0.0217391
ex juge 0.0074074
pelatih butut 0.1250000
pelatih miswar, 0.5000000
pelatih dipakè" 0.1111111
pelatih ...ora 1.0000000
pelatih mandi, 0.2500000
pelatih bisa 0.0270270
pelatih tipi 0.0333333
pelatih "Pêrabotan 1.0000000
saya..." pan" 0.2000000
Hehe AC 0.0250000
Hehe mayan 0.0227273
Hehe brisik 0.1111111
Hehe "Aer 0.2000000
Hehe bau, 0.0909091
keuangan NULL 0.0001368
keuangan dingin." 0.1428571
gini.. NULL 0.0000456
posesif 11 0.2500000
posesif sedaritadi. 0.1111111
posesif Pacar 1.0000000
posesif jem 0.0285714
solo' bêrita" 0.1666667
badcover toleran, 1.0000000
opini NULL 0.0000912
opini Tuker 0.1666667
opini tue 0.1111111
MI NULL 0.0000456
""Mba NULL 0.0000456
sekoyaaah NULL 0.0000456
kos2an NULL 0.0000456
kolesterol kesempatan 1.0000000
kolesterol sekali 0.0666667
kolesterol rasanye 0.2500000
kolesterol lagi 0.0066225
kolesterol kalo 0.0044248
kolesterol ada 0.0055866
"Nah mana-mana 0.5000000
"Nah Nyang 0.0384615
"Nah ari 0.0156250
"Nah awang 1.0000000
"Nah ngêja 0.0625000
"Nah kê 0.0188679
'Poltergeist' rase 0.0454545
temperatur ama 0.0036900
mu" orang 0.0051813
mu" laen 0.0344828
mu" melulu.. 1.0000000
mu" nyindir 0.5000000
melihatmu NULL 0.0000912
mainin ènak 0.1250000
mainin NULL 0.0000912
UPS T-T 0.1428571
stasiun meluas" 0.2500000
stasiun semue 0.0196078
kak, NULL 0.0000456
Sejak NULL 0.0000456
ijin bertahan 1.0000000
Trauma http://ow.ly/JmsfB" 0.2500000
step apah 0.0769231
menjemput yee..ape 1.0000000
menjemput abang 0.0588235
menjemput kabar 0.0769231
menjemput belon?? 0.2500000
menjemput satria??udehan 0.1666667
suguhkan hari 0.0400000
suguhkan disajiin 0.5000000
toll.. NULL 0.0000456
kantor? NULL 0.0000456
Yogyakarta Rabbalallaamiin. 0.2500000
perhelatan tapi 0.0035211
kelar. NULL 0.0000456
Skripsi UDAH 1.0000000
Sahuuuuur...! SINDIR 1.0000000
"Gemes bener 0.0136986
"Gemes "Gemes 0.3333333
DANCE NULL 0.0000456
disuap, "Soalnye 0.1428571
NINE pasti 0.0370370
mengalir NULL 0.0001368
mengalir gawean 0.0909091
http://ow.ly/JFsaU Ngêri, 1.0000000
http://ow.ly/JFsaU Poto 0.5000000
http://ow.ly/JFsaU Jadi 0.0285714
http://ow.ly/JFsaU Bêrèdar 1.0000000
http://ow.ly/JFsaU Suzzanna 1.0000000
http://ow.ly/JFsaU Luna 1.0000000
http://ow.ly/JFsaU Maya 1.0000000
http://ow.ly/JFsaU "Ih 0.3333333
http://ow.ly/JFsaU Ngêjè 0.2000000
kufur! dèwèk<3 0.1111111
bapa "monumen 0.2500000
beda" abis 0.0196078
beda" pegih.. 1.0000000
beda" lu 0.0103093
beda" Gitu?" 0.5000000
beda" gelap 0.2500000
tampan. " 0.0064103
setia""""." negare 0.0833333
definisi Jadi 0.0285714
definisi NULL 0.0000456
definisi depinisi 0.2000000
penilaian http://bitly.com/1anbCGV 0.2500000
iklan NULL 0.0000456
Giliran gêgêrawakan 1.0000000
"kakak "abang 0.3333333
"kakak lagi 0.0066225
"kakak sekola 0.1666667
"kakak ye"""", 1.0000000
"kakak besok 0.1666667
yaitu NULL 0.0000456
... Twitter 1.0000000
... [URL]" 0.0119048
... NULL 0.0002736
... http://bit.ly/1vMAMmk 0.5000000
... http://gpon.co/vfe72 0.3333333
traumamu. NULL 0.0000456
ketemu rohani 0.1666667
ketemu jenis 0.5000000
ketemu NULL 0.0001824
ketemu dibenahin 0.2857143
ketemu , 0.0227273
ketemu sêwayah 0.1428571
ketemu "Pertama 0.2000000
lo ama 0.0073801
lo Jatim 0.1250000
lo ngingetin 0.3333333
lo NULL 0.0005471
lo sêhinggè 0.5000000
lo ati" 0.2000000
lo digonoin, 0.1250000
lo Cucu 0.2000000
lo lo 0.2727273
lo idèntitas 0.2000000
lo merad? 0.1666667
gratis maonye 0.1250000
gratis sis 0.1000000
gratis Kanwil 0.2500000
gratis (bukan 1.0000000
gratis NULL 0.0001368
deh...!! NULL 0.0000456
Personal die 0.0070423
"AkuMencintaimu "ngênyêmbuhin 0.3333333
"AkuMencintaimu sakit 0.0416667
"AkuMencintaimu rasa 0.3333333
"AkuMencintaimu tanpa 0.1250000
"AkuMencintaimu obat 0.3333333
"AkuMencintaimu yak 0.0322581
Hafidz NULL 0.0000912
Hafid NULL 0.0000456
harta." bakal 0.0049261
harta." nyambutnye" 0.1428571
perkosa solo' 0.1428571
Besar. NULL 0.0000456
""Bank-nya NULL 0.0000456
http://fb.me/2NQHjOiRR kertas" 0.2000000
http://fb.me/2NQHjOiRR sebueh 0.3333333
rezekinya, pade 0.0101010
#SMARTtips" cengar 0.5000000
#SMARTtips" langsung 0.0200000
#SMARTtips" gue 0.0106383
#SMARTtips" cengir? 0.2000000
-.- pacarnye" 0.1428571
jugalah. ayam 0.2500000
mateng2 dèwèk.. 0.1250000
antenanya "Jamban 0.3333333
NONI NULL 0.0000456
Para "Di 0.1111111
Para "Rame, 0.3333333
Para berkutat 0.1428571
Para NULL 0.0000456
agung. kureng 0.0227273
agung. "AC 0.1250000
agung. kagak 0.0013755
agung. bohlam 0.5000000
agung. dingin, 0.1111111
agung. terang" 0.5000000
"Yg ngebagiin 1.0000000
"Yg ge 0.0434783
"Yg Lagarde 1.0000000
"Yg kejadian 0.2500000
"Yg "Christine 0.1666667
apabila NULL 0.0000456
sebelom "Roh 0.1111111
alesannya NULL 0.0000456
alesannya alesannye 0.3333333
alesannya luar 0.0666667
alesannya , 0.0227273
alesannya jem 0.0285714
tinggikan di 0.0016000
rekan halaman, 1.0000000
rekan NULL 0.0001368
kepalang NULL 0.0000456
mngejut." suare 0.0555556
"Merasa Atu 0.3333333
PM kêcêlakaan 0.2000000
lagiii kendale 1.0000000
berwujud. mpok-mpoknyè 1.0000000
Women ha 0.2500000
"Masak Wajahlu 1.0000000
"Masak NULL 0.0000456
kamuuu" ayee 1.0000000
kamuuu" eluuu" 0.5000000
kamuuu" tadi, 0.5000000
kamuuu" sayang 0.0105263
Kuras https://path.com/p/2OpXQ5" 0.2000000
rp Bos 0.5000000
ever http://bit.ly/1vR1Ock 0.1250000
ever http://bit.ly/1LHiWZf 0.1428571
sj NULL 0.0001824
sj sungkan 1.0000000
Demokrasi kondisinyè 0.1666667
Demokrasi baêk, 1.0000000
Demokrasi NULL 0.0001368
Demokrasi kurang 0.0084034
tidaknya @inpo: 0.1666667
terbengong NULL 0.0000456
Ayem, NULL 0.0003192
pemimpin NULL 0.0001824
pemimpin sêparo 1.0000000
pemimpin baru" 0.1250000
hadiahnya NULL 0.0000456
Sartre dipungkiri, 0.3333333
Sartre Sarte 0.5000000
Sartre dapet 0.0158730
meraih maen 0.0625000
meraih Riddle, 1.0000000
meraih ngerjain 0.5000000
meraih tatap-tatapan, 1.0000000
meraih PR 0.3333333
project, NULL 0.0000456
sades-_- http://ask.fm/a/bpbe6bl4 0.2500000
Ngecewain #Sukabumi 0.3333333
Ngecewain http://goo.gl/fb/XNK6hU 1.0000000
pemberitahuan udèh 0.0312500
kw lalu. 0.2500000
nan NULL 0.0000456
nan pake 0.0166667
kaki! Bangunan 0.3333333
kaki! lame. 0.1666667
kaki! kote. 0.3333333
kaki! Pemandangan 1.0000000
#unitedtogether NULL 0.0000456
investasi bisè 0.0434783
dibalesnya mau 0.0666667
mmng NULL 0.0000912
membaca Anis 0.1111111
5-14 adek 0.3333333
bercaknya" resik 0.0270270
bercaknya" alasnye 1.0000000
bercaknya" kureng 0.0227273
bercaknya" bejibun 0.0476190
bercaknya" bercaknye" 0.3333333
kebersiahnya sêpréh 0.1250000
Cole, https://path.com/p/3arTQi 0.2000000
stok NULL 0.0000456
https://path.com/p/2LM8XG @rzvdk 0.2500000
https://path.com/p/2LM8XG areh 0.5000000
https://path.com/p/2LM8XG dua 0.0769231
https://path.com/p/2LM8XG Macet 1.0000000
https://path.com/p/2LM8XG Pondok 0.1428571
https://path.com/p/2LM8XG Kopi. 1.0000000
https://path.com/p/2LM8XG lewat 0.3333333
Pasca minum, 0.2500000
Pasca mah" 0.2500000
inshaallah pisah... 1.0000000
kan.." kenyataan 1.0000000
kan.." disingkronin.." 0.3333333
kan.." ame 0.0031447
kan.." mohon 0.0909091
kan.." congor 1.0000000
niruin kolaan 0.0833333
niruin ngikutin 0.3333333
niruin amat 0.0256410
niruin aturan 0.5000000
niruin kagak-kreatip 1.0000000
niruin laen 0.0344828
benar-salah/tidak kêna 0.2000000
burung kapan 0.0714286
burung Gawenye 0.1666667
burung NULL 0.0000456
ngedeteksi NULL 0.0000456
"Mandiri sêmangêt! 1.0000000
transportasi NULL 0.0000456
Pemimpin. têrus 0.0500000
Pemimpin. pantêngin 1.0000000
Pemimpin. yak!!!" 0.2500000
botol pade 0.0101010
botol pare 0.1428571
botol Nasib 1.0000000
botol #Indonesia 0.5000000
botol bukan 0.0131579
botol #Penentu 0.2000000
ar.. "Rumor 0.1428571
perbaikan NULL 0.0000912
ngebuat NULL 0.0000456
"Ya lêga..jadi 1.0000000
"Ya orang?""" 0.1428571
"Ya bensin 1.0000000
"Ya NULL 0.0000912
disini, banyak 0.0111111
Kualitas ranjang, 0.2500000
Kualitas NULL 0.0000456
beasiswa tes 0.0833333
Pegang Mancur 1.0000000
Pegang Apèlagi 0.2000000
kotor." "Baekan, 1.0000000
penggunaan NULL 0.0000456
ledek otaknye 0.2500000
Diajak sumringah 0.1428571
kamu, datêng. 1.0000000
kamu, NULL 0.0000456
kamu, perusahaan 0.1666667
instalaai item 0.5000000
piagam, NULL 0.0000456
minder... OOP, 0.2000000
Gk hehe." 0.2000000
pernh NULL 0.0000456
pernh ituh.. 0.1666667
:D http://goo.gl/fb/qOir6d" 0.2500000
:D Kagak 0.0166667
:D "Woh, 0.2500000
:D Jelas 1.0000000
Rasul NULL 0.0000456
#PilkadaSerentak #pêndapêt 0.2500000
"20.15: "Untungnye 1.0000000
yah"""", NULL 0.0000456
lemot, lelet, 0.2500000
lemot, panas, 0.2000000
lemot, ada 0.0055866
lemot, "Wifi 0.2500000
lemot, aer 0.0109890
lemot, jamban 0.0232558
lemot, resik" 0.1666667
lemot, kurang 0.0084034
lemot, ame 0.0031447
pukpukk. lame, 0.2500000
hal" putri 0.1666667
#BonekJancuk berubah. 0.1428571
#BonekJancuk Padahal 0.1111111
sangat salain 0.1666667
sangat NULL 0.0023710
sangat malu" 0.2000000
sangat sep" 0.5000000
sangat hamdalah 0.1428571
sangat Mazagengkendeng: 0.1428571
sangat harge.. 0.1666667
sangat ari.." 0.1250000
sangat "Beneran 0.2500000
sangat kagak 0.0013755
sangat letaknye 0.1250000
sangat "Ketentuannye 0.2500000
sangat jendela 0.1250000
sangat ngebikin 0.0909091
sangat sih" 0.2000000
sangat dan 0.0052356
sangat diiklanin..buruk.. 1.0000000
sangat elu..." 0.2000000
sangat #Iriana 0.1250000
sangat sekali. 0.1250000
sangat nyolong 0.1250000
sangat ngejogroknye 0.2000000
secukupnya die 0.0070423
Spontan, NULL 0.0000456
"Bukan "Abis 0.2500000
sofanya antu" 0.3333333
staf NULL 0.0000912
staf Indonèsia 0.1000000
meridhoi NULL 0.0000456
sik NULL 0.0000456
sik Kehebringan 1.0000000
dibuku demenan 0.3333333
Mangat sênêng 0.0714286
lun NULL 0.0000456
HAHAHA 'Sarang 0.5000000
HAHAHA Konstruksi 0.2500000
HAHAHA Gonggo' 1.0000000
kasian" :')" 0.3333333
kasian" ora 0.0083333
kasian" diarêpin. 1.0000000
kasian" sêpêrti 0.1428571
kosa "Dongo 0.2000000
titik titik 0.2000000
titik NULL 0.0001368
titik kite 0.0067568
nyuci NULL 0.0000456
"Go al-Najjar. 1.0000000
"Go medis 1.0000000
"Go Razan 0.2500000
"Go Palestina 1.0000000
"Go Petugas 0.5000000
airy? NULL 0.0000456
diajak NULL 0.0000456
diajak tinggi 0.2500000
teguh NULL 0.0000456
risiko NULL 0.0000912
risiko mampus 0.1111111
lancar. NULL 0.0000456
biasa peduli? 0.1428571
biasa puas 0.1000000
biasa bakal 0.0049261
biasa NULL 0.0005927
biasa ora 0.0083333
biasa bêpikiran 0.1666667
dianya.. #ARSI" 0.2500000
deretan sayang" 0.3333333
deretan barang 0.1666667
deretan sêmpêt 0.1111111
deretan kêilangan 0.1428571
kenceng, "wipi 0.1428571
kenceng, NULL 0.0000456
durasi Biadab 0.2500000
Thanks. ituh 0.0222222
amat NULL 0.0001368
amat http://bit.ly/1LUZrN7 0.1666667
amat Gawean 0.2000000
menyadari. NULL 0.0000456
keberkahan" bosen 0.2500000
keberkahan" bedua. 0.2000000
keberkahan" Entong 0.1111111
keberkahan" pangkeng. 0.2000000
keberkahan" molor 0.0625000
keberkahan" Sediain 1.0000000
keberkahan" dewa. 1.0000000
omg !!!" 0.1250000
dinding, Dg 1.0000000
dimainkan. 2x 0.5000000
dimainkan. ada 0.0055866
dimainkan. gè 0.0322581
dimainkan. gara-gara 0.2500000
kapanpun NULL 0.0000912
bau." NULL 0.0000456
Berdosa lagi 0.0066225
Berdosa dikasih 0.0294118
Berdosa ditanye 0.1428571
Berdosa anduk, 0.1666667
Penumpang NULL 0.0000456
Penumpang pernah 0.0200000
gih.. "Bener 1.0000000
@_kngdaniel96 Internasional" 0.2000000
@_kngdaniel96 Persahabatan 1.0000000
@_kngdaniel96 . 0.0133333
@_kngdaniel96 cm 1.0000000
@_kngdaniel96 Hari 0.3333333
@_kngdaniel96 Selamet 0.0833333
@_kngdaniel96 -5 1.0000000
DAN takut 0.1000000
DAN kuliner 1.0000000
DAN NULL 0.0000912
penyambutan penyambutan 1.0000000
"kemarin cakep. 0.1428571
"Bising,kurang nyecerin 0.5000000
"Bising,kurang ah 0.1428571
"Bising,kurang ke 0.0070922
"Bising,kurang bini 0.1250000
"Bising,kurang nih 0.0416667
"Bising,kurang tujuh 1.0000000
"Bising,kurang pelit 1.0000000
"Bising,kurang kagak-aye 1.0000000
"Bising,kurang engkong 0.3333333
"blio idup 0.0200000
"blio seratus 1.0000000
"blio "?Pas 0.5000000
"blio aye 0.0019960
"blio ngasi 0.1250000
Beberapa NULL 0.0000456
Beberapa dêngêrnyè 0.1111111
Polri kelompok 0.5000000
Polri ame 0.0031447
Polri orang 0.0051813
Polri NULL 0.0000456
Polri "Ciptaan 0.2500000
Polri begantung 0.2500000
Polri ape 0.0103093
menengah mah 0.0434783
kaliqn bukan 0.0131579
ilegal nanye 0.2500000
ilegal ngomong 0.0322581
ilegal basa-basi 0.2000000
ilegal nyape 0.2500000
ilegal ape 0.0206186
saja,sekali-sekali NULL 0.0000456
saklar yaa 0.1250000
SAYA bikin 0.0232558
SAYA NULL 0.0000912
voting setlahnye. 0.3333333
you,... nyesek 0.1428571
nampakin NULL 0.0000456
Nemenin Kagak 0.0166667
death NULL 0.0000456
Kebebasan NULL 0.0000456
"Jaman #tekno 0.5000000
"Jaman Antare 0.2000000
"Jaman | 0.0833333
"Jaman Petani 1.0000000
sebabnya, NULL 0.0000456
"Ikhlas tangan 0.1428571
"Ikhlas kenceng 0.1428571
"Ikhlas paling 0.0238095
"Ikhlas "Tepok 0.2000000
berlian "gile 0.1666667
lapisannya, bol 1.0000000
Terlupakah ""Udèh 0.1111111
rensentatif pancorannye 0.1428571
rensentatif adem" 0.1428571
rensentatif panas 0.0178571
rensentatif mule-mule 1.0000000
rensentatif lame-lame 0.1666667
check-lagi disuruh 0.1428571
take duluan. 0.1666667
belgia dan 0.0026178
Naaahhhh NULL 0.0000456
bersamamu - 0.0142857
bersamamu kêpênuhin" 0.1666667
Farmasi, dengan 0.0232558
Farmasi, kejailan 0.1666667
Farmasi, semue 0.0196078
Farmasi, dunie 0.0625000
"Siapapun kagakmungkin 1.0000000
"Siapapun danta 0.1000000
"Siapapun bepikir 0.3333333
"Siapapun KORUPTOR 0.2500000
"Siapapun Otak 0.2500000
Membicarakan rapat 0.1666667
Munir. Sêdêng 1.0000000
"Tapi dompet 0.5000000
"Tapi NULL 0.0000912
Kalian NULL 0.0000912
harrashment NULL 0.0000456
http://fb.me/4QIkoLgyl Kalah 0.5000000
http://fb.me/4QIkoLgyl ame 0.0031447
http://fb.me/4QIkoLgyl aye 0.0019960
gak.seperti semalu 1.0000000
Lihat guah 0.0085470
Lihat ngêlahap 1.0000000
Lihat NULL 0.0000456
Siapa NULL 0.0000456
susah,air ntu""""minta: 0.5000000
susah,air Cinte 0.0555556
susah,air setie""""." 0.2000000
susah,air jangan 0.0303030
susah,air minggat"""". 1.0000000
susah,air tetep 0.0263158
Aneh, "Yakin, 0.2000000
Aneh, NULL 0.0000456
Aneh, Nyesel 1.0000000
Aneh, mati." 1.0000000
Aneh, MACCA 0.3333333
Aneh, Salurannyè 0.1250000
Aneh, ketulusan, 0.3333333
detik. pancoran 0.0909091
""Terima bilang.. 1.0000000
Macam anak 0.0294118
12. (cowok-cowok) 1.0000000
heran NULL 0.0001368
cungkring kè 1.0000000
#kerjateruss" Allah. 0.1111111
kesannya NULL 0.0000456
kesannya umumnyah 0.1666667
kesannya rodi" 0.3333333
pagarnya Têpat 0.1250000
sekumpulan NULL 0.0000456
cemburu, ngunduh 0.1666667
ini... aroma-aroma 1.0000000
ini... keseatan 0.1428571
diperhatikan, bau 0.0217391
Tekkim ngelangkah 0.2500000
Tekkim fitneh, 1.0000000
Tekkim adu 0.3333333
Tekkim domba.. 0.1428571
Tekkim hujet, 1.0000000
Soswitnya yang 0.0033557
bus NULL 0.0000456
terbang diè 0.0416667
stiap "Kudunye 0.1428571
stiap ntu 0.0048544
stiap maren, 1.0000000
stiap untung 0.1666667
stiap diusut, 1.0000000
stiap kaga 0.0046948
stiap NULL 0.0000456
terus"" kire-kire?" 0.2000000
kami, cewek 0.1000000
kami, lugu 0.3333333
zat bakal 0.0049261
menghentikan ama 0.0036900
lemot. tapi 0.0035211
petugasnya" digerojogan# 0.2500000
petugasnya" awan 1.0000000
petugasnya" gulem 1.0000000
petugasnya" ember 0.5000000
petugasnya" naro 0.2000000
petugasnya" #jage-jage 1.0000000
naha NULL 0.0000456
ir. NULL 0.0000456
Qadar, bulan, 0.5000000
harapan "Karna 0.2000000
harapan minumnye 1.0000000
harapan ènzim 0.1250000
harapan airy, 0.1666667
harapan NULL 0.0000912
teriak, NULL 0.0000456
kan... tapi 0.0035211
Resepsionis Zon 1.0000000
bolong, NULL 0.0000456
ngrampok NULL 0.0000456
donatur, "Terime 0.2000000
cret. NULL 0.0000456
ssuai kapan 0.0714286
ssuai waras 0.1250000
trauma NULL 0.0000912
membuatmu lebih 0.0156250
membuatmu NULL 0.0000912
kudu NULL 0.0000456
kudu adem 0.0270270
Merubah NULL 0.0000456
militer militer 0.2000000
militer dilatih 0.5000000
moyangmu gayêman, 1.0000000
kru Tribun 0.5000000
kru "15. 0.2500000
"Bunga mentok 1.0000000
ngupload NULL 0.0000456
#memetwit" sejaman. 0.2000000
#memetwit" ampir 0.0714286
#memetwit" #memetwit" 0.2500000
10jt NULL 0.0000456
nafsunya lagih 0.0625000
nafsunya twItter 0.1250000
nafsunya :)" 0.0833333
nafsunya kalu 0.0263158
nafsunya maèn 0.1428571
nafsunya balik 0.0263158
filmnya, "Tapi 0.2500000
medsos tapi 0.0035211
medsos kêbêranian. 1.0000000
medsos ??" 0.2000000
medsos NULL 0.0001824
hijrah, pula. 0.1250000
Suci ""katenye"" 1.0000000
Uang !!! 0.2500000
Uang NULL 0.0000912
Uang Hèhèhèhè 1.0000000
Uang karang 0.0384615
Soekarno. bunuh 0.1111111
Soekarno. NULL 0.0000456
sprei Senggaknye 1.0000000
sprei "yaèlah 0.1111111
sprei terbae 0.0909091
sprei pamit." 0.1111111
sprei NULL 0.0005927
sprei ari.." 0.1250000
sprei Inilah 1.0000000
sprei Umum, 1.0000000
sprei " 0.0064103
Partai nubruk 0.1666667
Partai mesem-mesem 1.0000000
Partai http://bit.ly/1AX1dxn 0.2000000
Partai bêtambah 0.1000000
Partai modar. 0.1666667
Partai Ninggalin 0.1666667
Partai Kayenyeeee 1.0000000
Partai City." 0.3333333
Partai NULL 0.0001824
Partai #Repost 0.2500000
Partai (Èkor 0.1666667
Partai kondisinyè 0.1666667
ucha: bekuin 0.1428571
ucha: pertanyaan 0.5000000
ucha: semue 0.0196078
beliau, NULL 0.0000456
beliau, ngêluh 1.0000000
kemasan #Rakyat 1.0000000
kemasan yang 0.0033557
kemasan bakal 0.0049261
kemasan sebagei 0.1000000
kemasan . 0.0133333
kemasan Masih 0.1666667
kemasan #Penentu 0.2000000
Hasil "Guah 0.2500000
da NULL 0.0001368
16-19% pembantu 0.1111111
kmrn, NULL 0.0000456
http://goo.gl/fb/XNK6hU ditingkatin 0.1666667
http://goo.gl/fb/XNK6hU kêrêsikan 0.1666667
http://goo.gl/fb/XNK6hU sêlaèn 0.2500000
http://goo.gl/fb/XNK6hU kudu 0.0076923
Bangka ngacir 0.2500000
melahirkan, NULL 0.0000456
main2 bise. 0.2000000
hufh NULL 0.0000456
Dek NULL 0.0000456
Tipe2 sekali 0.0666667
thai Politik 0.3333333
istighfar """"Yè, 0.1666667
pencitraan NULL 0.0000456
!!!!" http://gpon.co/vfe72 0.3333333
!!!!" 300.000 0.2000000
!!!!" NULL 0.0000456
brupa sepatu 0.2000000
brupa seragam 1.0000000
brupa sekola,tas 1.0000000
brupa @DDsulsel 0.2500000
brupa dari 0.0051813
brupa dan 0.0026178
brupa brupe 1.0000000
brupa olahrage,seragam 1.0000000
BADAN NULL 0.0000456
Terbakar jamban. 0.1111111
soonhoon NULL 0.0000456
kecil, NULL 0.0001824
kecil, KAMAR 0.3333333
kecil, noh 0.1428571
(-) NULL 0.0000456
OOP, bakal 0.0049261
Kasih https://path.com/p/6zN6L 0.1250000
Kasih NULL 0.0000912
Kasih wkwk 0.0588235
Kasih , 0.0227273
berwarna gerobog 0.1000000
berwarna NULL 0.0000456
jenuh NULL 0.0000456
ngemis-ngemis """"Bise 0.1666667
pernikahan http://dlvr.it/8g2FDQ 0.2500000
wong Sayah: 0.3333333
wong NULL 0.0000456
tvnya rênyêk 0.1250000
setuju wadon 0.0263158
setuju "bujug 0.2500000
setuju di-ledekin 1.0000000
setuju jaman 0.0555556
setuju sekarang 0.0526316
dek 3. 0.1250000
dek NULL 0.0000456
pendataan NULL 0.0000456
Mancur NULL 0.0000456
Kerreeennn!! Hond 1.0000000
Kerreeennn!! mobil 0.0312500
Kerreeennn!! Brion 1.0000000
Kerreeennn!! Kecelakaan 1.0000000
Kerreeennn!! "00:11 0.2500000
kita.Kesudahannya,sangat NULL 0.0000456
Kantongi ikm 0.2500000
Kantongi wkwk 0.0588235
daftar NULL 0.0001368
daftar diganti 0.1428571
dustakan?" dedemit 0.3333333
dustakan?" [UR]" 0.5000000
dustakan?" rombogan 1.0000000
dustakan?" dari 0.0051813
dustakan?" terkutuk. 1.0000000
dustakan?" yang 0.0033557
dipersulit gituu" 0.1666667
dipersulit NULL 0.0000456
awkward ni 0.2000000
awkward maap 0.0625000
menghentikannya dengan 0.0232558
videocall NULL 0.0000456
hobby diri 0.0333333
hobby NULL 0.0000456
Miliar momon, 0.1250000
Miliar bintang 0.0909091
Miliar NULL 0.0000456
Miliar sekitaran 0.3333333
Miliar bapak-bapak 0.1250000
Miliar banget-->@VIVA_log: 0.1666667
Miliar kuar 0.0909091
perjalanan oppa 0.1250000
perjalanan NULL 0.0000456
perjalanan dipakè 0.2000000
perjalanan pendukung 0.5000000
pusat "Pêrcumè 0.2000000
pusat kote." 0.2500000
pusat NULL 0.0000456
uptudate NULL 0.0000456
sore/malam amè 0.0222222
Cemburu NULL 0.0000456
"Christine [USERNAME] 0.0032787
MAKIN amsih 1.0000000
MAKIN Mi 1.0000000
MAKIN NULL 0.0000912
AIR ngêlawan 1.0000000
AIR obèsitas. 0.3333333
kerap NULL 0.0000912
Gobloknya tau 0.0144928
vocher Lupe 0.1666667
I Hummer 0.1428571
I aye 0.0019960
I NULL 0.0002736
I ÊLU! 0.3333333
I gendong 1.0000000
I "Wilayeh 0.1428571
I kuliah, 0.1428571
I balik. 0.1250000
I 'blusukan' 0.1428571
jombs, NULL 0.0000456
"Lagi malem 0.0270270
"Lagi "Masak 0.5000000
menahan adalah 0.0714286
menahan NULL 0.0000456
omongan NULL 0.0000456
omongan hadis 0.3333333
omongan ituh 0.0222222
yaa) Pèngèn 0.5000000
yaa) hapè 0.0555556
yaa) punya 0.0833333
syariah loh. 0.5000000
syariah Coba 0.2500000
syariah dah 0.0217391
syariah #RamèinBola 0.2000000
lah. Kaye? 0.1250000
lah. malingnye 0.2500000
lah. NULL 0.0001824
kulakukan." kasih 0.0208333
kulakukan." buat 0.0041494
kulakukan." kêjangkau.. 1.0000000
kulakukan." Airyrooms.. 1.0000000
kulakukan." têrima 0.5000000
tiada. NULL 0.0000912
RW juge, 0.1250000
dewi Rp 0.0909091
beringat, NULL 0.0000456
Ied toko 0.2000000
Makasiiih Disayangi 0.2500000
Makasiiih 7 0.1111111
rusak." Ngiringin 1.0000000
natal "Terusan...@bankmandiri 1.0000000
snack, @PrincesSyahrini 0.1111111
snack, :*" 0.1250000
snack, NULL 0.0000456
snack, kepisah, 0.1666667
snack, Tapi 0.0153846
room, NULL 0.0000912
kecilan(?) NULL 0.0000456
Ntappp NULL 0.0000456
(yg NULL 0.0000456
wkwk." dikumbah 0.2500000
kelar, NULL 0.0000456
perduli gresik 1.0000000
mendapatkannya. banyak 0.0111111
mendapatkannya. pasti 0.0370370
mendapatkannya. duit. 0.2500000
mendapatkannya. .luwes. 1.0000000
mendapatkannya. lebih 0.0156250
mendapatkannya. njiiir 0.5000000
mendapatkannya. ngatur 0.5000000
ttg kapok 0.5000000
ttg bawah 0.2000000
ttg *jidatmunaaaay" 0.1666667
ttg purname 0.2000000
ttg NULL 0.0002736
kepo mundur 0.3333333
cat NULL 0.0000912
cat http://goo.gl/OALhb6 1.0000000
hehe." korban." 0.5000000
apaan. NULL 0.0000456
lantainya NULL 0.0000456
#BTSARMY 4 0.0833333
#BTSARMY AMPÈ 1.0000000
#BTSARMY ARI 0.2500000
#BTSARMY BÊTURUT-TURUT 0.2500000
#BTSARMY NGINÊP 1.0000000
pengalaman NULL 0.0000456
pengalaman ngeliet 0.0833333
!!!" NULL 0.0000456
!!!" tersenyum 1.0000000
!!!" papa 1.0000000
!!!" pantes 0.1111111
!!!" juge 0.0074074
!!!" gantiinnye, 1.0000000
!!!" kesenengan." 0.2500000
sebulan. NULL 0.0000456
Dewi Utamenye 0.2000000
Dewi NULL 0.0000912
Dewi "Kuat 1.0000000
moon NULL 0.0000456
puntung #pêbisnismuda 0.1666667
puntung kampus 0.1666667
puntung NULL 0.0000456
"Cewek sale 0.1111111
"Cewek maren-maren 0.2000000
"Cewek di 0.0016000
"Cewek poto 0.0294118
"Cewek posting 1.0000000
"Cewek aye 0.0019960
Bebas NULL 0.0000456
Cing adenye 0.2500000
kecil" pitik" 1.0000000
kecil" bergune 0.2500000
kecil" aer 0.0109890
kecil" pake 0.0166667
kecil" kucuran 0.1250000
kecil" bae, 0.0909091
rantang. NULL 0.0000456
Kepastian #telkom 0.1111111
Kepastian juge 0.0074074
bapak2 NULL 0.0000456
bapak2 yang 0.0033557
Bung akupuntur 1.0000000
Bung NULL 0.0000456
Agak megah 0.2000000
http://dlvr.it/8h4vVV http://dlvr.it/8h4vVV 0.3333333
http://dlvr.it/8h4vVV kolaan 0.0833333
http://dlvr.it/8h4vVV ke 0.0070922
http://dlvr.it/8h4vVV #Assadiqulhaq" 0.1666667
Tida kèk 0.0714286
q NULL 0.0000456
q siswe. 0.1111111
soldout. NULL 0.0000456
jatinegara NULL 0.0000456
seumur lage 0.0476190
"sesayang pagipagi 1.0000000
"sesayang Nyoknyok 0.1666667
apek. Harge 0.2500000
apek. NULL 0.0000456
#HappyHeeChulDay lakinye.. 0.3333333
#HappyHeeChulDay ato 0.0384615
#HappyHeeChulDay cere 1.0000000
#HappyHeeChulDay maen 0.0625000
#HappyHeeChulDay ngebales 0.1666667
#HappyHeeChulDay kelakuan 0.5000000
panakkukang) ampe 0.0107527
panakkukang) bersyukur 0.1250000
panakkukang) disindirin 0.2500000
panakkukang) gawean 0.0909091
panakkukang) cume 0.0344828
panakkukang) sempet 0.1000000
Cerya Adopsi 0.5000000
Ibu anak-anaknye" 0.2000000
Ibu pasti 0.0370370
Ibu NULL 0.0001368
Ibu jage-jage 1.0000000
"Aku "Ari 0.1250000
"Aku "Semenjak 0.5000000
"Aku mulu" 0.1428571
"Aku Baru 0.1428571
"Aku NULL 0.0002736
pinter, Arepannye 0.1111111
https://path.com/p/2kVbsH kalo 0.0044248
https://path.com/p/2kVbsH duitnye 0.1666667
https://path.com/p/2kVbsH kemudian 0.2500000
https://path.com/p/2kVbsH telpon 0.3333333
https://path.com/p/2kVbsH udeh 0.0044444
https://path.com/p/2kVbsH dikirim." 0.2000000
https://path.com/p/2kVbsH die 0.0070423
pelayanannya, tibang 0.0089286
pelayanannya, #inpoRI 0.1428571
#dontforget pêgi." 0.1666667
taxi "lu 1.0000000
Kuatkan orang?""" 0.1428571
perdana NULL 0.0000456
untukmu taksi 1.0000000
pecah aèr 0.0344828
pecah kêrasan, 0.3333333
pecah amat 0.0256410
pecah kru 0.1428571
pecah gêpyak 0.2500000
pecah angêt. 1.0000000
tangani NULL 0.0000456
berasa NULL 0.0002280
berasa anget 0.0555556
berasa kurang 0.0084034
berasa barêng... 0.1250000
Receptionis NULL 0.0000456
udan resik, 0.0454545
130 Badranaya"" 1.0000000
karokean #ngaji 0.1666667
oppa NULL 0.0000456
oppa oppa 0.1250000
ringan, NULL 0.0000456
dikantor kaitannye 1.0000000
nyalain yaa 0.1250000
Morning "Nyok 0.1250000
Morning NULL 0.0000456
Morning makan 0.1250000
Morning Biar 0.3333333
Morning siang 0.1666667
Morning dulu! 1.0000000
Allah "Mane 0.3333333
Allah ame 0.0031447
Allah NULL 0.0008663
Allah pècun-pècun 0.2500000
Allah nyolong 0.1250000
Allah kolesterol 1.0000000
Allah didatain 1.0000000
http://ow.ly/IosSG misan 0.3333333
senyum" lalu 0.0526316
komunikasi NULL 0.0000456
komunikasi DKi, 1.0000000
tingkatkan Makasih" 1.0000000
tingkatkan pangkèngnyah 0.1428571
tingkatkan ada 0.0111732
tingkatkan sêpréh 0.1250000
tingkatkan têrus 0.0500000
tingkatkan http://ift.tt/1F6ihhP 0.2000000
tingkatkan cokêlat 0.1428571
tingkatkan NULL 0.0000456
tingkatkan noda 0.2000000
tingkatkan bêwarna 0.5000000
#elit NULL 0.0000456
MIMPI Rusia, 1.0000000
tol, Kangen 0.0714286
tol, diri 0.0333333
trjdi miliyar 1.0000000
ampe sengaje 0.5000000
ampe aye 0.0019960
ampe NULL 0.0001368
pasti. NULL 0.0000456
berbeda... budak 1.0000000
terjatuh aye 0.0019960
sedikit Seandenye 0.2000000
sedikit kelep 0.1000000
sedikit shopee 1.0000000
sedikit *orang*" 0.3333333
sedikit NULL 0.0005927
sedikit dipungkiri, 0.3333333
sedikit Paytren 0.2500000
sedikit #Trans7RumahUya2507 1.0000000
sedikit suseh... 0.1250000
sedikit cêritè 0.2500000
sedikit masalèh 0.2500000
sedikit terjage 0.1666667
sedikit banget..." 0.1250000
sedikit bocah. 0.2000000
sedikit jalan. 0.1000000
sedikit cêlanè 1.0000000
sedikit puguh, 1.0000000
sedikit sedikit 0.0625000
""""Yes, Charlês 0.1666667
persaingan. NULL 0.0000456
ma'ruf pompa 1.0000000
dapetnya NULL 0.0000456
penderitaan tapi 0.0035211
kata2 kecamatan 1.0000000
kata2 NULL 0.0001824
sexy lu 0.0103093
kalian." "Girang 1.0000000
kalian." NULL 0.0000456
#pesonaramadan2018 Keputusan 0.1111111
ngekos sêmuanyah 0.1428571
ngekos dong.. 0.2500000
ngekos tau 0.0144928
ngekos Idup 0.5000000
"Beli sayang 0.0105263
"Beli kasih 0.0208333
"Beli "Pake 0.1428571
"Beli bumbu 0.2500000
"Beli Aye 0.0153846
@maltamananggrek) amè 0.0222222
@maltamananggrek) http://tinyurl.com/lagcrks 0.3333333
@maltamananggrek) Golkar? 0.2000000
@maltamananggrek) Pêngurus 0.2000000
@maltamananggrek) PPP 0.1666667
@maltamananggrek) Pêngêsahan 1.0000000
mama http://instagram.com/p/zT2KmhAx_4" 0.2000000
mama sopannye.. 0.2500000
mama ama... 0.2000000
mama NULL 0.0001368
kata-kata terjangko 1.0000000
kata-kata NULL 0.0000456
me" bilik 0.2000000
me" buat 0.0041494
me" tertentu 0.5000000
spm, sêpêrti 0.1428571
membuka dan 0.0026178
membuka NULL 0.0000456
membuka Besar. 0.1428571
internet." "sêluruh 1.0000000
Tedalam.. http://instagram.com/p/zXhHf0Bk1l/ 0.1428571
hotel nyarap." 0.1111111
hotel layaknye 0.2000000
hotel dêngêrnyah 1.0000000
hotel laen. 0.1250000
hotel eluh" 0.2500000
hotel NULL 0.0007295
hotel Kureng 0.5000000
hotel Sumur. 0.1428571
hotel sêlimutnyah 0.1250000
hotel bakalkamar 1.0000000
hotel pêsawahan 1.0000000
hotel "ac 0.2000000
hotel sepah 0.2500000
hotel dinaekkin.." 0.1666667
skrg" puncak 1.0000000
olahan. same. 0.2000000
harusny disiapin... 0.2500000
melomponggggg #LYFE" 0.1428571
melomponggggg bawa 0.1111111
melomponggggg mobil, 0.5000000
dan... https://path.com/p/2yHp3I 0.2500000
http://bit.ly/182IdRx terjage 0.1666667
pengharum merasa 1.0000000
pengharum bodo" 0.3333333
pengharum ngeri, 1.0000000
pengharum ambruk, 1.0000000
Mungkin lah, 0.1428571
Mungkin puas 0.1000000
Mungkin NULL 0.0003192
Mungkin didantainnye. 1.0000000
Mungkin suseh 0.0588235
kerbaushit-nya.. NULL 0.0000456
plan gacoannyè-wadon 1.0000000
berbicara bener 0.0136986
berbicara NULL 0.0000456
:')? seneng. 0.2000000
:')? kerasan 0.0416667
:')? Pake 0.1111111
:')? nyengir, 0.5000000
:')? nerima 1.0000000
:')? saling 0.0476190
:')? milikin." 0.2000000
:')? ngebuat 0.1111111
:')? ame 0.0031447
terkena bengal 0.2500000
terkena banyak 0.0111111
karen "pangkengnye 0.2500000
karen masih 0.0158730
karen dibersiin, 0.1666667
karen kudu 0.0076923
karen NULL 0.0000456
bukaan adem 0.0270270
Four NULL 0.0000456
piring. sekarang" 0.1666667
sih.." "Dari 0.2000000
#TheElyXiOn_dot makasih 0.0909091
#TheElyXiOn_dot tahun 1.0000000
#TheElyXiOn_dot selame 0.0526316
#TheElyXiOn_dot nemenin 0.3333333
#TheElyXiOn_dot udeh 0.0044444
#TheElyXiOn_dot Cinte 0.0555556
#TheElyXiOn_dot Aye 0.0153846
yayank "Inih 1.0000000
:"""") Cangklik 0.5000000
:"""") di 0.0016000
:"""") http://bit.ly/18a2SDc 0.3333333
:"""") korban 0.3333333
:"""") tenggelem 0.5000000
bom, dukè 0.1250000
bom, dari 0.0051813
bom, NULL 0.0000456
bom, ranèh 1.0000000
bom, datêng 0.1111111
Ezechiel NULL 0.0000456
mampu, tanpè 0.2500000
bongkarin, NULL 0.0000456
temenku NULL 0.0000456
temenku "[USERNAME] 0.0138889
kesumbat Anti 0.1111111
via: #fb" 0.1666667
via: setiap 0.1111111
mobil,kdang pegih 0.2500000
mobil,kdang masjid. 1.0000000
mobil,kdang Atu 0.3333333
mobil,kdang paling 0.0238095
mobil,kdang depan. 0.5000000
mobil,kdang Safnye 1.0000000
mobil,kdang ari, 0.2000000
mobil,kdang die 0.0070423
"Ati2 "ruangan 0.3333333
bulan. ente 0.0769231
mengomel, kejelasan 1.0000000
"Muka "Kalu 0.2500000
Rumah NULL 0.0000456
Rumah "(Calon) 0.2500000
Rumah jamban. 0.1111111
"Beberapa kaga 0.0046948
"Beberapa sesuei 0.0909091
"Beberapa "Penginepan 0.2000000
lah kolah. 0.2500000
lah lah 0.0714286
lah intinye" 0.1250000
lah NULL 0.0009119
lah @PrillyBie 0.1666667
lah Bujug 0.5000000
lah http://bit.ly/1zkUE2p" 0.1428571
lah bantal." 0.2500000
lah #PDIP 1.0000000
lah Salibu 0.2000000
PELAYANAN di 0.0016000
http://goo.gl/fb/GfqTC0 http://instagram.com/p/zWM8zEusc2/ 0.3333333
http://goo.gl/fb/GfqTC0 ??#raffiahmad? 0.1666667
http://goo.gl/fb/GfqTC0 ariannye 1.0000000
http://goo.gl/fb/GfqTC0 enyak 0.0666667
keluar keluar 0.0833333
keluar Kemaren 1.0000000
keluar ngebon, 1.0000000
keluar bêrbagi 0.5000000
keluar kuotanye" 0.2000000
keluar NULL 0.0005927
keluar "Pelayanan 0.1428571
keluar orang 0.0051813
keluar mendidik 1.0000000
keluar nunjukin 0.5000000
worst Setoran" 0.2000000
worst http://bit.ly/1vR1Ock 0.1250000
hatinya.. NULL 0.0000456
http://republika.co.id/r/nkf9sy terseksa 0.5000000
http://republika.co.id/r/nkf9sy Kejem 1.0000000
http://republika.co.id/r/nkf9sy :'( 0.2500000
http://republika.co.id/r/nkf9sy " 0.0064103
kga pengen 0.0178571
ngecek ape? 0.2000000
berbulan-bulan kaga 0.0093897
berbulan-bulan berbulan-bulan 0.3333333
berbulan-bulan berbau 1.0000000
berbulan-bulan sedep. 0.3333333
berbulan-bulan Sumur 0.2000000
berbulan-bulan dibersiin. 1.0000000
dijakarta ngobak 0.3333333
Siaran NULL 0.0000456
ka NULL 0.0000456
ka ngodeinnye. 0.1111111
ka Abdul 0.1428571
sesuatu NULL 0.0004104
sesuatu pesawat 0.1111111
sesuatu sesuatu 0.1111111
sesuatu Mangkanye 0.1250000
prabocor NULL 0.0000456
prabocor terlebih 0.5000000
prabocor biaye 0.5000000
rebus NULL 0.0000456
'delete' pembuktian 1.0000000
'delete' bbijaksane 0.2500000
lantai brisik" 0.1428571
lantai "yaèlah 0.1111111
lantai kêkurangan 0.1428571
lantai Matenye.Udeh 1.0000000
lantai NULL 0.0006839
lantai palayanan 1.0000000
lantai dalêmnyè 1.0000000
lantai berpaedah)""" 0.1111111
lantai #wadonpêrtamèIndonèsia" 0.1428571
mengkambing kagak 0.0013755
kunantikan. NULL 0.0000456
vela Cucu 0.2000000
Negatif: buat 0.0041494
http://dlvr.it/8dzbWm begantung 0.2500000
diciptakan gêpyak-gêpyak. 0.2500000
Have NULL 0.0000456
Saran Bukti 0.5000000
booking NULL 0.0001824
booking INI. 1.0000000
Bersih NULL 0.0000456
dibis #ngaji 0.1666667
gatot NULL 0.0000456
menutupi Montana, 0.1111111
http://goo.gl/fb/02Ylro Pendek 1.0000000
http://goo.gl/fb/02Ylro Diskon 0.1111111
http://goo.gl/fb/02Ylro [Nasional] 0.1250000
http://goo.gl/fb/02Ylro htttp://gpon.co/cfkxf 0.5000000
http://goo.gl/fb/02Ylro Celane 1.0000000
http://goo.gl/fb/02Ylro - 0.0142857
http://goo.gl/fb/02Ylro Rp 0.0909091
http://goo.gl/fb/02Ylro Tibang 0.0434783
http://goo.gl/fb/02Ylro Pria 1.0000000
""Iya, NULL 0.0000456
maka ngasih 0.0416667
maka gituu" 0.1666667
maka lakuin 0.1666667
maka seksi 0.2000000
maka NULL 0.0002736
maka yang 0.0033557
sial, sinetron 0.3333333
sial, vol 1.0000000
sial, sctv-rcti 0.1428571
sial, tinggi 0.2500000
darahnya NULL 0.0000456
Perjuangan? korban" 0.3333333
kek NULL 0.0004560
kek kayaknye 0.0666667
kek kayak 0.0147059
Keras NULL 0.0000456
LESS kelietan 0.1250000
Tuhan""""." jaga 1.0000000
Tuhan""""." siape? 0.5000000
Tuhan""""." ye? 0.0833333
Tuhan""""." Tuhan””." 0.1666667
Tuhan""""." die 0.0070423
Tuhan""""." Bareng 0.5000000
kekasih NULL 0.0000456
bising, PRILAKU 1.0000000
itu.....giliran temen 0.0294118
captionnya Para 0.2500000
BERTAHAN NULL 0.0000456
"Pemimpin Ênih 0.1666667
bukannya NULL 0.0001368
bukannya belajar 0.0909091
memberiku http://bit.ly/1vSfEuU 0.1250000
memberiku NULL 0.0000456
aman, NULL 0.0000456
ramah2. panten 1.0000000
kejadian NULL 0.0000456
kejadian #LDRkronis" 0.2000000
kejadian ye 0.0204082
cowok, Kidul 0.3333333
raga? NULL 0.0000456
menolong, "Ade 0.1250000
lagu nuang 0.1666667
lagu mana 0.0909091
lagu kalu 0.0263158
lagu Bali 0.1428571
lagu NULL 0.0004560
Syahrini.Suka kagak 0.0013755
kurang... Bukan 0.1666667
idol, yang 0.0033557
ngangkat kite 0.0067568
ngangkat Diemnye 1.0000000
management ada 0.0055866
management nyarap." 0.1111111
management kagak 0.0013755
smua NULL 0.0001368
smua biar 0.0357143
menurut NULL 0.0000912
menurut wadon, 0.1000000
menurut (lagi) 0.3333333
menurut pan" 0.2000000
menurut Paytren 0.2500000
*gak NULL 0.0000456
anti-islam? NULL 0.0000456
fix ajer, 0.1428571
fix ngimpi 0.5000000
fix pangkeng 0.0117647
fix "semacem 1.0000000
fix kaku, 0.3333333
fix kagsk 1.0000000
fix Resepsionis 1.0000000
fix terlalu 0.1428571
fix buruk. 1.0000000
Berag." Bam... 0.1250000
Berag." http://bit.ly/1Lp73ZP" 0.1666667
Berag." Praksi 1.0000000
Berag." Golkar, 0.5000000
Berag." DPR 0.1000000
Kota rêncana 0.1111111
Kota udeh 0.0044444
Kota berhasil. 1.0000000
Kota formulir 0.2000000
Kota NULL 0.0000912
Kota sebelon 0.1428571
Kota ngirim 0.0714286
Kota sedikit, 0.2500000
sayangkan NULL 0.0000456
Jejak Rekam 0.2500000
ka, NULL 0.0000456
tampilan WEST 0.1666667
tampilan pernah 0.0200000
tampilan belon 0.0526316
tampilan ngejanjiin. 1.0000000
tampilan keliatan 0.1111111
tampilan WILD 0.5000000
tampilan tampilan 0.5000000
loe NULL 0.0002280
selimut, molor, 0.2500000
selimut, cume 0.0344828
selimut, kaen 0.2500000
selimut, duitnye 0.1666667
selimut, ade 0.0105263
selimut, NULL 0.0000456
selimut, buat 0.0041494
'blusukan' ngêmêrcayèin 0.5000000
kubuat [USERNAME] 0.0032787
tablet+vitamin NULL 0.0000456
"Sungguh "Beneran 0.2500000
"Sungguh BEJAD 1.0000000
"Sungguh Anggote 0.2500000
"Sungguh DPR, 1.0000000
"Sungguh banget...!! 1.0000000
deh... terus. 0.3333333
deh... nerobos 0.5000000
"Positif: nitip 0.5000000
Viral juga. 1.0000000
Viral NULL 0.0000456
marah2 NULL 0.0000456
sini. doang 0.1428571
sini. tibang 0.0089286
sini. Manajemen 1.0000000
sini. NULL 0.0001368
daftarnya domba.. 0.1428571
konsen, Air 0.2500000
konsen, seari, 1.0000000
konsen, penumpang 0.2500000
konsen, pesawat 0.1111111
konsen, """"kejeda"""" 1.0000000
konsen, pindah 0.1666667
konsen, Lion 0.2500000
bayangmu yang 0.0033557
Terimalah sêlamêt 0.2500000
den" bocor, 0.3333333
den" kurang 0.0084034
den" resik" 0.1666667
den" pangkeng 0.0117647
den" rusak, 0.1428571
den" westapel 0.3333333
den" keran 0.5000000
den" "AC 0.1250000
BL http://brt.st/4toD 0.1250000
wanna one 0.2500000
wanna anggotanye 0.2500000
nyamuk.kamar NULL 0.0000456
pikirkan, NULL 0.0000456
[C48] ngulang 0.3333333
[C48] rasenye 0.2000000
[C48] aye 0.0019960
[C48] "pingin 0.2000000
Pada NULL 0.0000456
penanggung NULL 0.0000456
sukanya jadi 0.0052083
sukanya di 0.0016000
layaknya NULL 0.0000456
layaknya layaknye 0.2000000
ktika lumayan..mikir-mikir 0.1428571
ktika asian,pangkeng 1.0000000
ktika ènzim 0.1250000
channel NULL 0.0002280
channel sêmuah 0.1428571
channel muke 0.0625000
channel ituh 0.0222222
channel disukain 1.0000000
drpd kêrawat 0.1666667
drpd NULL 0.0000456
drpd beberape 0.0454545
drpd idep, 0.2500000
drpd nama 0.5000000
http://ift.tt/1FFrIIH https://path.com/p/3tZQWR 0.2500000
sngt guah 0.0085470
sngt NULL 0.0000456
Lumajang, senyum 1.0000000
Klu Kalo 0.0243902
berteman NULL 0.0000456
komputer, pantes 0.1111111
muslim NULL 0.0000456
muslim "#KabarAnget: 1.0000000
puas,trima Bang 0.1250000
puas,trima @mariokacang 1.0000000
puas,trima io"""" 1.0000000
puas,trima apgan." 0.2000000
puas,trima mirip 0.1250000
puas,trima @@GintangNisyam_F: 1.0000000
puas,trima Mpok 0.1111111
menjanjikan. WEST 0.1666667
http://bit.ly/1LHiWZf bener-bener 0.0588235
http://bit.ly/1LHiWZf pangen 0.1111111
http://bit.ly/1LHiWZf sih 0.0147059
http://bit.ly/1LHiWZf juge 0.0074074
http://bit.ly/1LHiWZf bebacotan 0.3333333
empati. makse 0.3333333
#travelling buat 0.0041494
supir. PDIP, 1.0000000
abisnya Bang 0.1250000
bersamakuu tanggal 0.1428571
tabungin(:" Kèk 1.0000000
tabungin(:" THT 0.3333333
tabungin(:" Disèntêrin, 1.0000000
tabungin(:" Êluh 0.2000000
tabungin(:" Baè" 0.2000000
tabungin(:" Doktêr 1.0000000
3,5 lama 0.0714286
3,5 pitik. 1.0000000
showerpun ""iye"", 0.1111111
solat tiap 0.0769231
solat dari 0.0051813
solat ari 0.0156250
solat tapi 0.0035211
solat ...." 0.3333333
solat NULL 0.0001368
solat kantor 0.0232558
nervous Kagatenang 0.2000000
nyerang NULL 0.0000456
temen-temen NULL 0.0000912
hektar, NULL 0.0000456
okay.."""" Bêpêngaruh 0.3333333
membuktikan udeh 0.0044444
Prabowo NULL 0.0000456
#infosekitarkudus syar'i, 1.0000000
#infosekitarkudus Encang 0.1000000
#infosekitarkudus Tapi 0.0153846
#infosekitarkudus Secare 0.3333333
#infosekitarkudus kapir. 1.0000000
#infosekitarkudus Nun 1.0000000
#infosekitarkudus Allah. 0.1111111
#infosekitarkudus die 0.0070423
cintaku NULL 0.0000456
rela. Babeh 0.0714286
rela. poto 0.0294118
rela. ngunggah 1.0000000
rela. ketue 0.3333333
rela. pengen 0.0178571
rela. (omong-omong 1.0000000
Sadis NULL 0.0000456
Sadis @SarahSechan_NET 0.1428571
Sadis nyate 0.0909091
Sadis Surya)" 0.1428571
Sadis tearah 0.1111111
Sadis apekah? 0.1666667
Sadis [USERNAME] 0.0032787
Sadis tutupnyah" 0.1111111
ketauan NULL 0.0000456
ketauan http://bit.ly/1zkUE2p" 0.1428571
Rendang Êmpêt 1.0000000
(2018) ampe 0.0107527
"Siapakah "Ade 0.1250000
cma Tolong 0.0833333
dkshnya Yahya 0.5000000
dkshnya Tantowi 1.0000000
?? ngêgêntak, 1.0000000
?? http://instagram.com/p/zT2KmhAx_4" 0.2000000
?? NULL 0.0002736
?? "00:11 0.2500000
?? tapi 0.0035211
?? "Akhirnye, 0.2000000
korbannya.mohon make 0.0322581
noda,ni NULL 0.0000456
dicariin orang 0.0051813
"Sprei Aneh, 0.1000000
"Sprei Menkumham 0.2000000
"Sprei "#Beritengedadak: 0.1111111
"Sprei Ngapa 0.3333333
tegar NULL 0.0000456
cucp siswe. 0.1111111
vertikal kasus 0.1666667
Kendaraan nanya 0.1428571
@PDemokrat diri 0.0333333
@PDemokrat Peri) 0.2500000
@PDemokrat bisè 0.0434783
@PDemokrat nêmpo 0.2000000
aka NULL 0.0000456
Tingkatkan pangen 0.1111111
lansung NULL 0.0000456
Maling kê 0.0188679
Maling "Kalu 0.2500000
Maling pêrjalanan 0.2500000
Maling rêncana 0.1111111
bagi NULL 0.0004560
bagi Namè)" 0.1250000
bagi panas 0.0357143
bagi Delok 1.0000000
bagi 'blukusan'.#JokowiSekaliLagi" 0.1666667
bagi nyang 0.0014577
hadapan NULL 0.0000456
Takkusangka NULL 0.0000456
ketemunya #TheElyXiOn_dot 0.1428571
penurunan. #TapsirMimpi" 0.3333333
nabrak ngebusuk 1.0000000
nabrak elu 0.0059172
nabrak terhormat 0.1666667
nabrak minggat 0.0588235
nabrak ? 0.0136054
nabrak mantan 0.1250000
nabrak sono 0.0666667
memilihku. NULL 0.0000456
sendiri2 "Searoh 1.0000000
Kecam kêcêlakaan 0.2000000
"Untukumu Tapi 0.0153846
saling napsunyè 0.2000000
saling ......ye.... 0.4000000
saling sayang-sayangnye" 0.1111111
saling NULL 0.0005471
saling eni?" 1.0000000
saling nyang 0.0014577
pour "Rumor 0.1428571
pour kayak 0.0147059
pour êni 0.0400000
segede "#Aquarius 0.1250000
"Ciptaanmu [USERNAME] 0.0032787
Teroris." ngedukung 0.3333333
Teroris." ituh 0.0222222
Teroris." Teroris." 0.2500000
Teroris." 88. 1.0000000
Teroris." Selaen 1.0000000
Ayokayok Dukung 0.3333333
Ayokayok Dompet 0.3333333
Ayokayok Program 1.0000000
Ayokayok Jeneponto 1.0000000
Ayokayok Dhuafa 1.0000000
Ayokayok Bupati 0.5000000
Ayokayok Ekonomi 1.0000000
Ayokayok http://bit.ly/1wis6Kj 0.5000000
issue Al-Qur'an 1.0000000
issue DAN 0.1666667
issue ayat 0.3333333
issue hadis 0.3333333
issue & 0.0181818
issue bêrbagi-bagi 1.0000000
trainee NULL 0.0000456
habis, ama 0.0036900
habis, listrik 0.1250000
habis, pangkeng 0.0117647
habis, karne 0.0129870
habis, kudu 0.0076923
habis, kebangun 1.0000000
habis, token 1.0000000
habis, abis, 0.2500000
gadis di 0.0016000
gadis NULL 0.0000456
toilet, haha 0.1250000
toilet, NULL 0.0001368
kegiatan dimarih 0.1250000
kegiatan NULL 0.0000912
cowok. NULL 0.0000456
@nogoyoso: ruangan 0.0526316
@nogoyoso: Ade 0.0416667
@nogoyoso: beberape 0.0454545
lagi #Puncak212" 0.1250000
lagi Ngapus 1.0000000
lagi nyariin 0.1428571
lagi percaye 0.1250000
lagi ada 0.0055866
lagi Livable" 0.1666667
lagi dèwèk<3 0.1111111
lagi http://bit.ly/1vR9b3m 0.2000000
lagi nyengir 0.1428571
lagi diprotes? 0.2500000
lagi gorèng 0.1000000
lagi ajer 0.0344828
lagi rêsik" 0.2000000
lagi Name 0.1428571
lagi pikir 0.2000000
lagi tong 0.0909091
lagi namanye 0.2500000
lagi cokêlat 0.1428571
lagi die 0.0070423
lagi andukin 1.0000000
lagi lietnye 0.1111111
lagi meja 0.1111111
lagi " 0.0064103
lagi mandi. 0.1666667
lagi https://path.com/p/47C75r 0.2857143
lagi #inpoRI 0.1428571
lagi Australia 0.0909091
lagi di 0.0048000
lagi penjagenye 0.3333333
lagi ujan" 0.2500000
lagi radikal 0.2000000
lagi masukan 0.3333333
lagi geser 0.3333333
lagi "Astagfirullah, 0.2500000
lagi Badrodin, 0.1250000
lagi isinyah 0.5000000
lagi Tuker 0.1666667
lagi dilecehin." 0.2500000
lagi bêwarna 0.5000000
lagi kuotanye" 0.2000000
lagi yang 0.0100671
lagi NULL 0.0035109
lagi Nemu 0.1666667
Jauhkan banget." 0.1250000
orderan ampe 0.0107527
orderan blanjean 1.0000000
orderan Inih 0.5000000
orderan langganan 0.1111111
orderan kaga 0.0046948
orderan NULL 0.0000456
gimana? NULL 0.0000912
gimana? kerudung, 0.5000000
ENAK NULL 0.0000456
ENAK Februari 0.1250000
ENAK http://youtu.be/7nZLBtxbt7g?a" 0.5000000
tuaku NULL 0.0000456
tida sukmanyah 0.5000000
tida gè 0.0322581
tida ati 0.0169492
tida kê 0.0188679
tida Sêhingga 1.0000000
tida apah 0.0769231
tida guah. 0.2000000
tida niupin 1.0000000
#banggamengawalmu d" 0.1666667
#banggamengawalmu menginep 0.2500000
#banggamengawalmu pernah 0.0200000
terus-menerus). adem" 0.1428571
hewan NULL 0.0000456
hewan dari 0.0051813
Cakap NULL 0.0000456
"mantap, "Pelayanan 0.1428571
"mantap, NULL 0.0000456
kepala NULL 0.0000456
kepala betanduk 1.0000000
Solusi kaga 0.0046948
Solusi kutu 0.1250000
Solusi adem" 0.1428571
Solusi sekali 0.0666667
sebentar NULL 0.0001368
Badan Ngêlongok 0.3333333
tempel, benêr 1.0000000
besar,tp NULL 0.0000456
sex. NULL 0.0000456
habis" ye 0.0102041
habis" lebay 0.2222222
habis" -_- 0.1250000
habis" lu 0.0103093
habis" sih 0.0147059
"Nemuin Masa 0.5000000
"Nemuin ntu 0.0048544
"Nemuin akhirnye... 0.1250000
"Nemuin "Dan 0.2500000
benahin maap. 0.1428571
sdh mimpin.soalnye 0.3333333
sdh udeh 0.0088889
sdh sêkola 0.0500000
sdh NULL 0.0007295
sdh lebay 0.1111111
sdh alepan. 1.0000000
sdh Rakyat 0.0833333
sdh sangka 1.0000000
sdh Ahmad 0.0833333
sdh Halte, 0.2000000
sdh perlakuan 1.0000000
pelaku2 aye 0.0019960
golput sekalian, 1.0000000
golput Pancasila 1.0000000
golput ntar 0.1000000
golput aje 0.0061350
golput golput 0.3333333
piye https://path.com/p/1g2xgZ" 0.1428571
AL poto 0.0294118
Imlek NULL 0.0000456
Imlek kertas 0.5000000
jantung, NULL 0.0000456
museum NULL 0.0000456
hm, NULL 0.0000456
Trisakti, ntu 0.0097087
Trisakti, nyabet 1.0000000
susah, NULL 0.0000456
keberkahan ngeri 0.0666667
Lampung #Psikologi 0.1428571
Lampung NULL 0.0000456
anda berotak 0.2500000
anda sampi 0.1666667
anda bise 0.0059880
anda telepon 0.3333333
anda komplen 0.2000000
anda ngerasa 0.1111111
anda NULL 0.0008663
anda diperkose? 1.0000000
petjun2 waktunye 0.2500000
petjun2 nyediein 0.5000000
petjun2 udeh 0.0044444
gerbang ayè.. 1.0000000
gerbang NULL 0.0001368
ledakan lokasinye 0.2500000
http://fb.me/1BvR2WkqB nyarapnye 0.3333333
http://fb.me/1BvR2WkqB banget" 0.2000000
http://fb.me/1BvR2WkqB kagak 0.0013755
http://fb.me/1BvR2WkqB panasnye 0.0476190
http://fb.me/1BvR2WkqB "aer 0.2500000
http://fb.me/1BvR2WkqB seuprit 0.5000000
http://fb.me/1BvR2WkqB idup, 0.2000000
Halloween NULL 0.0000456
"Selagi kagak 0.0013755
Doakn darah,, 1.0000000
berdua. aye 0.0019960
berdua. pengen 0.0178571
berdua. denger." 0.1666667
AiRmAtA.sY beranak 1.0000000
BODO Desa 1.0000000
BODO Konstruksi 0.2500000
menggarap NULL 0.0000456
djaga NULL 0.0000456
kambing NULL 0.0000456
anu, peraturan 1.0000000
anu, pemerintah 0.5000000
anu, ToC. 1.0000000
sopan." ama 0.0036900
hangat..." 20% 0.5000000
hangat..." diskon 0.2000000
hangat..." make 0.0322581
hangat..." promo 0.2000000
hangat..." di 0.0016000
hangat..." Executives 0.3333333
hangat..." http://ow.ly/JmryC 0.1666667
hangat..." The 0.2500000
ideal NULL 0.0000456
bisanya NULL 0.0000456
sgtu salah 0.0833333
sgtu keuntungan, 1.0000000
sgtu atunye 0.2500000
sgtu nambah 0.1250000
sgtu siswe. 0.1111111
sgtu pinter 0.1000000
sgtu ngasih 0.0208333
pusat..saya NULL 0.0000456
closet Démokrat 0.2000000
berkarat, barangnye 0.5000000
editing. NULL 0.0000456
gt. sejaman. 0.2000000
gt. http://bit.ly/18c9ocw" 1.0000000
gt. "Setelah 0.5000000
gt. :((((( 0.1428571
koreanya #ARB 0.0769231
Hawa-hawanya NULL 0.0000456
"nggak Beli 0.2000000
wara-wiri NULL 0.0000456
Calon tipê 1.0000000
Calon aye 0.0019960
Calon NULL 0.0000456
Calon merad." 0.2000000
bacain NULL 0.0000456
"Raffi "Pangkengnye 0.3333333
benar-benar meluk" 0.5000000
benar-benar ruangan 0.0526316
benar-benar Novita 1.0000000
benar-benar pèngèn 0.1250000
benar-benar NULL 0.0000912
benar-benar bahagiè 0.5000000
benar-benar http://goo.gl/VUXs9j 0.3333333
Streaming nyebarinnye 1.0000000
Streaming kembali. 0.3333333
dst.... sih. 0.1000000
lelaku NULL 0.0000912
#Malang" #savejalanraye 0.1666667
#Malang" #kotamalang 1.0000000
#Malang" #Malang" 0.2500000
par... kobangan 1.0000000
par... keruh.! 0.3333333
kuning2 lega 0.1250000
kedap kedengeran." 0.1666667
kedap pêrnah 0.0769231
mamake ênyak 0.5000000
mbak?" Chexoz) 1.0000000
mbak?" ? 0.0068027
mbak?" https://path.com/p/1g2xgZ" 0.1428571
busy , 0.0227273
mangut, NULL 0.0000456
cintaaaaaa http://kom.ps/AFploc 0.0769231
Dikriminalisasi Pas 0.0454545
Dikriminalisasi Jokowi 0.0303030
Dikriminalisasi Gede 1.0000000
Dikriminalisasi Milih 1.0000000
Dikriminalisasi #PojokAtu 0.1428571
#PERSIBDAY NULL 0.0000456
BeritaSatu 6-7 1.0000000
"Secara kenangan 0.5000000
"Secara Seandenye 0.2000000
"Secara ntu 0.0048544
"Waallahu tatap 0.5000000
Naik NULL 0.0000456
Naik woy. 0.2500000
Tertekan, Dipilih 0.1428571
@Pr1ncesSyahrini hape-elu! 0.2000000
@Pr1ncesSyahrini di 0.0016000
@Pr1ncesSyahrini #fiestapoinapps 0.5000000
Airyrooms.. WKWKWKW 0.2500000
Airyrooms.. TEN 1.0000000
Airyrooms.. SINI 0.5000000
Airyrooms.. MAJU 1.0000000
Airyrooms.. TULANGNYE 1.0000000
2018" tibè-tibè 1.0000000
aing. begituh 0.1250000
"di genggeman 0.5000000
otewe? make 0.0322581
otewe? wangi 0.2500000
otewe? pakean 0.0500000
otewe? paporit, 1.0000000
otewe? mandi, 0.2500000
otewe? http://instagram.com/p/zXMKb3iM3k/" 0.3333333
help NULL 0.0000456
alat KENYATEAN." 0.1111111
alat NULL 0.0000456
lenyap NULL 0.0000456
@fionafachru_ Malah 0.3333333
@fionafachru_ Aneh, 0.1000000
@fionafachru_ Jokowi 0.0303030
@fionafachru_ dari 0.0051813
@fionafachru_ Interpelasi 0.1111111
@fionafachru_ Gosip 1.0000000
@fionafachru_ Berembus 1.0000000
Pertengahan NULL 0.0000456
https://path.com/p/3tZQWR Bandung) 0.1666667
https://path.com/p/3tZQWR https://path.com/p/4lfiQe 0.5000000
https://path.com/p/3tZQWR ? 0.0068027
https://path.com/p/3tZQWR Maskumambang 0.5000000
https://path.com/p/3tZQWR Jalan 0.2000000
doang"" rèsèpsionisnyah 1.0000000
Perampok NULL 0.0000456
Refinery menj... 0.2500000
Refinery udeh 0.0044444
Refinery lame 0.1111111
Refinery sebenernye 0.0714286
Refinery Lena 1.0000000
Refinery http://bit.ly/1LUZrN7 0.1666667
Refinery dijalanin 1.0000000
Refinery ntu 0.0048544
putus. ngebikin 0.0909091
diganti "#Beritengedadak: 0.1111111
diganti NULL 0.0001368
diganti kudu 0.0076923
diganti semuanye..wifi..ac 0.3333333
diganti keresikannye 0.2000000
kangen-kangenan, siramannye 1.0000000
mereput minder... 0.1250000
Yeayy. sis 0.1000000
twitter pelatian 1.0000000
twitter kek 0.0256410
twitter http://dlvr.it/8mTxl3 0.4000000
twitter gue 0.0106383
twitter NULL 0.0001368
coc têrus 0.0500000
pembahasan NULL 0.0000456
#kapanmarineeeeeeeeyaAllah" bukan 0.0131579
Ruangan Ruangan 1.0000000
oat ora 0.0083333
dilecehkan NULL 0.0000456
Sampailah semue 0.0196078
Sampailah (di 0.1428571
Sampailah Pondok 0.1428571
Sampailah :3 0.2500000
Sampailah bayar 0.1111111
Effect minggat? 0.3333333
Effect kerajaannye. 0.1000000
ma, NULL 0.0000456
secara persaingan. 1.0000000
secara semue 0.0196078
secara NULL 0.0001824
secara wajar 0.1666667
secara http://brt.st/4toD 0.1250000
secara -_- 0.1250000
secara têrbatês." 1.0000000
pancasila " 0.0064103
Pakaian baek, 0.1428571
Pakaian kureng 0.0227273
Pakaian bantalnye 0.5000000
Pakaian "Tempatnye 0.1428571
lainnya NULL 0.0001824
lainnya mending 0.1428571
lainnya CEPET 0.2000000
lainnya Karne 0.0833333
@smartekselensia! NULL 0.0000456
demam satpam 0.1111111
sahur, sedikit 0.0625000
sahur, NULL 0.0000456
menginspirasi NULL 0.0000912
laksanakan.. kênal 0.1250000
mbk NULL 0.0000456
dilancarkan VIDEO 1.0000000
dilancarkan NULL 0.0000456
jadinya Sêbut 0.1428571
jadinya girang, 0.1111111
jadinya 'penunggu 0.1250000
jadinya #Kapanlagih 1.0000000
jadinya nyiksa 0.3333333
jadinya NULL 0.0000912
telkom NULL 0.0000456
MEMBERI NULL 0.0000456
pasti, NULL 0.0000456
Shinhwa. Ntu 0.1111111
Shinhwa. wkwk 0.0588235
Shinhwa. xD. 0.1428571
Shinhwa. mulu. 0.2500000
Shinhwa. pengen 0.0178571
Shinhwa. joget 0.3333333
Shinhwa. Shinhwa 1.0000000
Shinhwa. Bikin 0.1428571
terlebih lietnye 0.1111111
terlebih jadi 0.0052083
terlebih kucrit 0.3333333
terlebih NULL 0.0001368
halusnya NULL 0.0000456
bertanggung NULL 0.0000456
BANGGANYA gayêman 0.0555556
nyaman, NULL 0.0002280
nyaman, gue 0.0106383
nyaman, sebenernye 0.0714286
mencantumkan #NETwaze 0.2500000
AJA NULL 0.0000456
menghilang bênêr 0.1250000
menghilang NULL 0.0000456
geng ngêcèwain... 0.1666667
hadiah NULL 0.0001368
hadiah ""Ngeri 1.0000000
menaikkan "bau 0.2000000
Silahkan dilakuin, 1.0000000
game NULL 0.0000456
game jambannyè 0.5000000
game bêlon 0.0666667
game gunain 0.5000000
molor, Afgan: 1.0000000
"EGP http://bit.ly/1F79hJ9" 0.1428571
lolos CPNS?" 0.1428571
lolos kuliah, 0.1428571
jdnya iseng 0.0476190
jdnya dapur 0.1428571
jdnya ke 0.0070922
""""Senakal-nakalnya NULL 0.0000456
temennya. temennye. 1.0000000
temennya. hp 0.5000000
temennya. minjem 0.3333333
temennya. """"kabar"""", 0.1666667
Radar NULL 0.0000456
berlemak NULL 0.0000456
kaka NULL 0.0000456
kaka kuru 0.2500000
kaka http://dlvr.it/8f0wG0 0.1250000
Helloowww NULL 0.0000456
aktif NULL 0.0000456
disertai -TAMAT-" 0.2500000
disertai NULL 0.0000456
disertai Maké 0.2000000
sela. Hafid 1.0000000
divonis "Gebleg 0.3333333
lift kêlêpêk"" 0.2500000
lift NULL 0.0001368
lift lip 0.1666667
lift "pelayan 0.2000000
Kerja "Wayah 0.2000000
engga." Pulse 0.5000000
engga." Beli 0.2000000
engga." Pas 0.0454545
MP3EI #BlusukanDunieMaye" 0.2000000
bakwan NULL 0.0000456
.... NULL 0.0002736
.... ayè 0.0085470
.... kudungan." 0.2500000
BANGET NULL 0.0000912
menangis, jeba... 0.1000000
dosa gawe 0.0555556
dosa NULL 0.0001824
#pucuk d" 0.1666667
ahmad, negeri." 0.1428571
kecapean cume 0.0344828
ma http://dlvr.it/8mdY2Z 0.1428571
kebelakang NULL 0.0000456
kenyataan NULL 0.0000456
kenyataan rasè 0.5000000
DSAR http://instagram.com/p/zXcrjFvEL2/ 0.1111111
Wifinya kadang 0.0434783
Wifinya @Denshu: 1.0000000
Wifinya anget 0.0555556
Wifinya Aer 0.0714286
Wifinya idup 0.0200000
Wifinya "Entong 0.2500000
Wifinya kagak 0.0013755
seandainya NULL 0.0000456
seandainya orang..justru 1.0000000
Capek B.." 0.2500000
bolos nape 1.0000000
bolos NULL 0.0000456
bulan, mulie 0.2500000
bulan, NULL 0.0000456
terimalah jonjon 0.3333333
ajak kaye 0.0277778
ajak NULL 0.0000456
soundcheck, NULL 0.0000456
dingin, benci" 0.1666667
dingin, digunain. 1.0000000
dingin, penyelamat 0.2000000
dingin, ame 0.0031447
dingin, ngangkat 0.5000000
dingin, NULL 0.0005016
belinya sebelom 0.1250000
belinya skripsi 0.3333333
belinya wkwk." 1.0000000
belinya ngadepin 0.2500000
belinya rohani 0.1666667
mendapat 1 0.0454545
mendapat NULL 0.0000912
"#Aquarius 021-7490932 0.2000000
terbuka. siap 0.0909091
terbuka. kêbukè. 0.5000000
terbuka. sêmêntarè. 1.0000000
terbuka. êni 0.0400000
terbuka. Kotak 0.6666667
duduk2 nyala. 0.2000000
duduk2 spy 0.1111111
duduk2 jagain 0.5000000
duduk2 supaye 0.0370370
duduk2 AC 0.0250000
duduk2 tetep 0.0263158
duduk2 karne 0.0129870
""""@shayanayusoff: bales 0.2000000
""""@shayanayusoff: malingnye 0.2500000
""""@shayanayusoff: aye 0.0019960
alesan NULL 0.0000912
cita-cita NULL 0.0000456
Program kesepian" 0.1250000
#maukerja wifi 0.0833333
#maukerja ame 0.0031447
#maukerja gerobog 0.1000000
#maukerja Kagak 0.0166667
#maukerja keresikan 0.0555556
#maukerja perabot. 1.0000000
#maukerja ada 0.0055866
tman2 NULL 0.0000456
buang nyincang 0.2000000
buang NULL 0.0000456
buang rêsik 0.0526316
jurnal Anis 0.1111111
jurnal mao 0.0075758
Kebersihan kejam 0.2000000
Kebersihan http://bit.ly/1F25MUw 0.5000000
Kebersihan NULL 0.0000912
Kebersihan dukung, 0.2500000
manggil dikonsumsi 1.0000000
gais. CINTE 0.1250000
tercium bikinnye 0.2000000
tercium segampil 0.1428571
daging basa-basi 0.2000000
lakukan Ulfah... 1.0000000
lakukan NULL 0.0000912
kontrolnya keresikan 0.0555556
nanti ngerubeh 0.1250000
nanti korban." 0.5000000
nanti pêrtanyaan 1.0000000
nanti Duit 0.5000000
nanti bakal 0.0147783
nanti kasian 1.0000000
nanti dikêmbaliin. 0.1666667
nanti NULL 0.0005471
nanti tuhan" 0.2000000
nanti perubahan 1.0000000
nanti pizzahut. 1.0000000
nanti jadi 0.0104167
#Trans7RumahUya2507 têtapi 1.0000000
#Trans7RumahUya2507 dirham." 0.2500000
#Trans7RumahUya2507 lêbih 0.0333333
#Trans7RumahUya2507 kagak 0.0013755
#Trans7RumahUya2507 hargènyè 1.0000000
gara2 Tolong 0.0833333
gara2 NULL 0.0000912
gara2 Ayè 0.0714286
jam2nya umroh-aji. 0.1250000
meningkat. :3 0.2500000
Bahas NULL 0.0000456
menumpuknya NULL 0.0000456
Kiya NULL 0.0000456
Kiya guah 0.0085470
kiamat,tetap kaen. 0.1666667
"wuih liburan 0.2500000
"wuih Kapan 1.0000000
"wuih "Heloo, 0.2500000
"wuih Liburan...Gawe 1.0000000
Keramiaan mao 0.0075758
Keramiaan NULL 0.0000456
keamanan harganye." 0.1428571
keamanan jugê 0.2000000
keamanan sekalian 0.5000000
keamanan NULL 0.0000456
berpaling sukmanyah 0.5000000
berpaling NULL 0.0000912
berpaling dalêm 0.0333333
yhaa.. gojeknye 0.2500000
fleksibel, atasannye 1.0000000
"Ngapain "[USERNAME] 0.0138889
didirikan NULL 0.0000456
didirikan lu 0.0103093
katanya NULL 0.0001368
katanya ngajarinnyah 1.0000000
katanya pênjêlasannyè 0.2500000
katanya asuransi 1.0000000
yaTuhan Jangankan 1.0000000
Marah JEJU 1.0000000
Marah LU 0.3333333
Marah ! 0.0500000
Marah cetakan 1.0000000
Marah DIEM 1.0000000
Marah KAGA 0.2000000
Marah DI 0.1250000
Marah AYE 0.0909091
Marah DEMEN 0.2500000
gereja.... ame 0.0031447
gereja.... langsung 0.0200000
gereja.... disaranin 1.0000000
gereja.... katanye 0.3333333
gereja.... cocok, 0.2000000
tkt kureng 0.0227273
mengharukan." "BENER 1.0000000
mengharukan." MIMPIN, 1.0000000
mengharukan." HATTA 1.0000000
mengharukan." RAJASE 0.5000000
mengharukan." APE 0.2000000
mengharukan." JIKE 1.0000000
Mengapa Salurannyè 0.1250000
Mengapa ngebangun? 0.2500000
Mengapa MACCA 0.3333333
Mengapa ketulusan, 0.3333333
Mengapa NULL 0.0001368
Mengapa "Yakin, 0.2000000
harga, Allah, 0.3333333
harga, tulung." 1.0000000
harga, ayè 0.0085470
harga, Kuatin 0.2500000
harga, "Ya 0.2000000
harga, pênêtnyè. 1.0000000
harga, ati 0.0169492
#beriGIZIcukup sih. 0.1000000
@DAlexandro. NULL 0.0000456
emmm kire-kire?" 0.2000000
dah brojol 0.2000000
dah https://path.com/p/6MzT8" 0.3333333
dah kantor 0.0232558
dah terdapet 1.0000000
dah adem, 0.0666667
dah juge. 0.0769231
dah Mahè 0.2857143
dah NULL 0.0005471
dah mosting 0.5000000
dah apè, 0.1111111
kaya Sisenye 1.0000000
kaya aje 0.0061350
kaya Kesonoin.. 1.0000000
kaya NULL 0.0006383
kaya yang 0.0033557
kaya syarat" 0.1250000
kaya meninggal.Semoge 0.2000000
kaya ngeliet 0.1666667
kaya enyaknye 0.5000000
kaya kebutuan... 0.1111111
kaya omgongan 0.3333333
kaya http://bit.ly/1vOCrrI 0.1111111
rokok." kita 0.1111111
rokok." dalêm 0.0333333
rokok." saban 0.0666667
rokok." [URL]" 0.0119048
rokok." kêbêrhasilan 1.0000000
rokok." #pêbisnismuda 0.1666667
rokok." mênuju 0.3333333
rokok." lèngkah 0.5000000
PENUH semuenye." 0.1250000
lah" NULL 0.0000456
lah" niei 1.0000000
lah" putusan 1.0000000
lah" http://antaranews.com/480952 0.2000000
lah" Demokrat 0.0555556
lah" presiden 0.0833333
lah" kepastian 0.3333333
lah" ngasih 0.0208333
Mbak NULL 0.0000456
kemren kenalan. 0.2000000
DEPOSIT" Pilkade 0.3333333
Bidang ngasih 0.0208333
Bidang terus 0.0384615
Bidang Aplikasi 0.2500000
Bidang NULL 0.0000456
Bidang nyang 0.0014577
ambil makelar 0.2000000
ambil nyang 0.0014577
ambil têlat 0.1666667
ambil NULL 0.0001368
nimbang "Mengape 1.0000000
"sprei NULL 0.0000456
"sprei pade" 0.2500000
in. NULL 0.0000456
ringan. kagak 0.0013755
hujan gede 0.0666667
hujan bagen 0.1000000
hujan kaga 0.0046948
hujan http://dlvr.it/8dNxRs 0.2500000
hujan pengennya 0.1666667
hujan "sepre 0.1666667
hujan ujan 0.3333333
mesti NULL 0.0001824
mesti ama 0.0036900
tmp NULL 0.0000456
puku ? 0.0068027
puku antep!! 0.1666667
puku Rencane 0.2500000
puku Makasih 0.1428571
puku ye! 0.2500000
pening Sengaja 1.0000000
Base gue. 0.5000000
perlu, bisa 0.0270270
perlu, bringsang. 1.0000000
perlu, diindarin. 0.1666667
perlu, ntu 0.0048544
perlu, 1. 0.1000000
perlu, Bekasi 0.3333333
Sedekahkan gêpyak." 0.1428571
cewe dan 0.0052356
cewe NULL 0.0002280
liftnya.. NULL 0.0000456
Jln NULL 0.0000456
kertas takut 0.1000000
kertas NULL 0.0000456
5 buat 0.0041494
5 berempat 0.1666667
5 "gile 0.1666667
5 suseh... 0.1250000
5 Cukup 0.2500000
5 http://dlvr.it/8fFx5Y 0.2000000
5 capè 0.1250000
5 Selesei 0.2500000
5 cemcemannye 1.0000000
5 jugekagak 0.1250000
5 NULL 0.0001368
@KiPranaLewu Interpelasi 0.1111111
ajah -upit" 0.1666667
thomasnya NULL 0.0000456
Malu NULL 0.0000456
tiba. NULL 0.0000456
Dah NULL 0.0000456
sedap2 NULL 0.0000456
isinya." medan" 0.3333333
isinya." masyarakat 0.1250000
Skrg #Puncak212" 0.1250000
Skrg NULL 0.0000456
kebodohannya hasil. 1.0000000
Jambi. Wah 0.3333333
videonya NULL 0.0000456
pesek ketiduran, 1.0000000
Tpi bahagièin 0.1666667
swt NULL 0.0000456
318 Juli" 0.5000000
dehhh sètan 1.0000000
belah bêlah 0.5000000
belah mêcah 1.0000000
belah orang 0.0051813
belah NULL 0.0000912
kuperbuat? mao 0.0075758
"Angket gegares 0.0212766
"Angket "Buke 0.2500000
"Angket mujigae 0.5000000
"Angket puase 0.1111111
dicari anjing 0.3333333
cakep Dilancarin? 1.0000000
cakep nyang 0.0014577
Pastikan sampi 0.1666667
alam..." eluh. 0.2500000
alam..." #ARMYSelcaDay 0.2500000
alam..." cinte 0.0196078
ukurannya NULL 0.0000456
Bubarkan #jalan-jaanertigamania 0.5000000
Bubarkan #halalbihalal2018 0.3333333
Bubarkan ngebangun 0.5000000
Bubarkan bangse 0.3333333
Bubarkan #ermanjawatimur 0.1250000
sis lampu 0.1250000
pagi. NULL 0.0000456
pagi. Di 0.0416667
melewati NULL 0.0000456
dagangan NULL 0.0000456
Sabtu (laki 0.1111111
rapet NULL 0.0000456
istirahat? cepet 0.0833333
menteri kudunye 0.1250000
PASANGAN UMUR. 0.3333333
operator NULL 0.0000456
kekesalan, sêlamè 0.5000000
fanatisme NULL 0.0000456
dipepet NULL 0.0000456
mengutamakan NULL 0.0000456
mengutamakan http://yasmin.or.id 0.1428571
PD NULL 0.0000456
jalaninnya kêluar.katènyè 0.2500000
Suami pas 0.0055866
Suami NULL 0.0000456
world Makasi" 0.2500000
world NULL 0.0000456
ujan NULL 0.0000456
Happy NULL 0.0001824
Happy "Banyak. 0.2000000
Happy yang 0.0067114
Happy paling 0.0238095
Happy perkawinan 0.2000000
Happy Seneng 1.0000000
diamankan!!" "Males 1.0000000
vol NULL 0.0000456
lelah NULL 0.0001368
lelah Kali 0.3333333
lelah ternilei 1.0000000
mencegah NULL 0.0000456
"Pulang NULL 0.0000456
"Pulang "Mungkin 0.2500000
summer NULL 0.0000456
dunia. makse 0.3333333
dunia. Australia 0.0909091
"Tapiiiiiiiiiii. Bakal 0.1428571
MUCHIE" NULL 0.0000456
pembangunan, NULL 0.0000456
mo dijalan 1.0000000
mo @Pete2Merah 0.1250000
mo sêbênci 1.0000000
mo mo 0.5000000
mo Lagi 0.1666667
berpanas-panasan "Ngikut 0.2500000
kemaleman belio. 1.0000000
konsulen nyarap 0.0666667
konsulen aer 0.0109890
ngapalin NULL 0.0000456
itulah jogja 0.3333333
itulah nyolong 0.1250000
itulah bangêt, 0.5000000
itulah NULL 0.0000456
ujungnya "Same 0.5000000
Asli ada 0.0055866
"Helloo, "kagak 0.0909091
Juventus http://instagram.com/p/zXAAEFt2vG/" 0.2000000
untukku. sebagian 1.0000000
untukku. lemot 0.2500000
untukku. tapi 0.0035211
untukku. wipinye 0.1111111
untukku. lah 0.0357143
untukku. puas 0.1000000
hatiku. satu 0.0555556
Relawan "Karang, 0.2500000
kek!" danangplenthis 1.0000000
kek!" " 0.0064103
kek!" http://instagram.com/p/zTpWswwmpn/ 0.1428571
kek!" #kelamaanngepos#hanyabagiin 1.0000000
tugas. contoh 0.2500000
ngutang NULL 0.0000456
bear. Pipi 1.0000000
bear. poto 0.0294118
bear. dan 0.0026178
bear. pande. 0.1666667
cinta-cintaan." diganti... 0.5000000
cinta-cintaan." banyak 0.0111111
cinta-cintaan." ora 0.0083333
cinta-cintaan." Sêprèh 0.5000000
cinta-cintaan." pasir. 0.5000000
http://bit.ly/14FyWwp akirnye 0.2500000
OK.., NULL 0.0000456
#MedanHits" korban" 0.3333333
#MedanHits" PTPN4, 1.0000000
peluk" "Kawan, 1.0000000
peluk" Baba 0.5000000
peluk" Ênyak 0.1428571
ngga Kagak 0.0166667
ngga ape? 0.2000000
ngga NULL 0.0005927
ngga gini 0.0476190
ngga Ênyak 0.1428571
ngga http://republika.co.id/r/nk4e74 0.2000000
ngga Golkar 0.0714286
yan? NULL 0.0000456
Didik? Kenangan...!!!" 0.2500000
bacanya NULL 0.0000456
bacanya :((((( 0.1428571
sma elu 0.0059172
sma #ARSI" 0.2500000
sma :/ 0.1666667
sma NULL 0.0001368
sma ame 0.0031447
sma gawean, 0.1250000
jorok. guah 0.0085470
jorok. Ora 0.0714286
disalahin? http://bit.ly/1LlnbeP 0.2000000
jd ama 0.0036900
jd cebi 0.1428571
jd Ibnu 0.1666667
jd "Selame 0.2500000
jd nyaruh, 0.2500000
jd "[Telat 0.2000000
jd baru" 0.1250000
jd Menteri" 0.3333333
jd NULL 0.0013223
jd Wadonan 1.0000000
jd lip 0.1666667
jd pojok 0.1250000
jd lama, 1.0000000
formuli """"Ênyaklu." 0.1666667
telponan gini 0.0476190
telponan selame 0.0526316
"guys Keresikan 0.2500000
pegang NULL 0.0000456
pegang @tribunnews" 0.2500000
pegang "Dokter 0.2500000
pegang lampu. 1.0000000
Awas, @e100s 0.3333333
alasannya, NULL 0.0000456
http://gpon.co/7d9dr ape 0.0103093
Bertemu uanggah 1.0000000
Bertemu lovers 1.0000000
rajin NULL 0.0001368
rajin sekoleh. 0.3333333
rajin """"Yè, 0.3333333
Lucu NULL 0.0000456
11 udeh 0.0044444
11 NULL 0.0000456
11 sedaritadi. 0.1111111
Kartu Mega 0.1666667
Putri, jem 0.0285714
deskripsi NULL 0.0000456
rase, NULL 0.0000456
menyukseskan NULL 0.0000456
latar NULL 0.0000912
terpapar NULL 0.0000456
???? Autis 0.2000000
???? semergah 0.2000000
???? #halalbihalal2018 0.3333333
???? jadi 0.0052083
???? ???? 0.1666667
hartamu NULL 0.0000456
diucapkan rakyat, 0.1250000
bicara Aye" 1.0000000
bicara umum 0.2500000
bicara NULL 0.0001368
Room NULL 0.0000456
sinyal NULL 0.0000912
sinyal pake 0.0166667
sinyal lemah 0.1428571
sinyal dikhianatin 0.2000000
sinyal bise 0.0059880
sinyal di 0.0016000
lomba NULL 0.0000456
nntn Bêlakangan 0.2000000
nntn NULL 0.0000456
*kaget* NULL 0.0000456
*kaget* "Sêprèh 0.2500000
Kembangkan ikatan 1.0000000
Kembangkan sêlalu 0.0555556
Kembangkan Dalèm 1.0000000
Kembangkan dèwèk.. 0.1250000
Kembangkan bêrsamèlu.. 1.0000000
tindak NULL 0.0001368
merobek http://baranews.com/web/read/33671/pdip.tidak.akan.andalkan.jokowi..pilkada.serentak 0.1666667
Takdirku NULL 0.0000912
Takdirku Kamulah 0.1666667
carats?:(" dong 0.0714286
carats?:(" rin! 1.0000000
carats?:(" He..he.. 0.3333333
misqin kagak 0.0013755
subuh NULL 0.0000912
sekita NULL 0.0000456
panjang oppa 0.1250000
panjang panjang 0.2500000
panjang gitu 0.0384615
panjang NULL 0.0001824
panjang alinea 0.3333333
panjang rume 0.1250000
mikir, NULL 0.0000456
carin gimane." 0.1111111
POLITIK.....??? NULL 0.0000456
#nike #olahragawan 1.0000000
sampaj normal." 0.1428571
he's tenar 0.1000000
variatif yeh 1.0000000
indomie Sarung 0.5000000
indomie NULL 0.0000456
'sesuai' ini 0.0128205
oleh2 NULL 0.0000456
melengkapi masing 0.0357143
Tetap NULL 0.0000456
Tetap Poto: 0.5000000
AXA..?? gue 0.0106383
pereman 'donor' 0.1428571
"Apakah "Ape 0.1111111
"Apakah kite 0.0067568
"Apakah "Hanye 0.2500000
"Apakah bener 0.0136986
"Apakah NULL 0.0000456
para ngeibur 0.2500000
para - 0.0285714
para kumbang-kumbang 0.1250000
para dimasyarakat 0.1428571
para hotel 0.0400000
para NULL 0.0003648
Akulah NULL 0.0000456
#guitarforlife bêgonohlah" 0.2000000
Mmg tembus 0.2500000
bagiku, dari 0.0051813
bagiku, mao 0.0075758
ularnya NULL 0.0000456
padat, kate2 1.0000000
stressnya. NULL 0.0000456
EMANG "Duit 0.2000000
EMANG giliran 0.1428571
EMANG pemerentah, 1.0000000
EMANG duit 0.0370370
DEEHHH Konstruksi 0.2500000
#ChoiceFandom BÊTURUT-TURUT 0.2500000
dok, keliatannye 1.0000000
sewaktu-waktu mantan 0.1250000
itu,menunggu "Auk 0.2500000
Sidoarjo banyak 0.0111111
http://bit.ly/1C31Sgt paketan" 0.2000000
http://bit.ly/1C31Sgt nungguin 0.3333333
http://bit.ly/1C31Sgt merana 1.0000000
alhmdllh.... NULL 0.0000456
kuy. NULL 0.0000456
tiba-tiba die 0.0070423
tiba-tiba NULL 0.0001368
tiba-tiba ""Sêdikit, 1.0000000
@dedysatriono: peduli? 0.1428571
Bupati kesepian" 0.1250000
Bupati gegaresan. 0.5000000
banjir,didepan NULL 0.0000456
with NULL 0.0000456
with Min 0.2500000
with Aley 0.1428571
pusingnya meninggal 0.1250000
setujui tgl 0.1428571
setujui 28/05. 1.0000000
setujui Kok 0.2000000
setujui setujui 1.0000000
diJakarta islamluh.jaga 1.0000000
"receptionist lip 0.1666667
"receptionist "pelayan 0.2000000
"receptionist ajer, 0.1428571
"receptionist kurang 0.0084034
"receptionist kotor 0.0833333
personal NULL 0.0000456
min? Soalnye 0.1666667
sebaiknya ituh 0.0222222
sebaiknya ngucapin 0.1666667
sebaiknya kate 0.0357143
sebaiknya elu 0.0059172
sebaiknya NULL 0.0000912
sebaiknya perpisahan 0.1666667
219 ngasih 0.0208333
takkan sêjati 0.2000000
takkan "Ade 0.1250000
ina ganti) 0.3333333
ina cebrik 0.1666667
humble, Akhirnye 0.3333333
Astagfirullahalazim panas 0.0178571
Astagfirullahalazim mayan 0.0227273
Astagfirullahalazim aer 0.0109890
Astagfirullahalazim lelet,kayenye 1.0000000
Astagfirullahalazim karne 0.0129870
Astagfirullahalazim sebentar..tibang 0.3333333
nya,tdk sêlamènyè." 0.3333333
mbok bêdêbu. 0.1000000
sendiri, nyebelin. 1.0000000
sendiri, idèntitas 0.2000000
sendiri, purname 0.2000000
sendiri, kolokan" 0.2500000
sendiri, NULL 0.0003192
sendiri, maap. 0.2857143
sdm, NULL 0.0000456
gandengan Sêbêlon 1.0000000
Kesal beli 0.0476190
Kesal orang 0.0051813
Kesal miskin, 1.0000000
Kesal "#Ruangngasoh 0.2000000
Kesal ini 0.0128205
dll. ayem. 0.1111111
dll. Bang 0.1250000
dll. @citraciki 0.1250000
dll. widih 1.0000000
dll. @rezky_fjsi 1.0000000
dll. bangêt..apè 1.0000000
dll. kêrèn 0.1666667
#runningmom #SMARTtips" 0.3333333
#runningmom rusaknyè 1.0000000
minta? Dianggep 0.5000000
minta? Pemajuan 1.0000000
minta? Tingkatin 1.0000000
minta? http://bit.ly/1LHiWZf 0.1428571
minta? Sekola 0.3333333
minta? Siswe 1.0000000
minta? Epektif 1.0000000
minta? Belajar 0.3333333
minta? Jem 0.2500000
"Baby si 0.0200000
"Baby gubernur 0.2000000
"Baby B.." 0.2500000
"Baby A 0.3333333
"Baby ato 0.0384615
Alay, ame 0.0031447
nyampenya NULL 0.0000456
LEBIH NULL 0.0000456
Pemimpin olèh 0.0555556
sungkan NULL 0.0000456
gerimis,berharap atau 0.0400000
gerimis,berharap pengennya 0.1666667
gerimis,berharap grimis, 1.0000000
Akan NULL 0.0001368
Akan Mu 0.1428571
Akan lèdok 0.1250000
naikin NULL 0.0000456
Kapan NULL 0.0000456
menimbulkan NULL 0.0000456
Menag dimasyarakat 0.1428571
Menag mewek, 1.0000000
pacarin. Dan 0.0285714
pacarin. kite 0.0067568
pacarin. blajar 0.2500000
pacarin. seneng-susehnye. 0.2500000
pacarin. ade 0.0052632
pacarin. dimarilah 1.0000000
jenis NULL 0.0000456
jenis ntar 0.1000000
image, sepre 0.0500000
image, Sumur. 0.1428571
image, bagen 0.1000000
image, Dalem 1.0000000
image, Di 0.0416667
image, ngeres 0.0625000
image, nye 0.0125000
image, mayan 0.0227273
demo kecium 0.1000000
Kasus NULL 0.0000456
pembelaan ayem. 0.1111111
mau?? "cèbol 0.2000000
Barista NULL 0.0000456
taat aer 0.0109890
taat "Èksprèsi 0.1666667
taat NULL 0.0000456
handuk, NULL 0.0000912
Madurejo anduk 0.0434783
th NULL 0.0000456
ganjel K3 0.1250000
komitmen NULL 0.0000456
jorok, NULL 0.0001368
jorok, kerasan." 0.1428571
jorok, Telah 0.2500000
keep jike 0.1111111
keep aye 0.0039920
keep NULL 0.0000456
keep kagak, 0.2500000
keep pergi. 0.0909091
keep tulung 0.0625000
keep biarin 0.6666667
keep tau. 0.2000000
keep Tapi 0.0153846
Talks " 0.0064103
Talks bener 0.0136986
Talks Bener 0.5000000
Talks mah. 0.2500000
Talks mari 0.1000000
ko NULL 0.0000912
ko Jatu 0.2500000
Profesional tutup. 0.2500000
Profesional dipakè" 0.1111111
"Kantor "Pêrcumè 0.2000000
"Kantor bukti 0.2000000
"Kantor bêjibun 1.0000000
nano Juli 1.0000000
nano NULL 0.0000912
Ibu2 sela-sela 0.5000000
mau." Êni 0.1428571
mau." Indonèsia, 1.0000000
mau." alêsannyè? 1.0000000
mau." apè 0.0500000
!!!!! pangkeng 0.0117647
http://j.mp/1Lmust6 etike. 1.0000000
noda2.." bise 0.0059880
noda2.." waktu" 0.3333333
noda2.." narik 0.3333333
noda2.." ulur 0.2500000
noda2.." lage 0.0476190
dilantai NULL 0.0000912
Mendadak ,! 0.1250000
berkali-kali bise 0.0059880
#JokowiJK http://bit.ly/1yQcWfy 1.0000000
Menyenangkan. têrlebih 0.3333333
Menyenangkan. Ngênyênêngin. 0.3333333
Menyenangkan. ajah 0.1111111
Menyenangkan. Tibang 0.0434783
Menyenangkan. sumur 0.0153846
Menyenangkan. jambannyah 0.5000000
http://dlvr.it/8fmKYx Bariste 1.0000000
http://dlvr.it/8fmKYx City." 0.3333333
http://dlvr.it/8fmKYx Gandaria 0.2500000
http://dlvr.it/8fmKYx [USERNAME] 0.0032787
"Ditinggal ajè 0.0294118
"Ditinggal Warren 1.0000000
"Ditinggal Sêbut 0.1428571
"Ditinggal "30) 0.2500000
internasional NULL 0.0000456
cuci, NULL 0.0000456
http://bit.ly/1E3A9vh Tot... 1.0000000
http://bit.ly/1E3A9vh dan 0.0026178
http://bit.ly/1E3A9vh http://bit.ly/1E3A9vh 0.5000000
bermimpi priode 0.5000000
tidur! NULL 0.0000456
usahain udeh 0.0044444
"jenuh "#Golkar 0.5000000
"jenuh #ARB 0.0769231
"jenuh Penerbangan 0.5000000
minuman dèwèk, 0.3333333
minuman NULL 0.0001368
minuman mêntêri. 0.2000000
minuman jabatan 0.5000000
keluarin kagak 0.0013755
keluarin cuma 0.2000000
keluarin angetnya 0.3333333
keluarin kinclong 1.0000000
keluarin aer 0.0109890
cuman abis 0.0392157
cuman NULL 0.0004560
cuman dibace. 0.2500000
cuman suseh... 0.1250000
pny dipindahin, 1.0000000
pny ama 0.0036900
pny ati 0.0169492
pny NULL 0.0000456
pny empati 0.3333333
perlengkapan an" 0.2500000
perlengkapan oktakenca 1.0000000
perlengkapan koalisi 0.1250000
perlengkapan bocah, 0.3333333
perlengkapan diterimè 0.1428571
perlengkapan NULL 0.0001368
Idol JNE 0.2000000
mikir. pergi, 0.5000000
mikir. jangan 0.0303030
mikir. aye 0.0039920
mikir. elu 0.0059172
mikir. "kalo 0.1428571
mikir. mao 0.0075758
terserah kasih" 1.0000000
berat setan. 1.0000000
berat http://bit.ly/1LUZrN7 0.1666667
berat hmm 0.5000000
berat #GenerasiTue 0.1428571
berat NULL 0.0002280
berat " 0.0064103
berat KagakNgerasain 1.0000000
>> http://bit.ly/1vSfEuU 0.1250000
>> kagak 0.0013755
>> PERIODE 0.2000000
>> Dinilei 1.0000000
men. NULL 0.0000456
syaratnya cebi 0.1428571
th, NULL 0.0000456
kita Kitab 1.0000000
kita pastilah 1.0000000
kita "Nyok 0.1250000
kita gambar 0.1111111
kita mujur 0.5000000
kita Mahèsiswè 1.0000000
kita Garap 1.0000000
kita kite 0.0878378
kita #bukatemenan 0.2000000
kita https://path.com/p/3aYHHf 0.3333333
kita Bise 0.2500000
kita muasin 0.2500000
kita keganti.. 0.2500000
kita "Ape 0.1111111
kita asing. 0.1666667
kita dikecewain." 0.2500000
kita http://tinyurl.com/nc766gg 0.2500000
kita 1) 0.2500000
kita medsos 0.1666667
kita dantain 0.5000000
kita Allah" 0.3333333
kita "Nyarapnyè 0.4000000
kita antare 0.2000000
kita sengsare 0.2500000
kita """"@vivijkw: 1.0000000
kita NULL 0.0035564
kita ajarin 0.1666667
kita Elu.. 0.1111111
kita H. 0.5000000
kita "Die 0.2000000
kita "Êni 0.5000000
kita sêwayah 0.1428571
kita anggote 0.5000000
kita Anniversario 0.2000000
kita minjêmin 1.0000000
kita ngebentur 1.0000000
kita menuju 1.0000000
kita keluarge" 0.1666667
kita nihil" 1.0000000
kita sêkola 0.0500000
kita Partei-partei 0.1428571
kita habis 1.0000000
kita sekirenye 1.0000000
kita anduk, 0.1666667
kita pertahanin..........." 0.2500000
kita pemerentah?" 0.1666667
kita ngelatih 0.5000000
kita mbavan 0.5000000
kita "Pan 0.2500000
kita ènzim 0.1250000
kita pula. 0.1250000
Ananda NULL 0.0000456
Ibnu NULL 0.0000456
Ibnu bang? 0.1111111
coba?" AC 0.0250000
coba?" 10 0.1428571
coba?" kagak 0.0013755
coba?" adêm 0.0769231
coba?" pangkèng 0.0250000
coba?" di 0.0016000
coba?" nomor 0.2500000
W NULL 0.0000456
W 2 0.0208333
Permen NULL 0.0000456
bisnya NULL 0.0000456
lokalnya semoge 0.0714286
titipan ketemu 0.1250000
terjawab, cemilan" 0.3333333
maksudku NULL 0.0000456
Kata lakuin!!! 1.0000000
Kata pelayanan 0.0303030
Kata têrus 0.0500000
Kata pêrcaya..." 0.2500000
Api NULL 0.0000456
mencapei gampang." 0.2500000
projek Indonesia 0.0526316
kliyengan"" kêjadian." 0.2500000
kliyengan"" bahayè 0.5000000
kliyengan"" kudu 0.0076923
kliyengan"" nih, 0.2500000
kliyengan"" pêratiin 1.0000000
kliyengan"" bênêr-bênêr 0.2500000
kliyengan"" kênyatèan, 1.0000000
wrpnya juge. 0.0769231
http://dlvr.it/8ft7y8 yang 0.0033557
market, dulu. 0.1111111
acakan NULL 0.0000456
ahl "Kudunye 0.1428571
hafal, Anis 0.1111111
hafal, kubu 1.0000000
hafal, go 0.3333333
hafal, nuduh 0.2500000
hafal, sêring 0.1250000
penumpang Kêbinèkaan. 1.0000000
penumpang NULL 0.0000912
penumpang berkutat 0.1428571
penumpang kader... 0.1428571
penumpang keempat, 0.1666667
orangnya, kesempetan 0.3333333
orangnya, biar 0.0357143
orangnya, kisah 1.0000000
orangnya, kenangan, 1.0000000
orangnya, sebueh 0.3333333
orangnya, NULL 0.0000456
orangnya, kite 0.0067568
orangnya, ngukir 0.1250000
orangnya, idup 0.0200000
orangnya, buat 0.0041494
lega. NULL 0.0000456
Not bêpikiran 0.1666667
Not laèn 0.1250000
Not bêlon 0.0666667
Not wadon 0.0263158
Not puguh 0.1428571
Not omonganye 1.0000000
bucket NULL 0.0000456
setinggi NULL 0.0000456
they ijinnye" 0.2000000
meluangkan inpormasinye. 1.0000000
meluangkan kelep 0.1000000
hati NULL 0.0008207
hati Terbaèk 0.1666667
hati Ati 0.3333333
hati dikenalin 1.0000000
hati empati 0.3333333
hati ajè 0.0294118
hati ade 0.0052632
hati "Geroin 0.2500000
hati resik. 0.1111111
hati bêrhasil!" 0.2500000
hati Ngêrês 0.2500000
hati #Konyol" 0.3333333
hati rooms 0.3333333
hati ADÈ 0.5000000
hati orang?""" 0.1428571
hati nyêri 0.1250000
memilhmu kagak 0.0013755
tutup. NULL 0.0000456
tutup. tutup. 0.2500000
ini, Beh... 0.1428571
ini, ini, 0.1250000
ini, jadi 0.0052083
ini, HWD 0.3333333
ini, nyata" 0.1666667
ini, NULL 0.0004560
ini, "Kejadian 0.2500000
ini, Oi 0.2500000
ini, "Sumpeh 0.1666667
banyaknya dipungkiri, 0.3333333
banyaknya NULL 0.0000456
showernya lengkep 0.1000000
kamu" makasih" 0.1250000
kamu" mampet. 0.1666667
kamu" nyadar.." 0.2500000
kamu" NULL 0.0001824
lamban http://bit.ly/1LmOHGZ 0.2000000
Ayyee!" nyok!" 0.3333333
Ayyee!" tenar 0.1000000
Ayyee!" lagi.... 0.2000000
"Maunya "Isêng 0.3333333
"Maunya ngêtès 1.0000000
"Maunya sêmuè 0.1250000
"Maunya isêng 1.0000000
"Maunya pêrangkat 1.0000000
"Maunya èlèktromagnètik 1.0000000
bertemu, NULL 0.0000456
[Penelitian NULL 0.0000456
bersyukur dèwèk<3 0.1111111
bersyukur NULL 0.0002280
bersyukur alesannye, 1.0000000
bersyukur pembantu 0.1111111
ciri gaweannye, 0.5000000
mengucapkannya, NULL 0.0000456
tahan. temen 0.0294118
kopi" babeh. 0.5000000
kopi" bareng 0.0476190
dirham." nutupin 1.0000000
dirham." #kiscorp 0.2500000
dirham." idupnye 0.5000000
dirham." semue 0.0196078
dirham." luke 0.2500000
memaksa NULL 0.0000912
memaksa maren 0.0833333
memaksa demen 0.0238095
why ayalan 1.0000000
why NULL 0.0000456
kadang2 NULL 0.0001368
[Seo no. 0.5000000
bni NULL 0.0000456
kan, mewekin 0.1250000
kan, Syahrini. 0.2000000
kan, "Ah 0.2500000
kan, panggilan 0.5000000
psan2 "Puyeng 1.0000000
bentar kaya 0.2500000
bentar NULL 0.0000456
cegah deskripsiin 0.2000000
cegah sedari 0.1428571
bae Aley 0.1428571
bae NULL 0.0000912
berturut2 NULL 0.0000456
matanya ~0225" 0.1428571
matanya Bantuan 0.5000000
matanya @BeasiswaS1: 0.5000000
matanya :) 0.0625000
matanya http://beasiswaindo.com/5239 0.5000000
matanya Trisakti, 0.3333333
matanya mao? 0.3333333
matanya "RT 0.0833333
tpi NULL 0.0001368
tpi disusehin 0.2000000
tpi budaya 0.1428571
tpi okehlah" 0.2500000
stlh NULL 0.0000912
besoknya NULL 0.0000456
besoknya pula. 0.1250000
NYATA NULL 0.0000456
ramah.tapi ama 0.0036900
Sedangkan NULL 0.0000456
lain2 NULL 0.0000456
KTV) Bandung) 0.1666667
http://dlvr.it/8dXNYd Kenangan...!!!" 0.2500000
laboratorium) care 0.0625000
tingkat kalo 0.0044248
tingkat iringan 1.0000000
nak masup, 0.3333333
nak korbannye.tulung 0.1250000
nak ora 0.0083333
nak NULL 0.0004104
berduka non, 0.5000000
berduka NULL 0.0000912
nyaman. abang-abang 1.0000000
nyaman. NULL 0.0002280
nyaman. Mazagengkendeng: 0.1428571
nyaman. "Anteng 0.2500000
"tempat minêral, 1.0000000
"tempat Kotak 0.3333333
"tempat "/rlt/ 0.2500000
"tempat ngêri 0.0454545
"tempat NULL 0.0000456
"tempat hore 0.1666667
"tempat amat 0.0512821
"tempat guah 0.0085470
mas, secara 1.0000000
mas, Soesatyo 0.2500000
mas, NULL 0.0000456
"check-in "Nêng, 1.0000000
asal NULL 0.0000912
terluka,tapi NULL 0.0000456
#pembisnismuda korsi 0.5000000
gemetaran NULL 0.0000456
digunakan" "kesluruan 1.0000000
digunakan" dibenerin..." 0.1666667
digunakan" sise 0.2500000
digunakan" wipi... 1.0000000
digunakan" baek, 0.1428571
digunakan" tulung 0.0625000
digunakan" kureng 0.0227273
#hazeeek GÊDÉ" 1.0000000
petani, jatoh 0.0476190
Pusat "mayan 1.0000000
Pusat têrjadi 0.3333333
Pusat nekuknye 1.0000000
ditatar.Bahan "Harep 0.2000000
tenag" ade 0.0052632
tenag" PDIP: 0.1666667
tenag" "Jagoan 0.1666667
Yanga "kerasan 0.2500000
Yanga resik 0.0270270
Yanga , 0.0227273
Yanga semue 0.0196078
She NULL 0.0000456
Sadar kliyengan"" 1.0000000
harga. kan 0.0588235
detail jadi 0.0052083
Pengalaman gimane 0.0625000
Pengalaman NULL 0.0000456
Pengalaman cara 0.5000000
Pengalaman bilang 0.0384615
Pengalaman sih 0.0147059
Pengalaman [Idm] 0.5000000
Pengalaman buat 0.0041494
Pengalaman alusnye 1.0000000
""""@melly_goeslaw: 7 0.1111111
""""@melly_goeslaw: """"@melly_goeslaw: 1.0000000
""""@melly_goeslaw: MAkasih 1.0000000
""""@melly_goeslaw: @Lady6igi 0.1666667
cewek2 NULL 0.0000456
match pdkt 1.0000000
match nyocok-nyocokin 0.2857143
match karang 0.0384615
match tinggal 0.0833333
match :(( 1.0000000
""""udah yè 0.0476190
ditolak. Alesan 0.5000000
ditolak. PKS 0.1428571
discuss, NULL 0.0000456
el NULL 0.0000912
petir #Assadiqulhaq 0.1250000
Keviralan Jelambar 1.0000000
nongkrong kalo 0.0044248
male tenar 0.1000000
tuh.g, NULL 0.0000456
prodi "Pengen 1.0000000
prodi Blanje 0.2500000
prodi Ririn 1.0000000
prodi mecing, 1.0000000
prodi anak 0.0294118
YU teksturnye 1.0000000
http://antaranews.com/480952 ngeluh" 0.1428571
FamilyRaffiah17 daon 1.0000000
Kartosoewiryo pêrtamè 0.3333333
Kartosoewiryo kagak 0.0013755
Kartosoewiryo "Èksprèsi 0.1666667
Kartosoewiryo pangkèng...sêpêrti 1.0000000
Kartosoewiryo pêrnèh 0.2500000
Kartosoewiryo masup 0.0526316
per ""haha"", 0.1666667
per tetep. 0.1250000
per NULL 0.0000912
tubuh, NULL 0.0000456
pasien gè." 0.1666667
pasien "Dokter 0.2500000
pasien rapat 0.1666667
pasien NULL 0.0000456
diharapkan Sekoleh 0.1111111
#jujur bbijaksane 0.2500000
#jujur berujung 0.5000000
#jujur Terime 0.1666667
#jujur cari 0.1250000
#jujur tapi 0.0035211
#jujur ngoceh 0.1666667
#jujur Jangan 0.0666667
#jujur sono-marih 1.0000000
#jujur pitnah. 1.0000000
situasi NULL 0.0000456
situasi semue 0.0196078
Soekarno têrnyatè 0.3333333
""Anak NULL 0.0000456
http://bit.ly/18aqpUr NULL 0.0000456
http://bit.ly/18aqpUr mukanye 1.0000000
#pasta https://path.com/p/MlXUp 0.3333333
@TerasiSuper nyoba 0.1000000
mamsee@Lady6igi Arit 0.1428571
"Kesabaran sebuah 0.1428571
"Kesabaran seriusan 1.0000000
"Kesabaran pergi." 0.2500000
"Kesabaran gondokin 0.2000000
"Kesabaran kate 0.0357143
selokan NULL 0.0000456
selokan bikinnye 0.2000000
selokan ngeri 0.0666667
selokan makin 0.0625000
selokan http://dlvr.it/8h4vVV 0.3333333
selokan soleh. 1.0000000
temuin NULL 0.0000456
JANGAN NULL 0.0000912
TIGERNYA NULL 0.0000456
lingkungan nyamuknye 1.0000000
lingkungan [URL]" 0.0119048
lingkungan she 1.0000000
lingkungan NULL 0.0000912
Bawa2 Bam... 0.1250000
"Siapa NULL 0.0000456
pengaduan ayè 0.0085470
nadi aye 0.0019960
142 NULL 0.0000456
Min udeh 0.0044444
Bedroom mari 0.1000000
wangi.. NULL 0.0000456
Mbaq2, bangsa. 0.3333333
Uyul Mandiri 0.5000000
kepincut "99. 0.1428571
nasehat NULL 0.0000456
"kurangin "tapi 0.3333333
Dana T-T 0.1428571
de' "Ya 0.2000000
Karimata NULL 0.0000456
akhiri NULL 0.0000456
lama/singkat-singkat. ame 0.0031447
buru-buru. #Jakarte 0.3333333
buru-buru. #Selase 1.0000000
buru-buru. #Indonesia 0.5000000
buru-buru. #Syantik 1.0000000
buru-buru. #Nyarap 1.0000000
buru-buru. #PizzaHut 1.0000000
buru-buru. #Plesiran 1.0000000
buru-buru. #Juande 0.2000000
ayuk saling 0.0476190
found dicek 0.1250000
@PakBondan kaga 0.0046948
Refund NULL 0.0000912
amin. elu 0.0059172
amin. dewek 0.0666667
amin. omongan 0.1666667
telunjuknya "Okè 0.2500000
telunjuknya mangkin 0.1333333
telunjuknya kê 0.0188679
telunjuknya mari 0.1000000
http://bit.ly/1y125zo didugè 0.1428571
partai NULL 0.0000456
baikk... hamdalah 0.1428571
#NETwaze kru 0.1428571
(bisa) @inpo: 0.1666667
curhatan banget, 0.0769231
curhatan NULL 0.0000456
bersiap NULL 0.0000456
bersiap lobby, 1.0000000
sein NULL 0.0000456
minta kêbangêtan 0.0625000
minta tambahan 1.0000000
minta koalisi 0.1250000
minta Kitanyah? 0.1666667
minta tatum 0.1428571
minta digonoin, 0.1250000
minta 'Jurus' 1.0000000
minta NULL 0.0008207
minta aye 0.0059880
Jumlah NULL 0.0001368
Jumlah [USERNAME] 0.0032787
mah. berpungsi" 0.1666667
mah. banyak" 0.3333333
mah. iye, 1.0000000
mah. NULL 0.0000456
dingin. utm_campaign=related_left&utm_medium=bp&utm_source=news" 0.1250000
dingin. NULL 0.0001368
dingin. !!!" 0.1250000
kebetulan Pimpinan 0.1250000
sejujurnya sedie 1.0000000
loh Laut 0.3333333
loh loh 0.0909091
loh de 0.1111111
loh bonyok-bonyok 1.0000000
loh NULL 0.0001368
loh kêsêmpêtan 0.1428571
loh TIPInye 1.0000000
loh radiiitt, 0.1666667
kelas bpjs?ada 1.0000000
kelas NULL 0.0003192
kelas ngeliatin 1.0000000
kelas guntur, 0.2857143
kelas satu 0.1111111
kelas namanyah 0.5000000
kelas seorang 0.0666667
arahan, Arief 1.0000000
Bali, NULL 0.0000456
hadits2 cet 0.5000000
positive." baèk, 0.2500000
positive." Ranjang 0.5000000
positive." amat 0.0256410
positive." kêrêsikan 0.1666667
positive." cêbrik. 0.5000000
Takkan NULL 0.0000456
prepare Propesional 0.1111111
prepare ye 0.0102041
prepare siap-siap 0.2500000
prepare tutup. 0.2500000
melalui lah." 1.0000000
melalui NULL 0.0000456
melalui pajak 0.5000000
melalui ~0228" 0.2000000
masukin sbm, 1.0000000
beri @RaffiAhmadLagi" 0.1428571
beri http://bitly.com/1anbCGV 0.2500000
beri kasi 0.3333333
beri http://ow.ly/2USpru 0.1428571
beri NULL 0.0001824
beri dirékomèndasiin 0.1111111
beri ngeluh" 0.1428571
beri ama 0.0073801
dana NULL 0.0001824
dana dane 0.2500000
30% guah 0.0085470
ujung2nya NULL 0.0000912
Cute kite 0.0067568
gmn NULL 0.0001824
gmn "Risiko 0.5000000
gmn gini 0.0476190
bangettt NULL 0.0000456
5/10." http://bitly.com/1anbCGV 0.2500000
5/10." Gegares 0.1000000
5/10." Nasi 0.1666667
5/10." lime 0.3333333
5/10." Kagak 0.0166667
5/10." Keuntungan 1.0000000
Oleh pertunjukan 0.2000000
pembuatan suare, 0.2000000
dunia, asing 0.5000000
dunia, kê 0.0188679
dunia, Bali 0.1428571
dunia, http://bit.ly/18abNEB 0.2000000
dunia, ningkat 0.5000000
kerruh.! sêbaèknyè. 0.2000000
kerruh.! pêluang 1.0000000
kerruh.! Diè 1.0000000
kerruh.! gunèin 1.0000000
kerruh.! kêduè 1.0000000
staffnya "sejauh 0.2000000
staffnya pangkengnye 0.0909091
lesu. selang 0.1666667
lesu. ajer.." 0.3333333
lesu. NULL 0.0000456
lesu. rade 0.0357143
lesu. juge 0.0074074
caratss, Bowo 1.0000000
tetap mendukung 0.3333333
tetap "Tempat 0.1428571
tetap nganggep 0.2500000
tetap sertipikat.kite 0.5000000
tetap buat 0.0041494
tetap "Pelayanannye 0.3333333
tetap Sênèn 0.1428571
tetap Jadilah 1.0000000
tetap kêbangêtan 0.0625000
tetap NULL 0.0003648
tetap dibenerin!" 0.3333333
tetap "Penginepan 0.2000000
tetap ade 0.0052632
tetap Awal 0.2000000
JAKARTA JAKARTE 0.5000000
JAKARTA : 0.0322581
JAKARTA - 0.0142857
"Kita orang 0.0051813
teuteup, ngumbah 1.0000000
prasangka." ? 0.0068027
prasangka." dil.. 1.0000000
prasangka." https://path.com/p/3R9CTM 0.2000000
prasangka." ame? 1.0000000
pulak haih" 0.1666667
temen2 *jidatmunaaaay" 0.1666667
temen2 ituh, 0.5000000
"Ekspresi "Kalo 0.0454545
memposting sekola, 1.0000000
Basyit NULL 0.0000456
tdr depannye.. 0.2500000
tdr NULL 0.0000456
gagal "Selesei 0.1666667
gagal New 0.1666667
gagal NULL 0.0000912
"gue "Selamet 0.5000000
"paling "pelayanan 0.2500000
mati.dalam ganteng 0.1111111
berhubung "Temen 0.1666667
berhubung rohani 0.1666667
"Masa Bahase 1.0000000
kekeh ketahan 0.3333333
taruh "Okè 0.2500000
taruh "Coba 0.2500000
bsr ènzim 0.1250000
Dewasa NULL 0.0000456
Bosque! AMAT 1.0000000
shower jari... 1.0000000
shower kucuran 0.1250000
shower elu 0.0059172
shower pake 0.0166667
shower BENER 0.2500000
shower dibenerin..." 0.1666667
shower diepaluasi 1.0000000
shower NULL 0.0005016
shower payah 0.5000000
banyak sehari. 0.2000000
banyak "Kurang 0.1428571
banyak kotoran" 0.1666667
banyak ari.." 0.1250000
banyak kudu 0.0153846
banyak mayan...tibang 0.2000000
banyak dêbu 1.0000000
banyak bekel 1.0000000
banyak bejibun 0.0476190
banyak kasih." 1.0000000
banyak bercaknye" 0.3333333
banyak #MakassarKêrasan 0.3333333
banyak Gubernur" 0.3333333
banyak galau 0.2500000
banyak biase-biase 0.1666667
banyak bakal 0.0049261
banyak ora 0.0083333
banyak ma'ruf 0.1111111
banyak kurang, 0.0555556
banyak kesetiaan 0.2500000
banyak satunye 0.1666667
banyak mahasiswe 0.5000000
banyak Kankêr 0.2000000
banyak nyiapin 0.1666667
banyak hehe""" 0.2500000
banyak ganggu 0.5000000
banyak dokter 0.2000000
banyak putri 0.1666667
banyak mungkin 0.0344828
banyak nyinyir 0.1428571
banyak NULL 0.0022798
banyak bekeluarge 1.0000000
banyak node 0.1250000
banyak Bejibun 0.1666667
banyak Onoh 0.1666667
banyak sangke. 0.2500000
banyak tau" 0.2500000
banyak kecoe 0.3333333
banyak Dilantik, 1.0000000
banyak Banyak. 1.0000000
banyak "Alhamdulillah 0.2000000
banyak empat 0.1666667
banyak lanang? 0.2000000
banyak dikasih 0.0294118
banyak sêdêrhana, 1.0000000
banyak sabrina. 0.2500000
"Feeling NULL 0.0000456
"Fasilitas ayè 0.0085470
"Fasilitas NULL 0.0000456
Selasamu, balesannye." 0.1428571
kelabang NULL 0.0000456
deng... rèsèpsionis 0.1000000
8 haknye 1.0000000
8 NULL 0.0000456
8 kan 0.0588235
8 kek 0.0256410
8 tetep 0.0263158
8 sama 0.0769231
8 lebay 0.1111111
masa nyuri 1.0000000
masa iseng 0.0476190
masa Jike 0.1428571
masa kamar 0.0169492
masa brengsek 0.2500000
masa NULL 0.0002280
masa ame 0.0062893
masa jahat 0.1666667
masa benahin 0.1666667
masa paling 0.0238095
galfok deh 0.1000000
galfok daripade 0.0833333
galfok kan. 0.1666667
galfok Ternyate 0.2000000
galfok Balik 0.2000000
galfok TO 1.0000000
galfok kagapokus 1.0000000
do NULL 0.0000912
do 'blukusan'.#JokowiSekaliLagi" 0.1666667
do kemaren-kemaren 1.0000000
do haha. 1.0000000
Dikejar keluarge. 0.2000000
#ermanjatim bêkêcukupan. 0.2500000
ngeluarin NULL 0.0000456
jawab.. Lêbih 0.1250000
jawab.. kêrêsikan 0.1666667
jawab.. ditingkatin 0.1666667
jawab.. pangkèng. 0.2500000
an. kagak 0.0013755
denger2 NULL 0.0000456
syarat ntu 0.0048544
syarat NULL 0.0000456
syarat syarat 0.2500000
syarat dua 0.0769231
pagi-siang ade 0.0052632
pagi-siang pasilitas 0.0588235
pagi-siang "kagak 0.0909091
pagi-siang airy 0.0222222
Ndalem, Keputusan 0.1111111
honorer kalo 0.0044248
riang merad, 0.5000000
meragukan Kankêr 0.2000000
..." cakêp" 0.2000000
..." lêbih 0.0333333
..." sudutnyè 1.0000000
musti kebuke" 1.0000000
musti NULL 0.0001368
dewasa NULL 0.0000912
Btw, sêsêring 1.0000000
Semuanya muatiare 0.2000000
sensasi. bae, 0.0909091
kesabaran NULL 0.0000456
"Mbir, dandanan 1.0000000
"Mbir, @natalixia 1.0000000
"Mbir, menor 1.0000000
"Mbir, lebih 0.0156250
"Mbir, dari 0.0051813
"Mbir, Syahrini. 0.2000000
ditransfer asilnye 0.3333333
http://bit.ly/1Lo54Fh http://bit.ly/1Lo54Fh 0.1666667
http://bit.ly/1Lo54Fh dalêm 0.0333333
http://bit.ly/1Lo54Fh kêsèrèt 1.0000000
http://bit.ly/1Lo54Fh Syahrini 0.0238095
http://bit.ly/1Lo54Fh Fe... 1.0000000
http://bit.ly/1Lo54Fh kasus 0.1666667
dulunya lupe 0.1111111
dulunya NULL 0.0000456
army, NULL 0.0000456
2018, beginilah 1.0000000
mendatang brengsek 0.2500000
cengir? pênumpang 0.2500000
cengir? Para 0.2500000
ngartik" eni" 0.1428571
ngartik" cinte, 0.2500000
ngartik" aye 0.0019960
ngartik" pagi 0.0384615
ngartik" "karne 1.0000000
ngartik" mesem 0.2500000
ngartik" alesan 0.1000000
PPP kurang 0.0084034
PPP NULL 0.0000456
PPP pêlayanan 0.2000000
PPP bakal 0.0049261
PPP baèk. 0.1250000
PPP digenangin 0.2000000
PPP cakêp.. 1.0000000
PPP http://twitter.com/YunniPhotograph/status/472660102462185473/photo/1pic.twitter.com/Lw2GBVrJ4G 1.0000000
PPP mayan 0.0227273
PPP adè 0.0212766
merasa @_kngdaniel96 1.0000000
merasa dirasain.. 1.0000000
merasa NULL 0.0004560
merasa "Ouwww... 0.1666667
merasa masi 0.0625000
merasa mantep 0.1250000
merasa "Karna 0.2000000
merasa ade 0.0157895
merasa babeh-enyak 1.0000000
Thank "Kawinan 1.0000000
sedapnya pangkeng 0.0117647
kelereng babak 1.0000000
kehotel NULL 0.0000456
Kurir rapetinnye 0.2000000
KPK sinis 1.0000000
KPK "Tadi 0.3333333
KPK begantung 0.2500000
KPK #YakinJokowi 1.0000000
KPK #sekitarkudus 0.3333333
KPK NULL 0.0001824
KPK saatnye 0.2500000
KPK gawean 0.0909091
KPK Dikire 0.5000000
dikejar NULL 0.0000456
""""minta: NULL 0.0001368
""""minta: bakal 0.0049261
nyeri NULL 0.0000456
nyeri sakitnye 0.2500000
#Lounge berjanji 1.0000000
#Lounge inget 0.1666667
#Lounge "Ape 0.1111111
#Lounge dulu 0.0217391
#Lounge lu 0.0103093
#Lounge kaga 0.0046948
#Lounge pernah 0.0200000
Hajar siraman 0.2500000
perabotan ada 0.0055866
Cinta. NULL 0.0000456
nunduk mengantup." 0.1666667
loh. http://bit.ly/18abNEB 0.2000000
loh. penanganan 1.0000000
driver" HAHAHAHAHAKAGAKSÊMANGÊTHAHAHAHASUÈHAHAHAHAH 0.2000000
driver" sêlêsè 0.5000000
driver" sêkola 0.0500000
Harus NULL 0.0002280
Harus Kudu 0.0833333
Harus Allah! 0.3333333
Harus jokowi 0.2000000
dihiasi gè 0.0322581
dihiasi ora 0.0083333
jualan. "Keseluruannye 1.0000000
hambaNYA dewekan. 0.1666667
hambaNYA NULL 0.0000456
dicek, NULL 0.0000456
dri NULL 0.0000456
dri nyuci 0.2500000
M, "gile 0.1666667
M, NULL 0.0000456
Nurul yekali 1.0000000
"11.35: "Prawan 0.2500000
U.S. didugè 0.1428571
trisa nonton 0.0416667
trisa nyariin 0.1428571
trisa (bace: 1.0000000
trisa lage 0.0476190
trisa trisanye 1.0000000
trisa tapa 1.0000000
begitu kejailan 0.1666667
begitu "maap 0.2500000
begitu NULL 0.0009119
begitu nêrbitin 1.0000000
begitu ""haha"", 0.1666667
begitu syarat" 0.1250000
begitu sakit 0.0416667
begitu "Biase 0.1250000
begitu begituh 0.1250000
begitu delokin 1.0000000
begitu Sêmêntara 0.3333333
"[USERNAME] pelayan 0.1111111
"[USERNAME] NULL 0.0015502
"[USERNAME] "Ngenes! 1.0000000
"[USERNAME] http://ask.fm/a/c25j7oia" 1.0000000
"[USERNAME] kêluarga 1.0000000
"[USERNAME] besok" 1.0000000
"[USERNAME] Asil 1.0000000
"[USERNAME] #bali 0.3333333
"[USERNAME] [USERNAME] 0.0163934
"[USERNAME] sumur 0.0153846
"[USERNAME] detikcom 1.0000000
"[USERNAME] "[USERNAME] 0.0972222
"[USERNAME] "Ya 0.2000000
"[USERNAME] make 0.0322581
"[USERNAME] disini....." 1.0000000
"[USERNAME] "(1) 1.0000000
"[USERNAME] taun 0.0666667
"[USERNAME] juga." 0.5000000
"[USERNAME] "Ini 0.3333333
"[USERNAME] ngelangkah 0.2500000
"[USERNAME] kicit-kicit 1.0000000
"[USERNAME] Pangkèng 0.0833333
"[USERNAME] "Èksprèsi 0.1666667
"[USERNAME] si." 1.0000000
"[USERNAME] Bujubuneng. 1.0000000
"[USERNAME] juge.. 0.2500000
"[USERNAME] "Rumor 0.1428571
"[USERNAME] Pagi 0.3333333
waptrick) NULL 0.0000456
ngeluh, NULL 0.0000456
lama "Selesei 0.1666667
lama arti 0.1666667
lama nyuksesin 1.0000000
lama Situasi 1.0000000
lama jêngah-jêngahin.. 0.1250000
lama apè, 0.1111111
lama trèpêl 1.0000000
lama NULL 0.0005927
lama ada 0.0055866
lama MUASIN 0.3333333
lama rumèh? 0.3333333
lama kolokan" 0.2500000
lama lu. 0.3333333
lama "kagak 0.0909091
lama selamanye?" 0.1111111
lama rokok 0.2500000
lama penundaan 0.2000000
lama nyuapin 0.5000000
JAR" amin. 0.2500000
JAR" bengis 0.3333333
"Humorku kurang 0.0084034
""""UTC"""" bener 0.0136986
goals, aye 0.0019960
seger2 NULL 0.0000456
kondensasi mayoritas, 1.0000000
kondensasi disusehin 0.2000000
kondensasi bakalan 0.1250000
klo ora 0.0083333
klo d... 1.0000000
klo spy 0.1111111
klo kenalan. 0.2000000
klo sêorang 0.2500000
klo NULL 0.0004560
klo cêkrèkan 0.3333333
klo "Lagu 0.1428571
klo Anèh, 1.0000000
klo ATI" 1.0000000
klo isi 0.2000000
klo wakil 1.0000000
klo ujan" 0.2500000
rumah. HAHAHAHA." 0.2500000
rumah. SAKIT 1.0000000
rumah. YANG 0.3333333
rumah. NULL 0.0000912
itu.... NULL 0.0000456
terperosok Makin 0.5000000
separuh NULL 0.0000456
separuh #Kabarin 0.1666667
@rezky_fjsi NULL 0.0000456
Tangan èmang" 0.2000000
menyakitkan.. dapêt 0.1250000
menyakitkan.. jadi 0.0052083
menyakitkan.. bêgono.. 0.2500000
menyakitkan.. 50% 1.0000000
menyakitkan.. kamar 0.0169492
menyakitkan.. diskon 0.2000000
porses budaya 0.1428571
yakini, #ARMYSelcaDay 0.2500000
nampak wangsit 1.0000000
ditungguin, digonoin, 0.1250000
#siap2 bau" 0.1428571
selebihnya "Dane 0.1666667
selebihnya http://antaranews.com/480952 0.2000000
selebihnya #ARMYSelcaDay 0.2500000
selebihnya bae" 0.1428571
selebihnya NULL 0.0000456
alangkah dêbat...sèdèng 1.0000000
buru NULL 0.0000912
'lagi' pengen 0.0178571
Gamau usah 0.2000000
tommy NULL 0.0000456
dirasakan #voil 0.1666667
slalu, NULL 0.0000456
siap. sêidup 0.1666667
siap. sêmati, 1.0000000
siap. buat 0.0041494
siap. ikrar 1.0000000
iyakan NULL 0.0000456
ajalah ngebekas." 0.3333333
ajalah NULL 0.0000456
setara Depok 0.2500000
wastapel pêrkawinannyè 0.1428571
lembab NULL 0.0000912
lembab ntu. 0.0909091
lembab nyaruh, 0.2500000
lembab Walo 0.5000000
snacky NULL 0.0000456
cemas, NULL 0.0000456
dan, NULL 0.0000456
priyonggo anak-anak 0.5000000
cawapresny per 0.5000000
resmi ama 0.0036900
mah tanye 0.5000000
mah #RuangTunggu 0.2500000
mah NULL 0.0003648
mah mureh. 0.1428571
mah rusak" 0.1428571
mah Pêmêrèntah 0.5000000
mah kagak 0.0027510
mah udahlah!" 0.2500000
mah sêjati 0.2000000
mah hehe.. 1.0000000
ada,,kloset keresikan" 0.1666667
ada,,kloset nyang 0.0014577
ada,,kloset bocor,layanannye 1.0000000
ada,,kloset kurang, 0.0555556
dimarah2. diatasin 0.5000000
PERBAIKI, NULL 0.0000456
The trus" 0.2000000
The Terbaèk 0.1666667
The elu,suatu 1.0000000
The dihias 1.0000000
The yang 0.0033557
jauh jauh 0.1666667
jauh rêsik 0.0526316
jauh kangênin 0.2500000
jauh NULL 0.0005016
jauh kêrasan,tapi 1.0000000
jauh sobat 0.2000000
jauh kebelet 1.0000000
jauh penye 1.0000000
jauh gede." 0.1250000
jauh "/rlt/ 0.2500000
jauh kote." 0.2500000
bener, dalêm 0.0333333
"Dah "jangan 0.2500000
kurang.. samè 0.1111111
kurang.. NULL 0.0000912
miskin, "#Ruangngasoh 0.2000000
flashnya bênêr 0.1250000
Hmm Anies 0.5000000
kebutuhan doktêr, 0.2000000
kebutuhan ayè 0.0085470
kebutuhan NULL 0.0000456
pada kagak-sêmangêt 1.0000000
pada nerus 1.0000000
pada pênulisan' 0.1428571
pada ncing" 0.1428571
pada http://dlvr.it/8g1tyq 0.2500000
pada diri. 0.3333333
pada http://goo.gl/fb/3sgdCI 0.1428571
pada nyinyir 0.1428571
pada muraan 1.0000000
pada titik 0.2000000
pada nganggepnye 0.5000000
pada Padahal 0.1111111
pada ""Udèh 0.1111111
pada roti 1.0000000
pada #satrionkri 0.1428571
pada ~0225" 0.1428571
pada roko, 0.1000000
pada sêmbari 0.1666667
pada NULL 0.0017782
pada ah. 0.1666667
pada "Katekan 0.2857143
pada "Gacoan 0.2500000
gembyor ngaish 0.3333333
sepiku flu 1.0000000
things. "ame 0.5000000
gaperlu onoh 0.0333333
gaperlu guah 0.0085470
gaperlu udahlah!" 0.2500000
gaperlu lakuin 0.1666667
gaperlu NULL 0.0000456
Ngiler NULL 0.0000456
http://www.bhinneka.com/mob_products/sku01414004/hp_pavilion_x360_-_red.aspx NULL 0.0000456
tipsnya CPNS?" 0.1428571
Anjir NULL 0.0000456
