Nathania seneng2 1.0000000
NULL dulu2 1.0000000
sim sim 0.2500000
NULL sim 0.5000000
mobil sim 0.2500000
tersedie minoruliciouces 1.0000000
sebelom "#Golkar 0.1666667
nyarap "#Golkar 0.1666667
"Hari "#Golkar 0.1666667
keempat, "#Golkar 0.1666667
Babeh "#Golkar 0.1666667
Seno "#Golkar 0.1666667
NULL berlemah 1.0000000
nuduh "Memangnya 0.2500000
"Èmangnyah "Memangnya 0.2500000
ama "Memangnya 0.2500000
montên "Memangnya 0.2500000
hixx" mengkonsumsi 1.0000000
ambalnye bri 1.0000000
sarjane "Tersulah 0.1250000
mulut "Tersulah 0.1250000
due "Tersulah 0.1250000
nye "Tersulah 0.1250000
kali, "Tersulah 0.1250000
bibinye "Tersulah 0.1250000
"Udeh "Tersulah 0.1250000
mao "Tersulah 0.1250000
Pengalaman @info: 0.1428571
#telkom @info: 0.1428571
sering @info: 0.1428571
udeh @info: 0.1428571
inih @info: 0.1428571
soalnye @info: 0.1428571
banget @info: 0.1428571
ame kedepan 1.0000000
suse penjaga" 0.1428571
telpon penjaga" 0.1428571
dibel, penjaga" 0.1428571
ade penjaga" 0.1428571
kaga penjaga" 0.1428571
penjage" penjaga" 0.1428571
"nomer penjaga" 0.1428571
Kutau (PAN) 1.0000000
NULL terlantar 1.0000000
dagang. hehe.. 1.0000000
udeh meluas" 1.0000000
êluh Status 1.0000000
NULL feeling 1.0000000
NULL Awalnya 1.0000000
ituh penampakan 0.5000000
NULL penampakan 0.5000000
Mpok sepuh 1.0000000
bis pastikan 1.0000000
Kadang https://path.com/p/Xgcq3 1.0000000
"Kalo depannya 1.0000000
NULL Matematikawan 1.0000000
rindu kembali 0.0434783
NULL kembali 0.7391304
bis kembali 0.0434783
balek kembali 0.0434783
Rumeh kembali 0.0434783
kembali kembali 0.0434783
keaaan kembali 0.0434783
NULL kecil. 0.1666667
wadon kecil. 0.1666667
RT kecil. 0.1666667
@dedysatriono: kecil. 0.1666667
biase kecil. 0.1666667
obrolan kecil. 0.1666667
NULL Bahagialah, 1.0000000
asin, adalah 0.0200000
ngartiin adalah 0.0200000
kêamanan adalah 0.0200000
taichangorèng adalah 0.0200000
isinyah." adalah 0.0200000
indah adalah 0.0200000
baejin adalah 0.0200000
sêkola adalah 0.0200000
Ngasih adalah 0.0200000
ikan adalah 0.0200000
INi adalah 0.0400000
NULL adalah 0.6200000
débitur adalah 0.0200000
terkutuk" adalah 0.0200000
Montana, adalah 0.0200000
ntu adalah 0.0400000
idèntitas adalah 0.0200000
nyape adalah 0.0200000
Rp :((((( 0.3333333
http://gpon.co/7d9dr :((((( 0.3333333
60.000 :((((( 0.3333333
Demi gol, 1.0000000
NULL noda, 0.5000000
ari.." noda, 0.5000000
normal." halaman, 1.0000000
pesen satu-satunya 1.0000000
buat Jamaahnya 1.0000000
http://goo.gl/fb/0XU7yQ" teman. 1.0000000
~0228" http://youtu.be/UjfYJCrlCfo?a 1.0000000
@Pete2Merah strategis,kamar 1.0000000
Pake jaket 0.2000000
ato jaket 0.2000000
pakean jaket 0.2000000
jaket jaket 0.2000000
tebel jaket 0.2000000
THR Udara 0.5000000
NULL Udara 0.5000000
g mah" 1.0000000
bêkas dirubah 1.0000000
êluh diputusin 1.0000000
slalu ungulan 0.1000000
ngeliat ungulan 0.1000000
ape-ape ungulan 0.1000000
ye ungulan 0.2000000
make ungulan 0.1000000
ungulan ungulan 0.3000000
baru ungulan 0.1000000
NULL tahun- 1.0000000
NULL memudahkan 1.0000000
"Bênêr, terjadi" 0.5000000
NULL terjadi" 0.5000000
keluarge" ni? 1.0000000
Untungnye dibentak, 1.0000000
Colongan keamanan. 1.0000000
kurang..." lo, 1.0000000
nantinyah." #mantan 1.0000000
Pondok pangkat 1.0000000
airy.." kecewa 0.0714286
termasuk kecewa 0.0714286
"sêsayang kecewa 0.0714286
NULL kecewa 0.7142857
"Wah kecewa 0.0714286
maleh gabakal 1.0000000
ye ex 0.1428571
minder... ex 0.1428571
aye ex 0.1428571
ebentar... ex 0.1428571
pengen ex 0.1428571
punye ex 0.1428571
juge ex 0.1428571
butut pelatih 0.1250000
miswar, pelatih 0.1250000
dipakè" pelatih 0.1250000
...ora pelatih 0.1250000
mandi, pelatih 0.1250000
bisa pelatih 0.1250000
tipi pelatih 0.1250000
"Pêrabotan pelatih 0.1250000
pan" saya..." 1.0000000
AC Hehe 0.2000000
mayan Hehe 0.2000000
brisik Hehe 0.2000000
"Aer Hehe 0.2000000
bau, Hehe 0.2000000
NULL keuangan 0.7500000
dingin." keuangan 0.2500000
NULL gini.. 1.0000000
11 posesif 0.2500000
sedaritadi. posesif 0.2500000
Pacar posesif 0.2500000
jem posesif 0.2500000
bêrita" solo' 1.0000000
toleran, badcover 1.0000000
NULL opini 0.5000000
Tuker opini 0.2500000
tue opini 0.2500000
NULL MI 1.0000000
NULL ""Mba 1.0000000
NULL sekoyaaah 1.0000000
NULL kos2an 1.0000000
kesempatan kolesterol 0.1666667
sekali kolesterol 0.1666667
rasanye kolesterol 0.1666667
lagi kolesterol 0.1666667
kalo kolesterol 0.1666667
ada kolesterol 0.1666667
mana-mana "Nah 0.1666667
Nyang "Nah 0.1666667
ari "Nah 0.1666667
awang "Nah 0.1666667
ngêja "Nah 0.1666667
kê "Nah 0.1666667
rase 'Poltergeist' 1.0000000
ama temperatur 1.0000000
orang mu" 0.2500000
laen mu" 0.2500000
melulu.. mu" 0.2500000
nyindir mu" 0.2500000
NULL melihatmu 1.0000000
ènak mainin 0.3333333
NULL mainin 0.6666667
T-T UPS 1.0000000
meluas" stasiun 0.5000000
semue stasiun 0.5000000
NULL kak, 1.0000000
NULL Sejak 1.0000000
bertahan ijin 1.0000000
http://ow.ly/JmsfB" Trauma 1.0000000
apah step 1.0000000
yee..ape menjemput 0.2000000
abang menjemput 0.2000000
kabar menjemput 0.2000000
belon?? menjemput 0.2000000
satria??udehan menjemput 0.2000000
hari suguhkan 0.5000000
disajiin suguhkan 0.5000000
NULL toll.. 1.0000000
NULL kantor? 1.0000000
Rabbalallaamiin. Yogyakarta 1.0000000
tapi perhelatan 1.0000000
NULL kelar. 1.0000000
UDAH Skripsi 1.0000000
SINDIR Sahuuuuur...! 1.0000000
bener "Gemes 0.5000000
"Gemes "Gemes 0.5000000
NULL DANCE 1.0000000
"Soalnye disuap, 1.0000000
pasti NINE 1.0000000
NULL mengalir 0.7500000
gawean mengalir 0.2500000
Ngêri, http://ow.ly/JFsaU 0.1111111
Poto http://ow.ly/JFsaU 0.1111111
Jadi http://ow.ly/JFsaU 0.1111111
Bêrèdar http://ow.ly/JFsaU 0.1111111
Suzzanna http://ow.ly/JFsaU 0.1111111
Luna http://ow.ly/JFsaU 0.1111111
Maya http://ow.ly/JFsaU 0.1111111
"Ih http://ow.ly/JFsaU 0.1111111
Ngêjè http://ow.ly/JFsaU 0.1111111
dèwèk<3 kufur! 1.0000000
"monumen bapa 1.0000000
abis beda" 0.2000000
pegih.. beda" 0.2000000
lu beda" 0.2000000
Gitu?" beda" 0.2000000
gelap beda" 0.2000000
" tampan. 1.0000000
negare setia""""." 1.0000000
Jadi definisi 0.3333333
NULL definisi 0.3333333
depinisi definisi 0.3333333
http://bitly.com/1anbCGV penilaian 1.0000000
NULL iklan 1.0000000
gêgêrawakan Giliran 1.0000000
"abang "kakak 0.2000000
lagi "kakak 0.2000000
sekola "kakak 0.2000000
ye"""", "kakak 0.2000000
besok "kakak 0.2000000
NULL yaitu 1.0000000
Twitter ... 0.1000000
[URL]" ... 0.1000000
NULL ... 0.6000000
http://bit.ly/1vMAMmk ... 0.1000000
http://gpon.co/vfe72 ... 0.1000000
NULL traumamu. 1.0000000
rohani ketemu 0.0909091
jenis ketemu 0.0909091
NULL ketemu 0.3636364
dibenahin ketemu 0.1818182
, ketemu 0.0909091
sêwayah ketemu 0.0909091
"Pertama ketemu 0.0909091
ama lo 0.0800000
Jatim lo 0.0400000
ngingetin lo 0.0400000
NULL lo 0.4800000
sêhinggè lo 0.0400000
ati" lo 0.0400000
digonoin, lo 0.0400000
Cucu lo 0.0400000
lo lo 0.1200000
idèntitas lo 0.0400000
merad? lo 0.0400000
maonye gratis 0.1428571
sis gratis 0.1428571
Kanwil gratis 0.1428571
(bukan gratis 0.1428571
NULL gratis 0.4285714
NULL deh...!! 1.0000000
die Personal 1.0000000
"ngênyêmbuhin "AkuMencintaimu 0.1666667
sakit "AkuMencintaimu 0.1666667
rasa "AkuMencintaimu 0.1666667
tanpa "AkuMencintaimu 0.1666667
obat "AkuMencintaimu 0.1666667
yak "AkuMencintaimu 0.1666667
NULL Hafidz 1.0000000
NULL Hafid 1.0000000
bakal harta." 0.5000000
nyambutnye" harta." 0.5000000
solo' perkosa 1.0000000
NULL Besar. 1.0000000
NULL ""Bank-nya 1.0000000
kertas" http://fb.me/2NQHjOiRR 0.5000000
sebueh http://fb.me/2NQHjOiRR 0.5000000
pade rezekinya, 1.0000000
cengar #SMARTtips" 0.2500000
langsung #SMARTtips" 0.2500000
gue #SMARTtips" 0.2500000
cengir? #SMARTtips" 0.2500000
pacarnye" -.- 1.0000000
ayam jugalah. 1.0000000
dèwèk.. mateng2 1.0000000
"Jamban antenanya 1.0000000
NULL NONI 1.0000000
"Di Para 0.2500000
"Rame, Para 0.2500000
berkutat Para 0.2500000
NULL Para 0.2500000
kureng agung. 0.1666667
"AC agung. 0.1666667
kagak agung. 0.1666667
bohlam agung. 0.1666667
dingin, agung. 0.1666667
terang" agung. 0.1666667
ngebagiin "Yg 0.2000000
ge "Yg 0.2000000
Lagarde "Yg 0.2000000
kejadian "Yg 0.2000000
"Christine "Yg 0.2000000
NULL apabila 1.0000000
"Roh sebelom 1.0000000
NULL alesannya 0.2000000
alesannye alesannya 0.2000000
luar alesannya 0.2000000
, alesannya 0.2000000
jem alesannya 0.2000000
di tinggikan 1.0000000
halaman, rekan 0.2500000
NULL rekan 0.7500000
NULL kepalang 1.0000000
suare mngejut." 1.0000000
Atu "Merasa 1.0000000
kêcêlakaan PM 1.0000000
kendale lagiii 1.0000000
mpok-mpoknyè berwujud. 1.0000000
ha Women 1.0000000
Wajahlu "Masak 0.5000000
NULL "Masak 0.5000000
ayee kamuuu" 0.2500000
eluuu" kamuuu" 0.2500000
tadi, kamuuu" 0.2500000
sayang kamuuu" 0.2500000
https://path.com/p/2OpXQ5" Kuras 1.0000000
Bos rp 1.0000000
http://bit.ly/1vR1Ock ever 0.5000000
http://bit.ly/1LHiWZf ever 0.5000000
NULL sj 0.8000000
sungkan sj 0.2000000
kondisinyè Demokrasi 0.1666667
baêk, Demokrasi 0.1666667
NULL Demokrasi 0.5000000
kurang Demokrasi 0.1666667
@inpo: tidaknya 1.0000000
NULL terbengong 1.0000000
NULL Ayem, 1.0000000
NULL pemimpin 0.6666667
sêparo pemimpin 0.1666667
baru" pemimpin 0.1666667
NULL hadiahnya 1.0000000
dipungkiri, Sartre 0.3333333
Sarte Sartre 0.3333333
dapet Sartre 0.3333333
maen meraih 0.2000000
Riddle, meraih 0.2000000
ngerjain meraih 0.2000000
tatap-tatapan, meraih 0.2000000
PR meraih 0.2000000
NULL project, 1.0000000
http://ask.fm/a/bpbe6bl4 sades-_- 1.0000000
#Sukabumi Ngecewain 0.5000000
http://goo.gl/fb/XNK6hU Ngecewain 0.5000000
udèh pemberitahuan 1.0000000
lalu. kw 1.0000000
NULL nan 0.5000000
pake nan 0.5000000
Bangunan kaki! 0.2500000
lame. kaki! 0.2500000
kote. kaki! 0.2500000
Pemandangan kaki! 0.2500000
NULL #unitedtogether 1.0000000
bisè investasi 1.0000000
mau dibalesnya 1.0000000
NULL mmng 1.0000000
Anis membaca 1.0000000
adek 5-14 1.0000000
resik bercaknya" 0.2000000
alasnye bercaknya" 0.2000000
kureng bercaknya" 0.2000000
bejibun bercaknya" 0.2000000
bercaknye" bercaknya" 0.2000000
sêpréh kebersiahnya 1.0000000
https://path.com/p/3arTQi Cole, 1.0000000
NULL stok 1.0000000
@rzvdk https://path.com/p/2LM8XG 0.1250000
areh https://path.com/p/2LM8XG 0.2500000
dua https://path.com/p/2LM8XG 0.1250000
Macet https://path.com/p/2LM8XG 0.1250000
Pondok https://path.com/p/2LM8XG 0.1250000
Kopi. https://path.com/p/2LM8XG 0.1250000
lewat https://path.com/p/2LM8XG 0.1250000
minum, Pasca 0.5000000
mah" Pasca 0.5000000
pisah... inshaallah 1.0000000
kenyataan kan.." 0.2000000
disingkronin.." kan.." 0.2000000
ame kan.." 0.2000000
mohon kan.." 0.2000000
congor kan.." 0.2000000
kolaan niruin 0.1666667
ngikutin niruin 0.1666667
amat niruin 0.1666667
aturan niruin 0.1666667
kagak-kreatip niruin 0.1666667
laen niruin 0.1666667
kêna benar-salah/tidak 1.0000000
kapan burung 0.3333333
Gawenye burung 0.3333333
NULL burung 0.3333333
NULL ngedeteksi 1.0000000
sêmangêt! "Mandiri 1.0000000
NULL transportasi 1.0000000
têrus Pemimpin. 0.3333333
pantêngin Pemimpin. 0.3333333
yak!!!" Pemimpin. 0.3333333
pade botol 0.1666667
pare botol 0.1666667
Nasib botol 0.1666667
#Indonesia botol 0.1666667
bukan botol 0.1666667
#Penentu botol 0.1666667
"Rumor ar.. 1.0000000
NULL perbaikan 1.0000000
NULL ngebuat 1.0000000
lêga..jadi "Ya 0.2000000
orang?""" "Ya 0.2000000
bensin "Ya 0.2000000
NULL "Ya 0.4000000
banyak disini, 1.0000000
ranjang, Kualitas 0.5000000
NULL Kualitas 0.5000000
tes beasiswa 1.0000000
Mancur Pegang 0.5000000
Apèlagi Pegang 0.5000000
"Baekan, kotor." 1.0000000
NULL penggunaan 1.0000000
otaknye ledek 1.0000000
sumringah Diajak 1.0000000
datêng. kamu, 0.3333333
NULL kamu, 0.3333333
perusahaan kamu, 0.3333333
item instalaai 1.0000000
NULL piagam, 1.0000000
OOP, minder... 1.0000000
hehe." Gk 1.0000000
NULL pernh 0.5000000
ituh.. pernh 0.5000000
http://goo.gl/fb/qOir6d" :D 0.2500000
Kagak :D 0.2500000
"Woh, :D 0.2500000
Jelas :D 0.2500000
NULL Rasul 1.0000000
#pêndapêt #PilkadaSerentak 1.0000000
"Untungnye "20.15: 1.0000000
NULL yah"""", 1.0000000
lelet, lemot, 0.1111111
panas, lemot, 0.1111111
ada lemot, 0.1111111
"Wifi lemot, 0.1111111
aer lemot, 0.1111111
jamban lemot, 0.1111111
resik" lemot, 0.1111111
kurang lemot, 0.1111111
ame lemot, 0.1111111
lame, pukpukk. 1.0000000
putri hal" 1.0000000
berubah. #BonekJancuk 0.5000000
Padahal #BonekJancuk 0.5000000
salain sangat 0.0135135
NULL sangat 0.7027027
malu" sangat 0.0135135
sep" sangat 0.0135135
hamdalah sangat 0.0135135
Mazagengkendeng: sangat 0.0135135
harge.. sangat 0.0135135
ari.." sangat 0.0135135
"Beneran sangat 0.0135135
kagak sangat 0.0135135
letaknye sangat 0.0135135
"Ketentuannye sangat 0.0135135
jendela sangat 0.0135135
ngebikin sangat 0.0135135
sih" sangat 0.0135135
dan sangat 0.0270270
diiklanin..buruk.. sangat 0.0135135
elu..." sangat 0.0135135
#Iriana sangat 0.0135135
sekali. sangat 0.0135135
nyolong sangat 0.0135135
ngejogroknye sangat 0.0135135
die secukupnya 1.0000000
NULL Spontan, 1.0000000
"Abis "Bukan 1.0000000
antu" sofanya 1.0000000
NULL staf 0.6666667
Indonèsia staf 0.3333333
NULL meridhoi 1.0000000
NULL sik 0.5000000
Kehebringan sik 0.5000000
demenan dibuku 1.0000000
sênêng Mangat 1.0000000
NULL lun 1.0000000
'Sarang HAHAHA 0.3333333
Konstruksi HAHAHA 0.3333333
Gonggo' HAHAHA 0.3333333
:')" kasian" 0.2500000
ora kasian" 0.2500000
diarêpin. kasian" 0.2500000
sêpêrti kasian" 0.2500000
"Dongo kosa 1.0000000
titik titik 0.2000000
NULL titik 0.6000000
kite titik 0.2000000
NULL nyuci 1.0000000
al-Najjar. "Go 0.2000000
medis "Go 0.2000000
Razan "Go 0.2000000
Palestina "Go 0.2000000
Petugas "Go 0.2000000
NULL airy? 1.0000000
NULL diajak 0.5000000
tinggi diajak 0.5000000
NULL teguh 1.0000000
NULL risiko 0.6666667
mampus risiko 0.3333333
NULL lancar. 1.0000000
peduli? biasa 0.0555556
puas biasa 0.0555556
bakal biasa 0.0555556
NULL biasa 0.7222222
ora biasa 0.0555556
bêpikiran biasa 0.0555556
#ARSI" dianya.. 1.0000000
sayang" deretan 0.2500000
barang deretan 0.2500000
sêmpêt deretan 0.2500000
kêilangan deretan 0.2500000
"wipi kenceng, 0.5000000
NULL kenceng, 0.5000000
Biadab durasi 1.0000000
ituh Thanks. 1.0000000
NULL amat 0.6000000
http://bit.ly/1LUZrN7 amat 0.2000000
Gawean amat 0.2000000
NULL menyadari. 1.0000000
bosen keberkahan" 0.1428571
bedua. keberkahan" 0.1428571
Entong keberkahan" 0.1428571
pangkeng. keberkahan" 0.1428571
molor keberkahan" 0.1428571
Sediain keberkahan" 0.1428571
dewa. keberkahan" 0.1428571
!!!" omg 1.0000000
Dg dinding, 1.0000000
2x dimainkan. 0.2500000
ada dimainkan. 0.2500000
gè dimainkan. 0.2500000
gara-gara dimainkan. 0.2500000
NULL kapanpun 1.0000000
NULL bau." 1.0000000
lagi Berdosa 0.2500000
dikasih Berdosa 0.2500000
ditanye Berdosa 0.2500000
anduk, Berdosa 0.2500000
NULL Penumpang 0.5000000
pernah Penumpang 0.5000000
"Bener gih.. 1.0000000
Internasional" @_kngdaniel96 0.1428571
Persahabatan @_kngdaniel96 0.1428571
. @_kngdaniel96 0.1428571
cm @_kngdaniel96 0.1428571
Hari @_kngdaniel96 0.1428571
Selamet @_kngdaniel96 0.1428571
-5 @_kngdaniel96 0.1428571
takut DAN 0.2500000
kuliner DAN 0.2500000
NULL DAN 0.5000000
penyambutan penyambutan 1.0000000
cakep. "kemarin 1.0000000
nyecerin "Bising,kurang 0.1111111
ah "Bising,kurang 0.1111111
ke "Bising,kurang 0.1111111
bini "Bising,kurang 0.1111111
nih "Bising,kurang 0.1111111
tujuh "Bising,kurang 0.1111111
pelit "Bising,kurang 0.1111111
kagak-aye "Bising,kurang 0.1111111
engkong "Bising,kurang 0.1111111
idup "blio 0.2000000
seratus "blio 0.2000000
"?Pas "blio 0.2000000
aye "blio 0.2000000
ngasi "blio 0.2000000
NULL Beberapa 0.5000000
dêngêrnyè Beberapa 0.5000000
kelompok Polri 0.1428571
ame Polri 0.1428571
orang Polri 0.1428571
NULL Polri 0.1428571
"Ciptaan Polri 0.1428571
begantung Polri 0.1428571
ape Polri 0.1428571
mah menengah 1.0000000
bukan kaliqn 1.0000000
nanye ilegal 0.1666667
ngomong ilegal 0.1666667
basa-basi ilegal 0.1666667
nyape ilegal 0.1666667
ape ilegal 0.3333333
NULL saja,sekali-sekali 1.0000000
yaa saklar 1.0000000
bikin SAYA 0.3333333
NULL SAYA 0.6666667
setlahnye. voting 1.0000000
nyesek you,... 1.0000000
NULL nampakin 1.0000000
Kagak Nemenin 1.0000000
NULL death 1.0000000
NULL Kebebasan 1.0000000
#tekno "Jaman 0.2500000
Antare "Jaman 0.2500000
| "Jaman 0.2500000
Petani "Jaman 0.2500000
NULL sebabnya, 1.0000000
tangan "Ikhlas 0.2500000
kenceng "Ikhlas 0.2500000
paling "Ikhlas 0.2500000
"Tepok "Ikhlas 0.2500000
"gile berlian 1.0000000
bol lapisannya, 1.0000000
""Udèh Terlupakah 1.0000000
pancorannye rensentatif 0.2000000
adem" rensentatif 0.2000000
panas rensentatif 0.2000000
mule-mule rensentatif 0.2000000
lame-lame rensentatif 0.2000000
disuruh check-lagi 1.0000000
duluan. take 1.0000000
dan belgia 1.0000000
NULL Naaahhhh 1.0000000
- bersamamu 0.5000000
kêpênuhin" bersamamu 0.5000000
dengan Farmasi, 0.2500000
kejailan Farmasi, 0.2500000
semue Farmasi, 0.2500000
dunie Farmasi, 0.2500000
kagakmungkin "Siapapun 0.2000000
danta "Siapapun 0.2000000
bepikir "Siapapun 0.2000000
KORUPTOR "Siapapun 0.2000000
Otak "Siapapun 0.2000000
rapat Membicarakan 1.0000000
Sêdêng Munir. 1.0000000
dompet "Tapi 0.3333333
NULL "Tapi 0.6666667
NULL Kalian 1.0000000
NULL harrashment 1.0000000
Kalah http://fb.me/4QIkoLgyl 0.3333333
ame http://fb.me/4QIkoLgyl 0.3333333
aye http://fb.me/4QIkoLgyl 0.3333333
semalu gak.seperti 1.0000000
guah Lihat 0.3333333
ngêlahap Lihat 0.3333333
NULL Lihat 0.3333333
NULL Siapa 1.0000000
ntu""""minta: susah,air 0.1666667
Cinte susah,air 0.1666667
setie""""." susah,air 0.1666667
jangan susah,air 0.1666667
minggat"""". susah,air 0.1666667
tetep susah,air 0.1666667
"Yakin, Aneh, 0.1428571
NULL Aneh, 0.1428571
Nyesel Aneh, 0.1428571
mati." Aneh, 0.1428571
MACCA Aneh, 0.1428571
Salurannyè Aneh, 0.1428571
ketulusan, Aneh, 0.1428571
pancoran detik. 1.0000000
bilang.. ""Terima 1.0000000
anak Macam 1.0000000
(cowok-cowok) 12. 1.0000000
NULL heran 1.0000000
kè cungkring 1.0000000
Allah. #kerjateruss" 1.0000000
NULL kesannya 0.3333333
umumnyah kesannya 0.3333333
rodi" kesannya 0.3333333
Têpat pagarnya 1.0000000
NULL sekumpulan 1.0000000
ngunduh cemburu, 1.0000000
aroma-aroma ini... 0.5000000
keseatan ini... 0.5000000
bau diperhatikan, 1.0000000
ngelangkah Tekkim 0.2000000
fitneh, Tekkim 0.2000000
adu Tekkim 0.2000000
domba.. Tekkim 0.2000000
hujet, Tekkim 0.2000000
yang Soswitnya 1.0000000
NULL bus 1.0000000
diè terbang 1.0000000
"Kudunye stiap 0.1428571
ntu stiap 0.1428571
maren, stiap 0.1428571
untung stiap 0.1428571
diusut, stiap 0.1428571
kaga stiap 0.1428571
NULL stiap 0.1428571
kire-kire?" terus"" 1.0000000
cewek kami, 0.5000000
lugu kami, 0.5000000
bakal zat 1.0000000
ama menghentikan 1.0000000
tapi lemot. 1.0000000
digerojogan# petugasnya" 0.1666667
awan petugasnya" 0.1666667
gulem petugasnya" 0.1666667
ember petugasnya" 0.1666667
naro petugasnya" 0.1666667
#jage-jage petugasnya" 0.1666667
NULL naha 1.0000000
NULL ir. 1.0000000
bulan, Qadar, 1.0000000
"Karna harapan 0.1666667
minumnye harapan 0.1666667
ènzim harapan 0.1666667
airy, harapan 0.1666667
NULL harapan 0.3333333
NULL teriak, 1.0000000
tapi kan... 1.0000000
Zon Resepsionis 1.0000000
NULL bolong, 1.0000000
NULL ngrampok 1.0000000
"Terime donatur, 1.0000000
NULL cret. 1.0000000
kapan ssuai 0.5000000
waras ssuai 0.5000000
NULL trauma 1.0000000
lebih membuatmu 0.3333333
NULL membuatmu 0.6666667
NULL kudu 0.5000000
adem kudu 0.5000000
NULL Merubah 1.0000000
militer militer 0.5000000
dilatih militer 0.5000000
gayêman, moyangmu 1.0000000
Tribun kru 0.5000000
"15. kru 0.5000000
mentok "Bunga 1.0000000
NULL ngupload 1.0000000
sejaman. #memetwit" 0.3333333
ampir #memetwit" 0.3333333
#memetwit" #memetwit" 0.3333333
NULL 10jt 1.0000000
lagih nafsunya 0.1666667
twItter nafsunya 0.1666667
:)" nafsunya 0.1666667
kalu nafsunya 0.1666667
maèn nafsunya 0.1666667
balik nafsunya 0.1666667
"Tapi filmnya, 1.0000000
tapi medsos 0.1428571
kêbêranian. medsos 0.1428571
??" medsos 0.1428571
NULL medsos 0.5714286
pula. hijrah, 1.0000000
""katenye"" Suci 1.0000000
!!! Uang 0.2000000
NULL Uang 0.4000000
Hèhèhèhè Uang 0.2000000
karang Uang 0.2000000
bunuh Soekarno. 0.5000000
NULL Soekarno. 0.5000000
Senggaknye sprei 0.0476190
"yaèlah sprei 0.0476190
terbae sprei 0.0476190
pamit." sprei 0.0476190
NULL sprei 0.6190476
ari.." sprei 0.0476190
Inilah sprei 0.0476190
Umum, sprei 0.0476190
" sprei 0.0476190
nubruk Partai 0.0666667
mesem-mesem Partai 0.0666667
http://bit.ly/1AX1dxn Partai 0.0666667
bêtambah Partai 0.0666667
modar. Partai 0.0666667
Ninggalin Partai 0.0666667
Kayenyeeee Partai 0.0666667
City." Partai 0.0666667
NULL Partai 0.2666667
#Repost Partai 0.0666667
(Èkor Partai 0.0666667
kondisinyè Partai 0.0666667
bekuin ucha: 0.3333333
pertanyaan ucha: 0.3333333
semue ucha: 0.3333333
NULL beliau, 0.5000000
ngêluh beliau, 0.5000000
#Rakyat kemasan 0.1428571
yang kemasan 0.1428571
bakal kemasan 0.1428571
sebagei kemasan 0.1428571
. kemasan 0.1428571
Masih kemasan 0.1428571
#Penentu kemasan 0.1428571
"Guah Hasil 1.0000000
NULL da 1.0000000
pembantu 16-19% 1.0000000
NULL kmrn, 1.0000000
ditingkatin http://goo.gl/fb/XNK6hU 0.2500000
kêrêsikan http://goo.gl/fb/XNK6hU 0.2500000
sêlaèn http://goo.gl/fb/XNK6hU 0.2500000
kudu http://goo.gl/fb/XNK6hU 0.2500000
ngacir Bangka 1.0000000
NULL melahirkan, 1.0000000
bise. main2 1.0000000
NULL hufh 1.0000000
NULL Dek 1.0000000
sekali Tipe2 1.0000000
Politik thai 1.0000000
""""Yè, istighfar 1.0000000
NULL pencitraan 1.0000000
http://gpon.co/vfe72 !!!!" 0.3333333
300.000 !!!!" 0.3333333
NULL !!!!" 0.3333333
sepatu brupa 0.1250000
seragam brupa 0.1250000
sekola,tas brupa 0.1250000
@DDsulsel brupa 0.1250000
dari brupa 0.1250000
dan brupa 0.1250000
brupe brupa 0.1250000
olahrage,seragam brupa 0.1250000
NULL BADAN 1.0000000
jamban. Terbakar 1.0000000
NULL soonhoon 1.0000000
NULL kecil, 0.6666667
KAMAR kecil, 0.1666667
noh kecil, 0.1666667
NULL (-) 1.0000000
bakal OOP, 1.0000000
https://path.com/p/6zN6L Kasih 0.2000000
NULL Kasih 0.4000000
wkwk Kasih 0.2000000
, Kasih 0.2000000
gerobog berwarna 0.5000000
NULL berwarna 0.5000000
NULL jenuh 1.0000000
""""Bise ngemis-ngemis 1.0000000
http://dlvr.it/8g2FDQ pernikahan 1.0000000
Sayah: wong 0.5000000
NULL wong 0.5000000
rênyêk tvnya 1.0000000
wadon setuju 0.2000000
"bujug setuju 0.2000000
di-ledekin setuju 0.2000000
jaman setuju 0.2000000
sekarang setuju 0.2000000
3. dek 0.5000000
NULL dek 0.5000000
NULL pendataan 1.0000000
NULL Mancur 1.0000000
Hond Kerreeennn!! 0.2000000
mobil Kerreeennn!! 0.2000000
Brion Kerreeennn!! 0.2000000
Kecelakaan Kerreeennn!! 0.2000000
"00:11 Kerreeennn!! 0.2000000
NULL kita.Kesudahannya,sangat 1.0000000
ikm Kantongi 0.5000000
wkwk Kantongi 0.5000000
NULL daftar 0.7500000
diganti daftar 0.2500000
dedemit dustakan?" 0.1666667
[UR]" dustakan?" 0.1666667
rombogan dustakan?" 0.1666667
dari dustakan?" 0.1666667
terkutuk. dustakan?" 0.1666667
yang dustakan?" 0.1666667
gituu" dipersulit 0.5000000
NULL dipersulit 0.5000000
ni awkward 0.5000000
maap awkward 0.5000000
dengan menghentikannya 1.0000000
NULL videocall 1.0000000
diri hobby 0.5000000
NULL hobby 0.5000000
momon, Miliar 0.1428571
bintang Miliar 0.1428571
NULL Miliar 0.1428571
sekitaran Miliar 0.1428571
bapak-bapak Miliar 0.1428571
banget-->@VIVA_log: Miliar 0.1428571
kuar Miliar 0.1428571
oppa perjalanan 0.2500000
NULL perjalanan 0.2500000
dipakè perjalanan 0.2500000
pendukung perjalanan 0.2500000
"Pêrcumè pusat 0.3333333
kote." pusat 0.3333333
NULL pusat 0.3333333
NULL uptudate 1.0000000
amè sore/malam 1.0000000
NULL Cemburu 1.0000000
[USERNAME] "Christine 1.0000000
amsih MAKIN 0.2500000
Mi MAKIN 0.2500000
NULL MAKIN 0.5000000
ngêlawan AIR 0.5000000
obèsitas. AIR 0.5000000
NULL kerap 1.0000000
tau Gobloknya 1.0000000
Lupe vocher 1.0000000
Hummer I 0.0714286
aye I 0.0714286
NULL I 0.4285714
ÊLU! I 0.0714286
gendong I 0.0714286
"Wilayeh I 0.0714286
kuliah, I 0.0714286
balik. I 0.0714286
'blusukan' I 0.0714286
NULL jombs, 1.0000000
malem "Lagi 0.5000000
"Masak "Lagi 0.5000000
adalah menahan 0.5000000
NULL menahan 0.5000000
NULL omongan 0.3333333
hadis omongan 0.3333333
ituh omongan 0.3333333
Pèngèn yaa) 0.3333333
hapè yaa) 0.3333333
punya yaa) 0.3333333
loh. syariah 0.2500000
Coba syariah 0.2500000
dah syariah 0.2500000
#RamèinBola syariah 0.2500000
Kaye? lah. 0.1666667
malingnye lah. 0.1666667
NULL lah. 0.6666667
kasih kulakukan." 0.2000000
buat kulakukan." 0.2000000
kêjangkau.. kulakukan." 0.2000000
Airyrooms.. kulakukan." 0.2000000
têrima kulakukan." 0.2000000
NULL tiada. 1.0000000
juge, RW 1.0000000
Rp dewi 1.0000000
NULL beringat, 1.0000000
toko Ied 1.0000000
Disayangi Makasiiih 0.5000000
7 Makasiiih 0.5000000
Ngiringin rusak." 1.0000000
"Terusan...@bankmandiri natal 1.0000000
@PrincesSyahrini snack, 0.2000000
:*" snack, 0.2000000
NULL snack, 0.2000000
kepisah, snack, 0.2000000
Tapi snack, 0.2000000
NULL room, 1.0000000
NULL kecilan(?) 1.0000000
NULL Ntappp 1.0000000
NULL (yg 1.0000000
dikumbah wkwk." 1.0000000
NULL kelar, 1.0000000
gresik perduli 1.0000000
banyak mendapatkannya. 0.1428571
pasti mendapatkannya. 0.1428571
duit. mendapatkannya. 0.1428571
.luwes. mendapatkannya. 0.1428571
lebih mendapatkannya. 0.1428571
njiiir mendapatkannya. 0.1428571
ngatur mendapatkannya. 0.1428571
kapok ttg 0.1000000
bawah ttg 0.1000000
*jidatmunaaaay" ttg 0.1000000
purname ttg 0.1000000
NULL ttg 0.6000000
mundur kepo 1.0000000
NULL cat 0.6666667
http://goo.gl/OALhb6 cat 0.3333333
korban." hehe." 1.0000000
NULL apaan. 1.0000000
NULL lantainya 1.0000000
4 #BTSARMY 0.2000000
AMPÈ #BTSARMY 0.2000000
ARI #BTSARMY 0.2000000
BÊTURUT-TURUT #BTSARMY 0.2000000
NGINÊP #BTSARMY 0.2000000
NULL pengalaman 0.5000000
ngeliet pengalaman 0.5000000
NULL !!!" 0.1428571
tersenyum !!!" 0.1428571
papa !!!" 0.1428571
pantes !!!" 0.1428571
juge !!!" 0.1428571
gantiinnye, !!!" 0.1428571
kesenengan." !!!" 0.1428571
NULL sebulan. 1.0000000
Utamenye Dewi 0.2500000
NULL Dewi 0.5000000
"Kuat Dewi 0.2500000
NULL moon 1.0000000
#pêbisnismuda puntung 0.3333333
kampus puntung 0.3333333
NULL puntung 0.3333333
sale "Cewek 0.1666667
maren-maren "Cewek 0.1666667
di "Cewek 0.1666667
poto "Cewek 0.1666667
posting "Cewek 0.1666667
aye "Cewek 0.1666667
NULL Bebas 1.0000000
adenye Cing 1.0000000
pitik" kecil" 0.1666667
bergune kecil" 0.1666667
aer kecil" 0.1666667
pake kecil" 0.1666667
kucuran kecil" 0.1666667
bae, kecil" 0.1666667
NULL rantang. 1.0000000
#telkom Kepastian 0.5000000
juge Kepastian 0.5000000
NULL bapak2 0.5000000
yang bapak2 0.5000000
akupuntur Bung 0.5000000
NULL Bung 0.5000000
megah Agak 1.0000000
http://dlvr.it/8h4vVV http://dlvr.it/8h4vVV 0.2500000
kolaan http://dlvr.it/8h4vVV 0.2500000
ke http://dlvr.it/8h4vVV 0.2500000
#Assadiqulhaq" http://dlvr.it/8h4vVV 0.2500000
kèk Tida 1.0000000
NULL q 0.5000000
siswe. q 0.5000000
NULL soldout. 1.0000000
NULL jatinegara 1.0000000
lage seumur 1.0000000
pagipagi "sesayang 0.5000000
Nyoknyok "sesayang 0.5000000
Harge apek. 0.5000000
NULL apek. 0.5000000
lakinye.. #HappyHeeChulDay 0.1666667
ato #HappyHeeChulDay 0.1666667
cere #HappyHeeChulDay 0.1666667
maen #HappyHeeChulDay 0.1666667
ngebales #HappyHeeChulDay 0.1666667
kelakuan #HappyHeeChulDay 0.1666667
ampe panakkukang) 0.1666667
bersyukur panakkukang) 0.1666667
disindirin panakkukang) 0.1666667
gawean panakkukang) 0.1666667
cume panakkukang) 0.1666667
sempet panakkukang) 0.1666667
Adopsi Cerya 1.0000000
anak-anaknye" Ibu 0.1666667
pasti Ibu 0.1666667
NULL Ibu 0.5000000
jage-jage Ibu 0.1666667
"Ari "Aku 0.1000000
"Semenjak "Aku 0.1000000
mulu" "Aku 0.1000000
Baru "Aku 0.1000000
NULL "Aku 0.6000000
Arepannye pinter, 1.0000000
kalo https://path.com/p/2kVbsH 0.1428571
duitnye https://path.com/p/2kVbsH 0.1428571
kemudian https://path.com/p/2kVbsH 0.1428571
telpon https://path.com/p/2kVbsH 0.1428571
udeh https://path.com/p/2kVbsH 0.1428571
dikirim." https://path.com/p/2kVbsH 0.1428571
die https://path.com/p/2kVbsH 0.1428571
tibang pelayanannya, 0.5000000
#inpoRI pelayanannya, 0.5000000
pêgi." #dontforget 1.0000000
"lu taxi 1.0000000
orang?""" Kuatkan 1.0000000
NULL perdana 1.0000000
taksi untukmu 1.0000000
aèr pecah 0.1666667
kêrasan, pecah 0.1666667
amat pecah 0.1666667
kru pecah 0.1666667
gêpyak pecah 0.1666667
angêt. pecah 0.1666667
NULL tangani 1.0000000
NULL berasa 0.6250000
anget berasa 0.1250000
kurang berasa 0.1250000
barêng... berasa 0.1250000
NULL Receptionis 1.0000000
resik, udan 1.0000000
Badranaya"" 130 1.0000000
#ngaji karokean 1.0000000
NULL oppa 0.5000000
oppa oppa 0.5000000
NULL ringan, 1.0000000
kaitannye dikantor 1.0000000
yaa nyalain 1.0000000
"Nyok Morning 0.1666667
NULL Morning 0.1666667
makan Morning 0.1666667
Biar Morning 0.1666667
siang Morning 0.1666667
dulu! Morning 0.1666667
"Mane Allah 0.0400000
ame Allah 0.0400000
NULL Allah 0.7600000
pècun-pècun Allah 0.0400000
nyolong Allah 0.0400000
kolesterol Allah 0.0400000
didatain Allah 0.0400000
misan http://ow.ly/IosSG 1.0000000
lalu senyum" 1.0000000
NULL komunikasi 0.5000000
DKi, komunikasi 0.5000000
Makasih" tingkatkan 0.0909091
pangkèngnyah tingkatkan 0.0909091
ada tingkatkan 0.1818182
sêpréh tingkatkan 0.0909091
têrus tingkatkan 0.0909091
http://ift.tt/1F6ihhP tingkatkan 0.0909091
cokêlat tingkatkan 0.0909091
NULL tingkatkan 0.0909091
noda tingkatkan 0.0909091
bêwarna tingkatkan 0.0909091
NULL #elit 1.0000000
Rusia, MIMPI 1.0000000
Kangen tol, 0.5000000
diri tol, 0.5000000
miliyar trjdi 1.0000000
sengaje ampe 0.2000000
aye ampe 0.2000000
NULL ampe 0.6000000
NULL pasti. 1.0000000
budak berbeda... 1.0000000
aye terjatuh 1.0000000
Seandenye sedikit 0.0333333
kelep sedikit 0.0333333
shopee sedikit 0.0333333
*orang*" sedikit 0.0333333
NULL sedikit 0.4333333
dipungkiri, sedikit 0.0333333
Paytren sedikit 0.0333333
#Trans7RumahUya2507 sedikit 0.0333333
suseh... sedikit 0.0333333
cêritè sedikit 0.0333333
masalèh sedikit 0.0333333
terjage sedikit 0.0333333
banget..." sedikit 0.0333333
bocah. sedikit 0.0333333
jalan. sedikit 0.0333333
cêlanè sedikit 0.0333333
puguh, sedikit 0.0333333
sedikit sedikit 0.0333333
Charlês """"Yes, 1.0000000
NULL persaingan. 1.0000000
pompa ma'ruf 1.0000000
NULL dapetnya 1.0000000
tapi penderitaan 1.0000000
kecamatan kata2 0.2000000
NULL kata2 0.8000000
lu sexy 1.0000000
"Girang kalian." 0.5000000
NULL kalian." 0.5000000
Keputusan #pesonaramadan2018 1.0000000
sêmuanyah ngekos 0.2500000
dong.. ngekos 0.2500000
tau ngekos 0.2500000
Idup ngekos 0.2500000
sayang "Beli 0.2000000
kasih "Beli 0.2000000
"Pake "Beli 0.2000000
bumbu "Beli 0.2000000
Aye "Beli 0.2000000
amè @maltamananggrek) 0.1666667
http://tinyurl.com/lagcrks @maltamananggrek) 0.1666667
Golkar? @maltamananggrek) 0.1666667
Pêngurus @maltamananggrek) 0.1666667
PPP @maltamananggrek) 0.1666667
Pêngêsahan @maltamananggrek) 0.1666667
http://instagram.com/p/zT2KmhAx_4" mama 0.1666667
sopannye.. mama 0.1666667
ama... mama 0.1666667
NULL mama 0.5000000
terjangko kata-kata 0.5000000
NULL kata-kata 0.5000000
bilik me" 0.3333333
buat me" 0.3333333
tertentu me" 0.3333333
sêpêrti spm, 1.0000000
dan membuka 0.3333333
NULL membuka 0.3333333
Besar. membuka 0.3333333
"sêluruh internet." 1.0000000
http://instagram.com/p/zXhHf0Bk1l/ Tedalam.. 1.0000000
nyarap." hotel 0.0344828
layaknye hotel 0.0344828
dêngêrnyah hotel 0.0344828
laen. hotel 0.0344828
eluh" hotel 0.0344828
NULL hotel 0.5517241
Kureng hotel 0.0344828
Sumur. hotel 0.0344828
sêlimutnyah hotel 0.0344828
bakalkamar hotel 0.0344828
pêsawahan hotel 0.0344828
"ac hotel 0.0344828
sepah hotel 0.0344828
dinaekkin.." hotel 0.0344828
puncak skrg" 1.0000000
same. olahan. 1.0000000
disiapin... harusny 1.0000000
#LYFE" melomponggggg 0.3333333
bawa melomponggggg 0.3333333
mobil, melomponggggg 0.3333333
https://path.com/p/2yHp3I dan... 1.0000000
terjage http://bit.ly/182IdRx 1.0000000
merasa pengharum 0.2500000
bodo" pengharum 0.2500000
ngeri, pengharum 0.2500000
ambruk, pengharum 0.2500000
lah, Mungkin 0.0909091
puas Mungkin 0.0909091
NULL Mungkin 0.6363636
didantainnye. Mungkin 0.0909091
suseh Mungkin 0.0909091
NULL kerbaushit-nya.. 1.0000000
gacoannyè-wadon plan 1.0000000
bener berbicara 0.5000000
NULL berbicara 0.5000000
seneng. :')? 0.1111111
kerasan :')? 0.1111111
Pake :')? 0.1111111
nyengir, :')? 0.1111111
nerima :')? 0.1111111
saling :')? 0.1111111
milikin." :')? 0.1111111
ngebuat :')? 0.1111111
ame :')? 0.1111111
bengal terkena 0.5000000
banyak terkena 0.5000000
"pangkengnye karen 0.2000000
masih karen 0.2000000
dibersiin, karen 0.2000000
kudu karen 0.2000000
NULL karen 0.2000000
adem bukaan 1.0000000
NULL Four 1.0000000
sekarang" piring. 1.0000000
"Dari sih.." 1.0000000
makasih #TheElyXiOn_dot 0.1428571
tahun #TheElyXiOn_dot 0.1428571
selame #TheElyXiOn_dot 0.1428571
nemenin #TheElyXiOn_dot 0.1428571
udeh #TheElyXiOn_dot 0.1428571
Cinte #TheElyXiOn_dot 0.1428571
Aye #TheElyXiOn_dot 0.1428571
"Inih yayank 1.0000000
Cangklik :"""") 0.2000000
di :"""") 0.2000000
http://bit.ly/18a2SDc :"""") 0.2000000
korban :"""") 0.2000000
tenggelem :"""") 0.2000000
dukè bom, 0.2000000
dari bom, 0.2000000
NULL bom, 0.2000000
ranèh bom, 0.2000000
datêng bom, 0.2000000
NULL Ezechiel 1.0000000
tanpè mampu, 1.0000000
NULL bongkarin, 1.0000000
NULL temenku 0.5000000
"[USERNAME] temenku 0.5000000
Anti kesumbat 1.0000000
#fb" via: 0.5000000
setiap via: 0.5000000
pegih mobil,kdang 0.1250000
masjid. mobil,kdang 0.1250000
Atu mobil,kdang 0.1250000
paling mobil,kdang 0.1250000
depan. mobil,kdang 0.1250000
Safnye mobil,kdang 0.1250000
ari, mobil,kdang 0.1250000
die mobil,kdang 0.1250000
"ruangan "Ati2 1.0000000
ente bulan. 1.0000000
kejelasan mengomel, 1.0000000
"Kalu "Muka 1.0000000
NULL Rumah 0.3333333
"(Calon) Rumah 0.3333333
jamban. Rumah 0.3333333
kaga "Beberapa 0.3333333
sesuei "Beberapa 0.3333333
"Penginepan "Beberapa 0.3333333
kolah. lah 0.0333333
lah lah 0.0666667
intinye" lah 0.0333333
NULL lah 0.6666667
@PrillyBie lah 0.0333333
Bujug lah 0.0333333
http://bit.ly/1zkUE2p" lah 0.0333333
bantal." lah 0.0333333
#PDIP lah 0.0333333
Salibu lah 0.0333333
di PELAYANAN 1.0000000
http://instagram.com/p/zWM8zEusc2/ http://goo.gl/fb/GfqTC0 0.2500000
??#raffiahmad? http://goo.gl/fb/GfqTC0 0.2500000
ariannye http://goo.gl/fb/GfqTC0 0.2500000
enyak http://goo.gl/fb/GfqTC0 0.2500000
keluar keluar 0.0454545
Kemaren keluar 0.0454545
ngebon, keluar 0.0454545
bêrbagi keluar 0.0454545
kuotanye" keluar 0.0454545
NULL keluar 0.5909091
"Pelayanan keluar 0.0454545
orang keluar 0.0454545
mendidik keluar 0.0454545
nunjukin keluar 0.0454545
Setoran" worst 0.5000000
http://bit.ly/1vR1Ock worst 0.5000000
NULL hatinya.. 1.0000000
terseksa http://republika.co.id/r/nkf9sy 0.2500000
Kejem http://republika.co.id/r/nkf9sy 0.2500000
:'( http://republika.co.id/r/nkf9sy 0.2500000
" http://republika.co.id/r/nkf9sy 0.2500000
pengen kga 1.0000000
ape? ngecek 1.0000000
kaga berbulan-bulan 0.2857143
berbulan-bulan berbulan-bulan 0.1428571
berbau berbulan-bulan 0.1428571
sedep. berbulan-bulan 0.1428571
Sumur berbulan-bulan 0.1428571
dibersiin. berbulan-bulan 0.1428571
ngobak dijakarta 1.0000000
NULL Siaran 1.0000000
NULL ka 0.3333333
ngodeinnye. ka 0.3333333
Abdul ka 0.3333333
NULL sesuatu 0.7500000
pesawat sesuatu 0.0833333
sesuatu sesuatu 0.0833333
Mangkanye sesuatu 0.0833333
NULL prabocor 0.3333333
terlebih prabocor 0.3333333
biaye prabocor 0.3333333
NULL rebus 1.0000000
pembuktian 'delete' 0.5000000
bbijaksane 'delete' 0.5000000
brisik" lantai 0.0434783
"yaèlah lantai 0.0434783
kêkurangan lantai 0.0434783
Matenye.Udeh lantai 0.0434783
NULL lantai 0.6521739
palayanan lantai 0.0434783
dalêmnyè lantai 0.0434783
berpaedah)""" lantai 0.0434783
#wadonpêrtamèIndonèsia" lantai 0.0434783
kagak mengkambing 1.0000000
NULL kunantikan. 1.0000000
Cucu vela 1.0000000
buat Negatif: 1.0000000
begantung http://dlvr.it/8dzbWm 1.0000000
gêpyak-gêpyak. diciptakan 1.0000000
NULL Have 1.0000000
Bukti Saran 1.0000000
NULL booking 0.8000000
INI. booking 0.2000000
NULL Bersih 1.0000000
#ngaji dibis 1.0000000
NULL gatot 1.0000000
Montana, menutupi 1.0000000
Pendek http://goo.gl/fb/02Ylro 0.1111111
Diskon http://goo.gl/fb/02Ylro 0.1111111
[Nasional] http://goo.gl/fb/02Ylro 0.1111111
htttp://gpon.co/cfkxf http://goo.gl/fb/02Ylro 0.1111111
Celane http://goo.gl/fb/02Ylro 0.1111111
- http://goo.gl/fb/02Ylro 0.1111111
Rp http://goo.gl/fb/02Ylro 0.1111111
Tibang http://goo.gl/fb/02Ylro 0.1111111
Pria http://goo.gl/fb/02Ylro 0.1111111
NULL ""Iya, 1.0000000
ngasih maka 0.1666667
gituu" maka 0.0833333
lakuin maka 0.0833333
seksi maka 0.0833333
NULL maka 0.5000000
yang maka 0.0833333
sinetron sial, 0.2500000
vol sial, 0.2500000
sctv-rcti sial, 0.2500000
tinggi sial, 0.2500000
NULL darahnya 1.0000000
korban" Perjuangan? 1.0000000
NULL kek 0.8333333
kayaknye kek 0.0833333
kayak kek 0.0833333
NULL Keras 1.0000000
kelietan LESS 1.0000000
jaga Tuhan""""." 0.1666667
siape? Tuhan""""." 0.1666667
ye? Tuhan""""." 0.1666667
Tuhan””." Tuhan""""." 0.1666667
die Tuhan""""." 0.1666667
Bareng Tuhan""""." 0.1666667
NULL kekasih 1.0000000
PRILAKU bising, 1.0000000
temen itu.....giliran 1.0000000
Para captionnya 1.0000000
NULL BERTAHAN 1.0000000
Ênih "Pemimpin 1.0000000
NULL bukannya 0.7500000
belajar bukannya 0.2500000
http://bit.ly/1vSfEuU memberiku 0.5000000
NULL memberiku 0.5000000
NULL aman, 1.0000000
panten ramah2. 1.0000000
NULL kejadian 0.2500000
#LDRkronis" kejadian 0.2500000
ye kejadian 0.5000000
Kidul cowok, 1.0000000
NULL raga? 1.0000000
"Ade menolong, 1.0000000
nuang lagu 0.0714286
mana lagu 0.0714286
kalu lagu 0.0714286
Bali lagu 0.0714286
NULL lagu 0.7142857
kagak Syahrini.Suka 1.0000000
Bukan kurang... 1.0000000
yang idol, 1.0000000
kite ngangkat 0.5000000
Diemnye ngangkat 0.5000000
ada management 0.3333333
nyarap." management 0.3333333
kagak management 0.3333333
NULL smua 0.7500000
biar smua 0.2500000
NULL menurut 0.3333333
wadon, menurut 0.1666667
(lagi) menurut 0.1666667
pan" menurut 0.1666667
Paytren menurut 0.1666667
NULL *gak 1.0000000
NULL anti-islam? 1.0000000
ajer, fix 0.1111111
ngimpi fix 0.1111111
pangkeng fix 0.1111111
"semacem fix 0.1111111
kaku, fix 0.1111111
kagsk fix 0.1111111
Resepsionis fix 0.1111111
terlalu fix 0.1111111
buruk. fix 0.1111111
Bam... Berag." 0.2000000
http://bit.ly/1Lp73ZP" Berag." 0.2000000
Praksi Berag." 0.2000000
Golkar, Berag." 0.2000000
DPR Berag." 0.2000000
rêncana Kota 0.1111111
udeh Kota 0.1111111
berhasil. Kota 0.1111111
formulir Kota 0.1111111
NULL Kota 0.2222222
sebelon Kota 0.1111111
ngirim Kota 0.1111111
sedikit, Kota 0.1111111
NULL sayangkan 1.0000000
Rekam Jejak 1.0000000
NULL ka, 1.0000000
WEST tampilan 0.1428571
pernah tampilan 0.1428571
belon tampilan 0.1428571
ngejanjiin. tampilan 0.1428571
keliatan tampilan 0.1428571
WILD tampilan 0.1428571
tampilan tampilan 0.1428571
NULL loe 1.0000000
molor, selimut, 0.1250000
cume selimut, 0.1250000
kaen selimut, 0.1250000
duitnye selimut, 0.1250000
ade selimut, 0.2500000
NULL selimut, 0.1250000
buat selimut, 0.1250000
ngêmêrcayèin 'blusukan' 1.0000000
[USERNAME] kubuat 1.0000000
NULL tablet+vitamin 1.0000000
"Beneran "Sungguh 0.2000000
BEJAD "Sungguh 0.2000000
Anggote "Sungguh 0.2000000
DPR, "Sungguh 0.2000000
banget...!! "Sungguh 0.2000000
terus. deh... 0.5000000
nerobos deh... 0.5000000
nitip "Positif: 1.0000000
juga. Viral 0.5000000
NULL Viral 0.5000000
NULL marah2 1.0000000
doang sini. 0.1666667
tibang sini. 0.1666667
Manajemen sini. 0.1666667
NULL sini. 0.5000000
domba.. daftarnya 1.0000000
Air konsen, 0.1428571
seari, konsen, 0.1428571
penumpang konsen, 0.1428571
pesawat konsen, 0.1428571
""""kejeda"""" konsen, 0.1428571
pindah konsen, 0.1428571
Lion konsen, 0.1428571
yang bayangmu 1.0000000
sêlamêt Terimalah 1.0000000
bocor, den" 0.1250000
kurang den" 0.1250000
resik" den" 0.1250000
pangkeng den" 0.1250000
rusak, den" 0.1250000
westapel den" 0.1250000
keran den" 0.1250000
"AC den" 0.1250000
http://brt.st/4toD BL 1.0000000
one wanna 0.5000000
anggotanye wanna 0.5000000
NULL nyamuk.kamar 1.0000000
NULL pikirkan, 1.0000000
ngulang [C48] 0.2500000
rasenye [C48] 0.2500000
aye [C48] 0.2500000
"pingin [C48] 0.2500000
NULL Pada 1.0000000
NULL penanggung 1.0000000
jadi sukanya 0.5000000
di sukanya 0.5000000
NULL layaknya 0.5000000
layaknye layaknya 0.5000000
lumayan..mikir-mikir ktika 0.3333333
asian,pangkeng ktika 0.3333333
ènzim ktika 0.3333333
NULL channel 0.5555556
sêmuah channel 0.1111111
muke channel 0.1111111
ituh channel 0.1111111
disukain channel 0.1111111
kêrawat drpd 0.2000000
NULL drpd 0.2000000
beberape drpd 0.2000000
idep, drpd 0.2000000
nama drpd 0.2000000
https://path.com/p/3tZQWR http://ift.tt/1FFrIIH 1.0000000
guah sngt 0.5000000
NULL sngt 0.5000000
senyum Lumajang, 1.0000000
Kalo Klu 1.0000000
NULL berteman 1.0000000
pantes komputer, 1.0000000
NULL muslim 0.5000000
"#KabarAnget: muslim 0.5000000
Bang puas,trima 0.1428571
@mariokacang puas,trima 0.1428571
io"""" puas,trima 0.1428571
apgan." puas,trima 0.1428571
mirip puas,trima 0.1428571
@@GintangNisyam_F: puas,trima 0.1428571
Mpok puas,trima 0.1428571
WEST menjanjikan. 1.0000000
bener-bener http://bit.ly/1LHiWZf 0.2000000
pangen http://bit.ly/1LHiWZf 0.2000000
sih http://bit.ly/1LHiWZf 0.2000000
juge http://bit.ly/1LHiWZf 0.2000000
bebacotan http://bit.ly/1LHiWZf 0.2000000
makse empati. 1.0000000
buat #travelling 1.0000000
PDIP, supir. 1.0000000
Bang abisnya 1.0000000
tanggal bersamakuu 1.0000000
Kèk tabungin(:" 0.1666667
THT tabungin(:" 0.1666667
Disèntêrin, tabungin(:" 0.1666667
Êluh tabungin(:" 0.1666667
Baè" tabungin(:" 0.1666667
Doktêr tabungin(:" 0.1666667
lama 3,5 0.5000000
pitik. 3,5 0.5000000
""iye"", showerpun 1.0000000
tiap solat 0.1111111
dari solat 0.1111111
ari solat 0.1111111
tapi solat 0.1111111
...." solat 0.1111111
NULL solat 0.3333333
kantor solat 0.1111111
Kagatenang nervous 1.0000000
NULL nyerang 1.0000000
NULL temen-temen 1.0000000
NULL hektar, 1.0000000
Bêpêngaruh okay.."""" 1.0000000
udeh membuktikan 1.0000000
NULL Prabowo 1.0000000
syar'i, #infosekitarkudus 0.1250000
Encang #infosekitarkudus 0.1250000
Tapi #infosekitarkudus 0.1250000
Secare #infosekitarkudus 0.1250000
kapir. #infosekitarkudus 0.1250000
Nun #infosekitarkudus 0.1250000
Allah. #infosekitarkudus 0.1250000
die #infosekitarkudus 0.1250000
NULL cintaku 1.0000000
Babeh rela. 0.1666667
poto rela. 0.1666667
ngunggah rela. 0.1666667
ketue rela. 0.1666667
pengen rela. 0.1666667
(omong-omong rela. 0.1666667
NULL Sadis 0.1250000
@SarahSechan_NET Sadis 0.1250000
nyate Sadis 0.1250000
Surya)" Sadis 0.1250000
tearah Sadis 0.1250000
apekah? Sadis 0.1250000
[USERNAME] Sadis 0.1250000
tutupnyah" Sadis 0.1250000
NULL ketauan 0.5000000
http://bit.ly/1zkUE2p" ketauan 0.5000000
Êmpêt Rendang 1.0000000
ampe (2018) 1.0000000
"Ade "Siapakah 1.0000000
Tolong cma 1.0000000
Yahya dkshnya 0.5000000
Tantowi dkshnya 0.5000000
ngêgêntak, ?? 0.0909091
http://instagram.com/p/zT2KmhAx_4" ?? 0.0909091
NULL ?? 0.5454545
"00:11 ?? 0.0909091
tapi ?? 0.0909091
"Akhirnye, ?? 0.0909091
make korbannya.mohon 1.0000000
NULL noda,ni 1.0000000
orang dicariin 1.0000000
Aneh, "Sprei 0.2500000
Menkumham "Sprei 0.2500000
"#Beritengedadak: "Sprei 0.2500000
Ngapa "Sprei 0.2500000
NULL tegar 1.0000000
siswe. cucp 1.0000000
kasus vertikal 1.0000000
nanya Kendaraan 1.0000000
diri @PDemokrat 0.2500000
Peri) @PDemokrat 0.2500000
bisè @PDemokrat 0.2500000
nêmpo @PDemokrat 0.2500000
NULL aka 1.0000000
pangen Tingkatkan 1.0000000
NULL lansung 1.0000000
kê Maling 0.2500000
"Kalu Maling 0.2500000
pêrjalanan Maling 0.2500000
rêncana Maling 0.2500000
NULL bagi 0.6250000
Namè)" bagi 0.0625000
panas bagi 0.1250000
Delok bagi 0.0625000
'blukusan'.#JokowiSekaliLagi" bagi 0.0625000
nyang bagi 0.0625000
NULL hadapan 1.0000000
NULL Takkusangka 1.0000000
#TheElyXiOn_dot ketemunya 1.0000000
#TapsirMimpi" penurunan. 1.0000000
ngebusuk nabrak 0.1250000
elu nabrak 0.1250000
terhormat nabrak 0.1250000
minggat nabrak 0.1250000
? nabrak 0.2500000
mantan nabrak 0.1250000
sono nabrak 0.1250000
NULL memilihku. 1.0000000
"Searoh sendiri2 1.0000000
kêcêlakaan Kecam 1.0000000
Tapi "Untukumu 1.0000000
napsunyè saling 0.0555556
......ye.... saling 0.1111111
sayang-sayangnye" saling 0.0555556
NULL saling 0.6666667
eni?" saling 0.0555556
nyang saling 0.0555556
"Rumor pour 0.3333333
kayak pour 0.3333333
êni pour 0.3333333
"#Aquarius segede 1.0000000
[USERNAME] "Ciptaanmu 1.0000000
ngedukung Teroris." 0.2000000
ituh Teroris." 0.2000000
Teroris." Teroris." 0.2000000
88. Teroris." 0.2000000
Selaen Teroris." 0.2000000
Dukung Ayokayok 0.1250000
Dompet Ayokayok 0.1250000
Program Ayokayok 0.1250000
Jeneponto Ayokayok 0.1250000
Dhuafa Ayokayok 0.1250000
Bupati Ayokayok 0.1250000
Ekonomi Ayokayok 0.1250000
http://bit.ly/1wis6Kj Ayokayok 0.1250000
Al-Qur'an issue 0.1666667
DAN issue 0.1666667
ayat issue 0.1666667
hadis issue 0.1666667
& issue 0.1666667
bêrbagi-bagi issue 0.1666667
NULL trainee 1.0000000
ama habis, 0.1250000
listrik habis, 0.1250000
pangkeng habis, 0.1250000
karne habis, 0.1250000
kudu habis, 0.1250000
kebangun habis, 0.1250000
token habis, 0.1250000
abis, habis, 0.1250000
di gadis 0.5000000
NULL gadis 0.5000000
haha toilet, 0.2500000
NULL toilet, 0.7500000
dimarih kegiatan 0.3333333
NULL kegiatan 0.6666667
NULL cowok. 1.0000000
ruangan @nogoyoso: 0.3333333
Ade @nogoyoso: 0.3333333
beberape @nogoyoso: 0.3333333
#Puncak212" lagi 0.0079365
Ngapus lagi 0.0079365
nyariin lagi 0.0079365
percaye lagi 0.0079365
ada lagi 0.0079365
Livable" lagi 0.0079365
dèwèk<3 lagi 0.0079365
http://bit.ly/1vR9b3m lagi 0.0079365
nyengir lagi 0.0079365
diprotes? lagi 0.0079365
gorèng lagi 0.0079365
ajer lagi 0.0079365
rêsik" lagi 0.0079365
Name lagi 0.0079365
pikir lagi 0.0079365
tong lagi 0.0079365
namanye lagi 0.0158730
cokêlat lagi 0.0079365
die lagi 0.0079365
andukin lagi 0.0079365
lietnye lagi 0.0079365
meja lagi 0.0079365
" lagi 0.0079365
mandi. lagi 0.0079365
https://path.com/p/47C75r lagi 0.0158730
#inpoRI lagi 0.0079365
Australia lagi 0.0079365
di lagi 0.0238095
penjagenye lagi 0.0079365
ujan" lagi 0.0079365
radikal lagi 0.0079365
masukan lagi 0.0079365
geser lagi 0.0079365
"Astagfirullah, lagi 0.0079365
Badrodin, lagi 0.0079365
isinyah lagi 0.0158730
Tuker lagi 0.0079365
dilecehin." lagi 0.0079365
bêwarna lagi 0.0079365
kuotanye" lagi 0.0079365
yang lagi 0.0238095
NULL lagi 0.6111111
Nemu lagi 0.0079365
banget." Jauhkan 1.0000000
ampe orderan 0.1666667
blanjean orderan 0.1666667
Inih orderan 0.1666667
langganan orderan 0.1666667
kaga orderan 0.1666667
NULL orderan 0.1666667
NULL gimana? 0.6666667
kerudung, gimana? 0.3333333
NULL ENAK 0.3333333
Februari ENAK 0.3333333
http://youtu.be/7nZLBtxbt7g?a" ENAK 0.3333333
NULL tuaku 1.0000000
sukmanyah tida 0.1250000
gè tida 0.1250000
ati tida 0.1250000
kê tida 0.1250000
Sêhingga tida 0.1250000
apah tida 0.1250000
guah. tida 0.1250000
niupin tida 0.1250000
d" #banggamengawalmu 0.3333333
menginep #banggamengawalmu 0.3333333
pernah #banggamengawalmu 0.3333333
adem" terus-menerus). 1.0000000
NULL hewan 0.5000000
dari hewan 0.5000000
NULL Cakap 1.0000000
"Pelayanan "mantap, 0.5000000
NULL "mantap, 0.5000000
NULL kepala 0.5000000
betanduk kepala 0.5000000
kaga Solusi 0.2500000
kutu Solusi 0.2500000
adem" Solusi 0.2500000
sekali Solusi 0.2500000
NULL sebentar 1.0000000
Ngêlongok Badan 1.0000000
benêr tempel, 1.0000000
NULL besar,tp 1.0000000
NULL sex. 1.0000000
ye habis" 0.1666667
lebay habis" 0.3333333
-_- habis" 0.1666667
lu habis" 0.1666667
sih habis" 0.1666667
Masa "Nemuin 0.2500000
ntu "Nemuin 0.2500000
akhirnye... "Nemuin 0.2500000
"Dan "Nemuin 0.2500000
maap. benahin 1.0000000
mimpin.soalnye sdh 0.0370370
udeh sdh 0.0740741
sêkola sdh 0.0370370
NULL sdh 0.5925926
lebay sdh 0.0370370
alepan. sdh 0.0370370
Rakyat sdh 0.0370370
sangka sdh 0.0370370
Ahmad sdh 0.0370370
Halte, sdh 0.0370370
perlakuan sdh 0.0370370
aye pelaku2 1.0000000
sekalian, golput 0.2000000
Pancasila golput 0.2000000
ntar golput 0.2000000
aje golput 0.2000000
golput golput 0.2000000
https://path.com/p/1g2xgZ" piye 1.0000000
poto AL 1.0000000
NULL Imlek 0.5000000
kertas Imlek 0.5000000
NULL jantung, 1.0000000
NULL museum 1.0000000
NULL hm, 1.0000000
ntu Trisakti, 0.6666667
nyabet Trisakti, 0.3333333
NULL susah, 1.0000000
ngeri keberkahan 1.0000000
#Psikologi Lampung 0.5000000
NULL Lampung 0.5000000
berotak anda 0.0384615
sampi anda 0.0384615
bise anda 0.0384615
telepon anda 0.0384615
komplen anda 0.0384615
ngerasa anda 0.0384615
NULL anda 0.7307692
diperkose? anda 0.0384615
waktunye petjun2 0.3333333
nyediein petjun2 0.3333333
udeh petjun2 0.3333333
ayè.. gerbang 0.2500000
NULL gerbang 0.7500000
lokasinye ledakan 1.0000000
nyarapnye http://fb.me/1BvR2WkqB 0.1428571
banget" http://fb.me/1BvR2WkqB 0.1428571
kagak http://fb.me/1BvR2WkqB 0.1428571
panasnye http://fb.me/1BvR2WkqB 0.1428571
"aer http://fb.me/1BvR2WkqB 0.1428571
seuprit http://fb.me/1BvR2WkqB 0.1428571
idup, http://fb.me/1BvR2WkqB 0.1428571
NULL Halloween 1.0000000
kagak "Selagi 1.0000000
darah,, Doakn 1.0000000
aye berdua. 0.3333333
pengen berdua. 0.3333333
denger." berdua. 0.3333333
beranak AiRmAtA.sY 1.0000000
Desa BODO 0.5000000
Konstruksi BODO 0.5000000
NULL menggarap 1.0000000
NULL djaga 1.0000000
NULL kambing 1.0000000
peraturan anu, 0.3333333
pemerintah anu, 0.3333333
ToC. anu, 0.3333333
ama sopan." 1.0000000
20% hangat..." 0.1250000
diskon hangat..." 0.1250000
make hangat..." 0.1250000
promo hangat..." 0.1250000
di hangat..." 0.1250000
Executives hangat..." 0.1250000
http://ow.ly/JmryC hangat..." 0.1250000
The hangat..." 0.1250000
NULL ideal 1.0000000
NULL bisanya 1.0000000
salah sgtu 0.1428571
keuntungan, sgtu 0.1428571
atunye sgtu 0.1428571
nambah sgtu 0.1428571
siswe. sgtu 0.1428571
pinter sgtu 0.1428571
ngasih sgtu 0.1428571
NULL pusat..saya 1.0000000
Démokrat closet 1.0000000
barangnye berkarat, 1.0000000
NULL editing. 1.0000000
sejaman. gt. 0.2500000
http://bit.ly/18c9ocw" gt. 0.2500000
"Setelah gt. 0.2500000
:((((( gt. 0.2500000
#ARB koreanya 1.0000000
NULL Hawa-hawanya 1.0000000
Beli "nggak 1.0000000
NULL wara-wiri 1.0000000
tipê Calon 0.2500000
aye Calon 0.2500000
NULL Calon 0.2500000
merad." Calon 0.2500000
NULL bacain 1.0000000
"Pangkengnye "Raffi 1.0000000
meluk" benar-benar 0.1250000
ruangan benar-benar 0.1250000
Novita benar-benar 0.1250000
pèngèn benar-benar 0.1250000
NULL benar-benar 0.2500000
bahagiè benar-benar 0.1250000
http://goo.gl/VUXs9j benar-benar 0.1250000
nyebarinnye Streaming 0.5000000
kembali. Streaming 0.5000000
sih. dst.... 1.0000000
NULL lelaku 1.0000000
#savejalanraye #Malang" 0.3333333
#kotamalang #Malang" 0.3333333
#Malang" #Malang" 0.3333333
kobangan par... 0.5000000
keruh.! par... 0.5000000
lega kuning2 1.0000000
kedengeran." kedap 0.5000000
pêrnah kedap 0.5000000
ênyak mamake 1.0000000
Chexoz) mbak?" 0.3333333
? mbak?" 0.3333333
https://path.com/p/1g2xgZ" mbak?" 0.3333333
, busy 1.0000000
NULL mangut, 1.0000000
http://kom.ps/AFploc cintaaaaaa 1.0000000
Pas Dikriminalisasi 0.2000000
Jokowi Dikriminalisasi 0.2000000
Gede Dikriminalisasi 0.2000000
Milih Dikriminalisasi 0.2000000
#PojokAtu Dikriminalisasi 0.2000000
NULL #PERSIBDAY 1.0000000
6-7 BeritaSatu 1.0000000
kenangan "Secara 0.3333333
Seandenye "Secara 0.3333333
ntu "Secara 0.3333333
tatap "Waallahu 1.0000000
NULL Naik 0.5000000
woy. Naik 0.5000000
Dipilih Tertekan, 1.0000000
hape-elu! @Pr1ncesSyahrini 0.3333333
di @Pr1ncesSyahrini 0.3333333
#fiestapoinapps @Pr1ncesSyahrini 0.3333333
WKWKWKW Airyrooms.. 0.2000000
TEN Airyrooms.. 0.2000000
SINI Airyrooms.. 0.2000000
MAJU Airyrooms.. 0.2000000
TULANGNYE Airyrooms.. 0.2000000
tibè-tibè 2018" 1.0000000
begituh aing. 1.0000000
genggeman "di 1.0000000
make otewe? 0.1666667
wangi otewe? 0.1666667
pakean otewe? 0.1666667
paporit, otewe? 0.1666667
mandi, otewe? 0.1666667
http://instagram.com/p/zXMKb3iM3k/" otewe? 0.1666667
NULL help 1.0000000
KENYATEAN." alat 0.5000000
NULL alat 0.5000000
NULL lenyap 1.0000000
Malah @fionafachru_ 0.1428571
Aneh, @fionafachru_ 0.1428571
Jokowi @fionafachru_ 0.1428571
dari @fionafachru_ 0.1428571
Interpelasi @fionafachru_ 0.1428571
Gosip @fionafachru_ 0.1428571
Berembus @fionafachru_ 0.1428571
NULL Pertengahan 1.0000000
Bandung) https://path.com/p/3tZQWR 0.2000000
https://path.com/p/4lfiQe https://path.com/p/3tZQWR 0.2000000
? https://path.com/p/3tZQWR 0.2000000
Maskumambang https://path.com/p/3tZQWR 0.2000000
Jalan https://path.com/p/3tZQWR 0.2000000
rèsèpsionisnyah doang"" 1.0000000
NULL Perampok 1.0000000
menj... Refinery 0.1250000
udeh Refinery 0.1250000
lame Refinery 0.1250000
sebenernye Refinery 0.1250000
Lena Refinery 0.1250000
http://bit.ly/1LUZrN7 Refinery 0.1250000
dijalanin Refinery 0.1250000
ntu Refinery 0.1250000
ngebikin putus. 1.0000000
"#Beritengedadak: diganti 0.1428571
NULL diganti 0.4285714
kudu diganti 0.1428571
semuanye..wifi..ac diganti 0.1428571
keresikannye diganti 0.1428571
siramannye kangen-kangenan, 1.0000000
minder... mereput 1.0000000
sis Yeayy. 1.0000000
pelatian twitter 0.1250000
kek twitter 0.1250000
http://dlvr.it/8mTxl3 twitter 0.2500000
gue twitter 0.1250000
NULL twitter 0.3750000
têrus coc 1.0000000
NULL pembahasan 1.0000000
bukan #kapanmarineeeeeeeeyaAllah" 1.0000000
Ruangan Ruangan 1.0000000
ora oat 1.0000000
NULL dilecehkan 1.0000000
semue Sampailah 0.2000000
(di Sampailah 0.2000000
Pondok Sampailah 0.2000000
:3 Sampailah 0.2000000
bayar Sampailah 0.2000000
minggat? Effect 0.5000000
kerajaannye. Effect 0.5000000
NULL ma, 1.0000000
persaingan. secara 0.1000000
semue secara 0.1000000
NULL secara 0.4000000
wajar secara 0.1000000
http://brt.st/4toD secara 0.1000000
-_- secara 0.1000000
têrbatês." secara 0.1000000
" pancasila 1.0000000
baek, Pakaian 0.2500000
kureng Pakaian 0.2500000
bantalnye Pakaian 0.2500000
"Tempatnye Pakaian 0.2500000
NULL lainnya 0.5714286
mending lainnya 0.1428571
CEPET lainnya 0.1428571
Karne lainnya 0.1428571
NULL @smartekselensia! 1.0000000
satpam demam 1.0000000
sedikit sahur, 0.5000000
NULL sahur, 0.5000000
NULL menginspirasi 1.0000000
kênal laksanakan.. 1.0000000
NULL mbk 1.0000000
VIDEO dilancarkan 0.5000000
NULL dilancarkan 0.5000000
Sêbut jadinya 0.1428571
girang, jadinya 0.1428571
'penunggu jadinya 0.1428571
#Kapanlagih jadinya 0.1428571
nyiksa jadinya 0.1428571
NULL jadinya 0.2857143
NULL telkom 1.0000000
NULL MEMBERI 1.0000000
NULL pasti, 1.0000000
Ntu Shinhwa. 0.1250000
wkwk Shinhwa. 0.1250000
xD. Shinhwa. 0.1250000
mulu. Shinhwa. 0.1250000
pengen Shinhwa. 0.1250000
joget Shinhwa. 0.1250000
Shinhwa Shinhwa. 0.1250000
Bikin Shinhwa. 0.1250000
lietnye terlebih 0.1666667
jadi terlebih 0.1666667
kucrit terlebih 0.1666667
NULL terlebih 0.5000000
NULL halusnya 1.0000000
NULL bertanggung 1.0000000
gayêman BANGGANYA 1.0000000
NULL nyaman, 0.7142857
gue nyaman, 0.1428571
sebenernye nyaman, 0.1428571
#NETwaze mencantumkan 1.0000000
NULL AJA 1.0000000
bênêr menghilang 0.5000000
NULL menghilang 0.5000000
ngêcèwain... geng 1.0000000
NULL hadiah 0.7500000
""Ngeri hadiah 0.2500000
"bau menaikkan 1.0000000
dilakuin, Silahkan 1.0000000
NULL game 0.2500000
jambannyè game 0.2500000
bêlon game 0.2500000
gunain game 0.2500000
Afgan: molor, 1.0000000
http://bit.ly/1F79hJ9" "EGP 1.0000000
CPNS?" lolos 0.5000000
kuliah, lolos 0.5000000
iseng jdnya 0.3333333
dapur jdnya 0.3333333
ke jdnya 0.3333333
NULL """"Senakal-nakalnya 1.0000000
temennye. temennya. 0.2500000
hp temennya. 0.2500000
minjem temennya. 0.2500000
""""kabar"""", temennya. 0.2500000
NULL Radar 1.0000000
NULL berlemak 1.0000000
NULL kaka 0.3333333
kuru kaka 0.3333333
http://dlvr.it/8f0wG0 kaka 0.3333333
NULL Helloowww 1.0000000
NULL aktif 1.0000000
-TAMAT-" disertai 0.3333333
NULL disertai 0.3333333
Maké disertai 0.3333333
Hafid sela. 1.0000000
"Gebleg divonis 1.0000000
kêlêpêk"" lift 0.1666667
NULL lift 0.5000000
lip lift 0.1666667
"pelayan lift 0.1666667
"Wayah Kerja 1.0000000
Pulse engga." 0.3333333
Beli engga." 0.3333333
Pas engga." 0.3333333
#BlusukanDunieMaye" MP3EI 1.0000000
NULL bakwan 1.0000000
NULL .... 0.7500000
ayè .... 0.1250000
kudungan." .... 0.1250000
NULL BANGET 1.0000000
jeba... menangis, 1.0000000
gawe dosa 0.2000000
NULL dosa 0.8000000
d" #pucuk 1.0000000
negeri." ahmad, 1.0000000
cume kecapean 1.0000000
http://dlvr.it/8mdY2Z ma 1.0000000
NULL kebelakang 1.0000000
NULL kenyataan 0.5000000
rasè kenyataan 0.5000000
http://instagram.com/p/zXcrjFvEL2/ DSAR 1.0000000
kadang Wifinya 0.1428571
@Denshu: Wifinya 0.1428571
anget Wifinya 0.1428571
Aer Wifinya 0.1428571
idup Wifinya 0.1428571
"Entong Wifinya 0.1428571
kagak Wifinya 0.1428571
NULL seandainya 0.5000000
orang..justru seandainya 0.5000000
B.." Capek 1.0000000
nape bolos 0.5000000
NULL bolos 0.5000000
mulie bulan, 0.5000000
NULL bulan, 0.5000000
jonjon terimalah 1.0000000
kaye ajak 0.5000000
NULL ajak 0.5000000
NULL soundcheck, 1.0000000
benci" dingin, 0.0625000
digunain. dingin, 0.0625000
penyelamat dingin, 0.0625000
ame dingin, 0.0625000
ngangkat dingin, 0.0625000
NULL dingin, 0.6875000
sebelom belinya 0.2000000
skripsi belinya 0.2000000
wkwk." belinya 0.2000000
ngadepin belinya 0.2000000
rohani belinya 0.2000000
1 mendapat 0.3333333
NULL mendapat 0.6666667
021-7490932 "#Aquarius 1.0000000
siap terbuka. 0.1666667
kêbukè. terbuka. 0.1666667
sêmêntarè. terbuka. 0.1666667
êni terbuka. 0.1666667
Kotak terbuka. 0.3333333
nyala. duduk2 0.1428571
spy duduk2 0.1428571
jagain duduk2 0.1428571
supaye duduk2 0.1428571
AC duduk2 0.1428571
tetep duduk2 0.1428571
karne duduk2 0.1428571
bales """"@shayanayusoff: 0.3333333
malingnye """"@shayanayusoff: 0.3333333
aye """"@shayanayusoff: 0.3333333
NULL alesan 1.0000000
NULL cita-cita 1.0000000
kesepian" Program 1.0000000
wifi #maukerja 0.1428571
ame #maukerja 0.1428571
gerobog #maukerja 0.1428571
Kagak #maukerja 0.1428571
keresikan #maukerja 0.1428571
perabot. #maukerja 0.1428571
ada #maukerja 0.1428571
NULL tman2 1.0000000
nyincang buang 0.3333333
NULL buang 0.3333333
rêsik buang 0.3333333
Anis jurnal 0.5000000
mao jurnal 0.5000000
kejam Kebersihan 0.2000000
http://bit.ly/1F25MUw Kebersihan 0.2000000
NULL Kebersihan 0.4000000
dukung, Kebersihan 0.2000000
dikonsumsi manggil 1.0000000
CINTE gais. 1.0000000
bikinnye tercium 0.5000000
segampil tercium 0.5000000
basa-basi daging 1.0000000
Ulfah... lakukan 0.3333333
NULL lakukan 0.6666667
keresikan kontrolnya 1.0000000
ngerubeh nanti 0.0384615
korban." nanti 0.0384615
pêrtanyaan nanti 0.0384615
Duit nanti 0.0384615
bakal nanti 0.1153846
kasian nanti 0.0384615
dikêmbaliin. nanti 0.0384615
NULL nanti 0.4615385
tuhan" nanti 0.0384615
perubahan nanti 0.0384615
pizzahut. nanti 0.0384615
jadi nanti 0.0769231
têtapi #Trans7RumahUya2507 0.2000000
dirham." #Trans7RumahUya2507 0.2000000
lêbih #Trans7RumahUya2507 0.2000000
kagak #Trans7RumahUya2507 0.2000000
hargènyè #Trans7RumahUya2507 0.2000000
Tolong gara2 0.2500000
NULL gara2 0.5000000
Ayè gara2 0.2500000
umroh-aji. jam2nya 1.0000000
:3 meningkat. 1.0000000
NULL Bahas 1.0000000
NULL menumpuknya 1.0000000
NULL Kiya 0.5000000
guah Kiya 0.5000000
kaen. kiamat,tetap 1.0000000
liburan "wuih 0.2500000
Kapan "wuih 0.2500000
"Heloo, "wuih 0.2500000
Liburan...Gawe "wuih 0.2500000
mao Keramiaan 0.5000000
NULL Keramiaan 0.5000000
harganye." keamanan 0.2500000
jugê keamanan 0.2500000
sekalian keamanan 0.2500000
NULL keamanan 0.2500000
sukmanyah berpaling 0.2500000
NULL berpaling 0.5000000
dalêm berpaling 0.2500000
gojeknye yhaa.. 1.0000000
atasannye fleksibel, 1.0000000
"[USERNAME] "Ngapain 1.0000000
NULL didirikan 0.5000000
lu didirikan 0.5000000
NULL katanya 0.5000000
ngajarinnyah katanya 0.1666667
pênjêlasannyè katanya 0.1666667
asuransi katanya 0.1666667
Jangankan yaTuhan 1.0000000
JEJU Marah 0.1111111
LU Marah 0.1111111
! Marah 0.1111111
cetakan Marah 0.1111111
DIEM Marah 0.1111111
KAGA Marah 0.1111111
DI Marah 0.1111111
AYE Marah 0.1111111
DEMEN Marah 0.1111111
ame gereja.... 0.2000000
langsung gereja.... 0.2000000
disaranin gereja.... 0.2000000
katanye gereja.... 0.2000000
cocok, gereja.... 0.2000000
kureng tkt 1.0000000
"BENER mengharukan." 0.1666667
MIMPIN, mengharukan." 0.1666667
HATTA mengharukan." 0.1666667
RAJASE mengharukan." 0.1666667
APE mengharukan." 0.1666667
JIKE mengharukan." 0.1666667
Salurannyè Mengapa 0.1250000
ngebangun? Mengapa 0.1250000
MACCA Mengapa 0.1250000
ketulusan, Mengapa 0.1250000
NULL Mengapa 0.3750000
"Yakin, Mengapa 0.1250000
Allah, harga, 0.1428571
tulung." harga, 0.1428571
ayè harga, 0.1428571
Kuatin harga, 0.1428571
"Ya harga, 0.1428571
pênêtnyè. harga, 0.1428571
ati harga, 0.1428571
sih. #beriGIZIcukup 1.0000000
NULL @DAlexandro. 1.0000000
kire-kire?" emmm 1.0000000
brojol dah 0.0454545
https://path.com/p/6MzT8" dah 0.0454545
kantor dah 0.0454545
terdapet dah 0.0454545
adem, dah 0.0454545
juge. dah 0.0454545
Mahè dah 0.0909091
NULL dah 0.5454545
mosting dah 0.0454545
apè, dah 0.0454545
Sisenye kaya 0.0384615
aje kaya 0.0384615
Kesonoin.. kaya 0.0384615
NULL kaya 0.5384615
yang kaya 0.0384615
syarat" kaya 0.0384615
meninggal.Semoge kaya 0.0384615
ngeliet kaya 0.0769231
enyaknye kaya 0.0384615
kebutuan... kaya 0.0384615
omgongan kaya 0.0384615
http://bit.ly/1vOCrrI kaya 0.0384615
kita rokok." 0.2000000
dalêm rokok." 0.1000000
saban rokok." 0.2000000
[URL]" rokok." 0.1000000
kêbêrhasilan rokok." 0.1000000
#pêbisnismuda rokok." 0.1000000
mênuju rokok." 0.1000000
lèngkah rokok." 0.1000000
semuenye." PENUH 1.0000000
NULL lah" 0.1250000
niei lah" 0.1250000
putusan lah" 0.1250000
http://antaranews.com/480952 lah" 0.1250000
Demokrat lah" 0.1250000
presiden lah" 0.1250000
kepastian lah" 0.1250000
ngasih lah" 0.1250000
NULL Mbak 1.0000000
kenalan. kemren 1.0000000
Pilkade DEPOSIT" 1.0000000
ngasih Bidang 0.2000000
terus Bidang 0.2000000
Aplikasi Bidang 0.2000000
NULL Bidang 0.2000000
nyang Bidang 0.2000000
makelar ambil 0.1666667
nyang ambil 0.1666667
têlat ambil 0.1666667
NULL ambil 0.5000000
"Mengape nimbang 1.0000000
NULL "sprei 0.5000000
pade" "sprei 0.5000000
NULL in. 1.0000000
kagak ringan. 1.0000000
gede hujan 0.1250000
bagen hujan 0.1250000
kaga hujan 0.1250000
http://dlvr.it/8dNxRs hujan 0.1250000
pengennya hujan 0.1250000
"sepre hujan 0.1250000
ujan hujan 0.2500000
NULL mesti 0.8000000
ama mesti 0.2000000
NULL tmp 1.0000000
? puku 0.2000000
antep!! puku 0.2000000
Rencane puku 0.2000000
Makasih puku 0.2000000
ye! puku 0.2000000
Sengaja pening 1.0000000
gue. Base 1.0000000
bisa perlu, 0.1666667
bringsang. perlu, 0.1666667
diindarin. perlu, 0.1666667
ntu perlu, 0.1666667
1. perlu, 0.1666667
Bekasi perlu, 0.1666667
gêpyak." Sedekahkan 1.0000000
dan cewe 0.2857143
NULL cewe 0.7142857
NULL liftnya.. 1.0000000
NULL Jln 1.0000000
takut kertas 0.5000000
NULL kertas 0.5000000
buat 5 0.0769231
berempat 5 0.0769231
"gile 5 0.0769231
suseh... 5 0.0769231
Cukup 5 0.0769231
http://dlvr.it/8fFx5Y 5 0.0769231
capè 5 0.0769231
Selesei 5 0.0769231
cemcemannye 5 0.0769231
jugekagak 5 0.0769231
NULL 5 0.2307692
Interpelasi @KiPranaLewu 1.0000000
-upit" ajah 1.0000000
NULL thomasnya 1.0000000
NULL Malu 1.0000000
NULL tiba. 1.0000000
NULL Dah 1.0000000
NULL sedap2 1.0000000
medan" isinya." 0.5000000
masyarakat isinya." 0.5000000
#Puncak212" Skrg 0.5000000
NULL Skrg 0.5000000
hasil. kebodohannya 1.0000000
Wah Jambi. 1.0000000
NULL videonya 1.0000000
ketiduran, pesek 1.0000000
bahagièin Tpi 1.0000000
NULL swt 1.0000000
Juli" 318 1.0000000
sètan dehhh 1.0000000
bêlah belah 0.2000000
mêcah belah 0.2000000
orang belah 0.2000000
NULL belah 0.4000000
mao kuperbuat? 1.0000000
gegares "Angket 0.2500000
"Buke "Angket 0.2500000
mujigae "Angket 0.2500000
puase "Angket 0.2500000
anjing dicari 1.0000000
Dilancarin? cakep 0.5000000
nyang cakep 0.5000000
sampi Pastikan 1.0000000
eluh. alam..." 0.3333333
#ARMYSelcaDay alam..." 0.3333333
cinte alam..." 0.3333333
NULL ukurannya 1.0000000
#jalan-jaanertigamania Bubarkan 0.2000000
#halalbihalal2018 Bubarkan 0.2000000
ngebangun Bubarkan 0.2000000
bangse Bubarkan 0.2000000
#ermanjawatimur Bubarkan 0.2000000
lampu sis 1.0000000
NULL pagi. 0.5000000
Di pagi. 0.5000000
NULL melewati 1.0000000
NULL dagangan 1.0000000
(laki Sabtu 1.0000000
NULL rapet 1.0000000
cepet istirahat? 1.0000000
kudunye menteri 1.0000000
UMUR. PASANGAN 1.0000000
NULL operator 1.0000000
sêlamè kekesalan, 1.0000000
NULL fanatisme 1.0000000
NULL dipepet 1.0000000
NULL mengutamakan 0.5000000
http://yasmin.or.id mengutamakan 0.5000000
NULL PD 1.0000000
kêluar.katènyè jalaninnya 1.0000000
pas Suami 0.5000000
NULL Suami 0.5000000
Makasi" world 0.5000000
NULL world 0.5000000
NULL ujan 1.0000000
NULL Happy 0.4000000
"Banyak. Happy 0.1000000
yang Happy 0.2000000
paling Happy 0.1000000
perkawinan Happy 0.1000000
Seneng Happy 0.1000000
"Males diamankan!!" 1.0000000
NULL vol 1.0000000
NULL lelah 0.6000000
Kali lelah 0.2000000
ternilei lelah 0.2000000
NULL mencegah 1.0000000
NULL "Pulang 0.5000000
"Mungkin "Pulang 0.5000000
NULL summer 1.0000000
makse dunia. 0.5000000
Australia dunia. 0.5000000
Bakal "Tapiiiiiiiiiii. 1.0000000
NULL MUCHIE" 1.0000000
NULL pembangunan, 1.0000000
dijalan mo 0.2000000
@Pete2Merah mo 0.2000000
sêbênci mo 0.2000000
mo mo 0.2000000
Lagi mo 0.2000000
"Ngikut berpanas-panasan 1.0000000
belio. kemaleman 1.0000000
nyarap konsulen 0.5000000
aer konsulen 0.5000000
NULL ngapalin 1.0000000
jogja itulah 0.2500000
nyolong itulah 0.2500000
bangêt, itulah 0.2500000
NULL itulah 0.2500000
"Same ujungnya 1.0000000
ada Asli 1.0000000
"kagak "Helloo, 1.0000000
http://instagram.com/p/zXAAEFt2vG/" Juventus 1.0000000
sebagian untukku. 0.1666667
lemot untukku. 0.1666667
tapi untukku. 0.1666667
wipinye untukku. 0.1666667
lah untukku. 0.1666667
puas untukku. 0.1666667
satu hatiku. 1.0000000
"Karang, Relawan 1.0000000
danangplenthis kek!" 0.2500000
" kek!" 0.2500000
http://instagram.com/p/zTpWswwmpn/ kek!" 0.2500000
#kelamaanngepos#hanyabagiin kek!" 0.2500000
contoh tugas. 1.0000000
NULL ngutang 1.0000000
Pipi bear. 0.2500000
poto bear. 0.2500000
dan bear. 0.2500000
pande. bear. 0.2500000
diganti... cinta-cintaan." 0.2000000
banyak cinta-cintaan." 0.2000000
ora cinta-cintaan." 0.2000000
Sêprèh cinta-cintaan." 0.2000000
pasir. cinta-cintaan." 0.2000000
akirnye http://bit.ly/14FyWwp 1.0000000
NULL OK.., 1.0000000
korban" #MedanHits" 0.5000000
PTPN4, #MedanHits" 0.5000000
"Kawan, peluk" 0.3333333
Baba peluk" 0.3333333
Ênyak peluk" 0.3333333
Kagak ngga 0.0526316
ape? ngga 0.0526316
NULL ngga 0.6842105
gini ngga 0.0526316
Ênyak ngga 0.0526316
http://republika.co.id/r/nk4e74 ngga 0.0526316
Golkar ngga 0.0526316
NULL yan? 1.0000000
Kenangan...!!!" Didik? 1.0000000
NULL bacanya 0.5000000
:((((( bacanya 0.5000000
elu sma 0.1250000
#ARSI" sma 0.1250000
:/ sma 0.1250000
NULL sma 0.3750000
ame sma 0.1250000
gawean, sma 0.1250000
guah jorok. 0.5000000
Ora jorok. 0.5000000
http://bit.ly/1LlnbeP disalahin? 1.0000000
ama jd 0.0238095
cebi jd 0.0238095
Ibnu jd 0.0238095
"Selame jd 0.0476190
nyaruh, jd 0.0238095
"[Telat jd 0.0238095
baru" jd 0.0238095
Menteri" jd 0.0238095
NULL jd 0.6904762
Wadonan jd 0.0238095
lip jd 0.0238095
pojok jd 0.0238095
lama, jd 0.0238095
""""Ênyaklu." formuli 1.0000000
gini telponan 0.5000000
selame telponan 0.5000000
Keresikan "guys 1.0000000
NULL pegang 0.2500000
@tribunnews" pegang 0.2500000
"Dokter pegang 0.2500000
lampu. pegang 0.2500000
@e100s Awas, 1.0000000
NULL alasannya, 1.0000000
ape http://gpon.co/7d9dr 1.0000000
uanggah Bertemu 0.5000000
lovers Bertemu 0.5000000
NULL rajin 0.5000000
sekoleh. rajin 0.1666667
""""Yè, rajin 0.3333333
NULL Lucu 1.0000000
udeh 11 0.3333333
NULL 11 0.3333333
sedaritadi. 11 0.3333333
Mega Kartu 1.0000000
jem Putri, 1.0000000
NULL deskripsi 1.0000000
NULL rase, 1.0000000
NULL menyukseskan 1.0000000
NULL latar 1.0000000
NULL terpapar 1.0000000
Autis ???? 0.2000000
semergah ???? 0.2000000
#halalbihalal2018 ???? 0.2000000
jadi ???? 0.2000000
???? ???? 0.2000000
NULL hartamu 1.0000000
rakyat, diucapkan 1.0000000
Aye" bicara 0.2000000
umum bicara 0.2000000
NULL bicara 0.6000000
NULL Room 1.0000000
NULL sinyal 0.2857143
pake sinyal 0.1428571
lemah sinyal 0.1428571
dikhianatin sinyal 0.1428571
bise sinyal 0.1428571
di sinyal 0.1428571
NULL lomba 1.0000000
Bêlakangan nntn 0.5000000
NULL nntn 0.5000000
NULL *kaget* 0.5000000
"Sêprèh *kaget* 0.5000000
ikatan Kembangkan 0.2000000
sêlalu Kembangkan 0.2000000
Dalèm Kembangkan 0.2000000
dèwèk.. Kembangkan 0.2000000
bêrsamèlu.. Kembangkan 0.2000000
NULL tindak 1.0000000
http://baranews.com/web/read/33671/pdip.tidak.akan.andalkan.jokowi..pilkada.serentak merobek 1.0000000
NULL Takdirku 0.6666667
Kamulah Takdirku 0.3333333
dong carats?:(" 0.3333333
rin! carats?:(" 0.3333333
He..he.. carats?:(" 0.3333333
kagak misqin 1.0000000
NULL subuh 1.0000000
NULL sekita 1.0000000
oppa panjang 0.0909091
panjang panjang 0.2727273
gitu panjang 0.0909091
NULL panjang 0.3636364
alinea panjang 0.0909091
rume panjang 0.0909091
NULL mikir, 1.0000000
gimane." carin 1.0000000
NULL POLITIK.....??? 1.0000000
#olahragawan #nike 1.0000000
normal." sampaj 1.0000000
tenar he's 1.0000000
yeh variatif 1.0000000
Sarung indomie 0.5000000
NULL indomie 0.5000000
ini 'sesuai' 1.0000000
NULL oleh2 1.0000000
masing melengkapi 1.0000000
NULL Tetap 0.5000000
Poto: Tetap 0.5000000
gue AXA..?? 1.0000000
'donor' pereman 1.0000000
"Ape "Apakah 0.2000000
kite "Apakah 0.2000000
"Hanye "Apakah 0.2000000
bener "Apakah 0.2000000
NULL "Apakah 0.2000000
ngeibur para 0.0714286
- para 0.1428571
kumbang-kumbang para 0.0714286
dimasyarakat para 0.0714286
hotel para 0.0714286
NULL para 0.5714286
NULL Akulah 1.0000000
bêgonohlah" #guitarforlife 1.0000000
tembus Mmg 1.0000000
dari bagiku, 0.5000000
mao bagiku, 0.5000000
NULL ularnya 1.0000000
kate2 padat, 1.0000000
NULL stressnya. 1.0000000
"Duit EMANG 0.2500000
giliran EMANG 0.2500000
pemerentah, EMANG 0.2500000
duit EMANG 0.2500000
Konstruksi DEEHHH 1.0000000
BÊTURUT-TURUT #ChoiceFandom 1.0000000
keliatannye dok, 1.0000000
mantan sewaktu-waktu 1.0000000
"Auk itu,menunggu 1.0000000
banyak Sidoarjo 1.0000000
paketan" http://bit.ly/1C31Sgt 0.3333333
nungguin http://bit.ly/1C31Sgt 0.3333333
merana http://bit.ly/1C31Sgt 0.3333333
NULL alhmdllh.... 1.0000000
NULL kuy. 1.0000000
die tiba-tiba 0.2000000
NULL tiba-tiba 0.6000000
""Sêdikit, tiba-tiba 0.2000000
peduli? @dedysatriono: 1.0000000
kesepian" Bupati 0.5000000
gegaresan. Bupati 0.5000000
NULL banjir,didepan 1.0000000
NULL with 0.3333333
Min with 0.3333333
Aley with 0.3333333
meninggal pusingnya 1.0000000
tgl setujui 0.2500000
28/05. setujui 0.2500000
Kok setujui 0.2500000
setujui setujui 0.2500000
islamluh.jaga diJakarta 1.0000000
lip "receptionist 0.2000000
"pelayan "receptionist 0.2000000
ajer, "receptionist 0.2000000
kurang "receptionist 0.2000000
kotor "receptionist 0.2000000
NULL personal 1.0000000
Soalnye min? 1.0000000
ituh sebaiknya 0.1428571
ngucapin sebaiknya 0.1428571
kate sebaiknya 0.1428571
elu sebaiknya 0.1428571
NULL sebaiknya 0.2857143
perpisahan sebaiknya 0.1428571
ngasih 219 1.0000000
sêjati takkan 0.5000000
"Ade takkan 0.5000000
ganti) ina 0.5000000
cebrik ina 0.5000000
Akhirnye humble, 1.0000000
panas Astagfirullahalazim 0.1666667
mayan Astagfirullahalazim 0.1666667
aer Astagfirullahalazim 0.1666667
lelet,kayenye Astagfirullahalazim 0.1666667
karne Astagfirullahalazim 0.1666667
sebentar..tibang Astagfirullahalazim 0.1666667
sêlamènyè." nya,tdk 1.0000000
bêdêbu. mbok 1.0000000
nyebelin. sendiri, 0.0769231
idèntitas sendiri, 0.0769231
purname sendiri, 0.0769231
kolokan" sendiri, 0.0769231
NULL sendiri, 0.5384615
maap. sendiri, 0.1538462
NULL sdm, 1.0000000
Sêbêlon gandengan 1.0000000
beli Kesal 0.2000000
orang Kesal 0.2000000
miskin, Kesal 0.2000000
"#Ruangngasoh Kesal 0.2000000
ini Kesal 0.2000000
ayem. dll. 0.1428571
Bang dll. 0.1428571
@citraciki dll. 0.1428571
widih dll. 0.1428571
@rezky_fjsi dll. 0.1428571
bangêt..apè dll. 0.1428571
kêrèn dll. 0.1428571
#SMARTtips" #runningmom 0.5000000
rusaknyè #runningmom 0.5000000
Dianggep minta? 0.1111111
Pemajuan minta? 0.1111111
Tingkatin minta? 0.1111111
http://bit.ly/1LHiWZf minta? 0.1111111
Sekola minta? 0.1111111
Siswe minta? 0.1111111
Epektif minta? 0.1111111
Belajar minta? 0.1111111
Jem minta? 0.1111111
si "Baby 0.2000000
gubernur "Baby 0.2000000
B.." "Baby 0.2000000
A "Baby 0.2000000
ato "Baby 0.2000000
ame Alay, 1.0000000
NULL nyampenya 1.0000000
NULL LEBIH 1.0000000
olèh Pemimpin 1.0000000
NULL sungkan 1.0000000
atau gerimis,berharap 0.3333333
pengennya gerimis,berharap 0.3333333
grimis, gerimis,berharap 0.3333333
NULL Akan 0.6000000
Mu Akan 0.2000000
lèdok Akan 0.2000000
NULL naikin 1.0000000
NULL Kapan 1.0000000
NULL menimbulkan 1.0000000
dimasyarakat Menag 0.5000000
mewek, Menag 0.5000000
Dan pacarin. 0.1666667
kite pacarin. 0.1666667
blajar pacarin. 0.1666667
seneng-susehnye. pacarin. 0.1666667
ade pacarin. 0.1666667
dimarilah pacarin. 0.1666667
NULL jenis 0.5000000
ntar jenis 0.5000000
sepre image, 0.1250000
Sumur. image, 0.1250000
bagen image, 0.1250000
Dalem image, 0.1250000
Di image, 0.1250000
ngeres image, 0.1250000
nye image, 0.1250000
mayan image, 0.1250000
kecium demo 1.0000000
NULL Kasus 1.0000000
ayem. pembelaan 1.0000000
"cèbol mau?? 1.0000000
NULL Barista 1.0000000
aer taat 0.3333333
"Èksprèsi taat 0.3333333
NULL taat 0.3333333
NULL handuk, 1.0000000
anduk Madurejo 1.0000000
NULL th 1.0000000
K3 ganjel 1.0000000
NULL komitmen 1.0000000
NULL jorok, 0.6000000
kerasan." jorok, 0.2000000
Telah jorok, 0.2000000
jike keep 0.0909091
aye keep 0.1818182
NULL keep 0.0909091
kagak, keep 0.0909091
pergi. keep 0.0909091
tulung keep 0.0909091
biarin keep 0.1818182
tau. keep 0.0909091
Tapi keep 0.0909091
" Talks 0.2000000
bener Talks 0.2000000
Bener Talks 0.2000000
mah. Talks 0.2000000
mari Talks 0.2000000
NULL ko 0.6666667
Jatu ko 0.3333333
tutup. Profesional 0.5000000
dipakè" Profesional 0.5000000
"Pêrcumè "Kantor 0.3333333
bukti "Kantor 0.3333333
bêjibun "Kantor 0.3333333
Juli nano 0.3333333
NULL nano 0.6666667
sela-sela Ibu2 1.0000000
Êni mau." 0.2500000
Indonèsia, mau." 0.2500000
alêsannyè? mau." 0.2500000
apè mau." 0.2500000
pangkeng !!!!! 1.0000000
etike. http://j.mp/1Lmust6 1.0000000
bise noda2.." 0.2000000
waktu" noda2.." 0.2000000
narik noda2.." 0.2000000
ulur noda2.." 0.2000000
lage noda2.." 0.2000000
NULL dilantai 1.0000000
,! Mendadak 1.0000000
bise berkali-kali 1.0000000
http://bit.ly/1yQcWfy #JokowiJK 1.0000000
têrlebih Menyenangkan. 0.1666667
Ngênyênêngin. Menyenangkan. 0.1666667
ajah Menyenangkan. 0.1666667
Tibang Menyenangkan. 0.1666667
sumur Menyenangkan. 0.1666667
jambannyah Menyenangkan. 0.1666667
Bariste http://dlvr.it/8fmKYx 0.2500000
City." http://dlvr.it/8fmKYx 0.2500000
Gandaria http://dlvr.it/8fmKYx 0.2500000
[USERNAME] http://dlvr.it/8fmKYx 0.2500000
ajè "Ditinggal 0.2500000
Warren "Ditinggal 0.2500000
Sêbut "Ditinggal 0.2500000
"30) "Ditinggal 0.2500000
NULL internasional 1.0000000
NULL cuci, 1.0000000
Tot... http://bit.ly/1E3A9vh 0.3333333
dan http://bit.ly/1E3A9vh 0.3333333
http://bit.ly/1E3A9vh http://bit.ly/1E3A9vh 0.3333333
priode bermimpi 1.0000000
NULL tidur! 1.0000000
udeh usahain 1.0000000
"#Golkar "jenuh 0.3333333
#ARB "jenuh 0.3333333
Penerbangan "jenuh 0.3333333
dèwèk, minuman 0.1666667
NULL minuman 0.5000000
mêntêri. minuman 0.1666667
jabatan minuman 0.1666667
kagak keluarin 0.2000000
cuma keluarin 0.2000000
angetnya keluarin 0.2000000
kinclong keluarin 0.2000000
aer keluarin 0.2000000
abis cuman 0.1428571
NULL cuman 0.7142857
dibace. cuman 0.0714286
suseh... cuman 0.0714286
dipindahin, pny 0.2000000
ama pny 0.2000000
ati pny 0.2000000
NULL pny 0.2000000
empati pny 0.2000000
an" perlengkapan 0.1250000
oktakenca perlengkapan 0.1250000
koalisi perlengkapan 0.1250000
bocah, perlengkapan 0.1250000
diterimè perlengkapan 0.1250000
NULL perlengkapan 0.3750000
JNE Idol 1.0000000
pergi, mikir. 0.1428571
jangan mikir. 0.1428571
aye mikir. 0.2857143
elu mikir. 0.1428571
"kalo mikir. 0.1428571
mao mikir. 0.1428571
kasih" terserah 1.0000000
setan. berat 0.0909091
http://bit.ly/1LUZrN7 berat 0.0909091
hmm berat 0.0909091
#GenerasiTue berat 0.0909091
NULL berat 0.4545455
" berat 0.0909091
KagakNgerasain berat 0.0909091
http://bit.ly/1vSfEuU >> 0.2500000
kagak >> 0.2500000
PERIODE >> 0.2500000
Dinilei >> 0.2500000
NULL men. 1.0000000
cebi syaratnya 1.0000000
NULL th, 1.0000000
Kitab kita 0.0070922
pastilah kita 0.0070922
"Nyok kita 0.0070922
gambar kita 0.0070922
mujur kita 0.0070922
Mahèsiswè kita 0.0070922
Garap kita 0.0070922
kite kita 0.0921986
#bukatemenan kita 0.0070922
https://path.com/p/3aYHHf kita 0.0070922
Bise kita 0.0070922
muasin kita 0.0070922
keganti.. kita 0.0070922
"Ape kita 0.0070922
asing. kita 0.0070922
dikecewain." kita 0.0070922
http://tinyurl.com/nc766gg kita 0.0070922
1) kita 0.0070922
medsos kita 0.0070922
dantain kita 0.0070922
Allah" kita 0.0070922
"Nyarapnyè kita 0.0141844
antare kita 0.0070922
sengsare kita 0.0070922
""""@vivijkw: kita 0.0070922
NULL kita 0.5531915
ajarin kita 0.0070922
Elu.. kita 0.0070922
H. kita 0.0070922
"Die kita 0.0070922
"Êni kita 0.0070922
sêwayah kita 0.0070922
anggote kita 0.0070922
Anniversario kita 0.0070922
minjêmin kita 0.0070922
ngebentur kita 0.0070922
menuju kita 0.0070922
keluarge" kita 0.0070922
nihil" kita 0.0070922
sêkola kita 0.0070922
Partei-partei kita 0.0070922
habis kita 0.0070922
sekirenye kita 0.0070922
anduk, kita 0.0070922
pertahanin..........." kita 0.0070922
pemerentah?" kita 0.0070922
ngelatih kita 0.0070922
mbavan kita 0.0070922
"Pan kita 0.0070922
ènzim kita 0.0070922
pula. kita 0.0070922
NULL Ananda 1.0000000
NULL Ibnu 0.5000000
bang? Ibnu 0.5000000
AC coba?" 0.1428571
10 coba?" 0.1428571
kagak coba?" 0.1428571
adêm coba?" 0.1428571
pangkèng coba?" 0.1428571
di coba?" 0.1428571
nomor coba?" 0.1428571
NULL W 0.5000000
2 W 0.5000000
NULL Permen 1.0000000
NULL bisnya 1.0000000
semoge lokalnya 1.0000000
ketemu titipan 1.0000000
cemilan" terjawab, 1.0000000
NULL maksudku 1.0000000
lakuin!!! Kata 0.4000000
pelayanan Kata 0.2000000
têrus Kata 0.2000000
pêrcaya..." Kata 0.2000000
NULL Api 1.0000000
gampang." mencapei 1.0000000
Indonesia projek 1.0000000
kêjadian." kliyengan"" 0.1428571
bahayè kliyengan"" 0.1428571
kudu kliyengan"" 0.1428571
nih, kliyengan"" 0.1428571
pêratiin kliyengan"" 0.1428571
bênêr-bênêr kliyengan"" 0.1428571
kênyatèan, kliyengan"" 0.1428571
juge. wrpnya 1.0000000
yang http://dlvr.it/8ft7y8 1.0000000
dulu. market, 1.0000000
NULL acakan 1.0000000
"Kudunye ahl 1.0000000
Anis hafal, 0.2000000
kubu hafal, 0.2000000
go hafal, 0.2000000
nuduh hafal, 0.2000000
sêring hafal, 0.2000000
Kêbinèkaan. penumpang 0.1666667
NULL penumpang 0.3333333
berkutat penumpang 0.1666667
kader... penumpang 0.1666667
keempat, penumpang 0.1666667
kesempetan orangnya, 0.1000000
biar orangnya, 0.1000000
kisah orangnya, 0.1000000
kenangan, orangnya, 0.1000000
sebueh orangnya, 0.1000000
NULL orangnya, 0.1000000
kite orangnya, 0.1000000
ngukir orangnya, 0.1000000
idup orangnya, 0.1000000
buat orangnya, 0.1000000
NULL lega. 1.0000000
bêpikiran Not 0.1666667
laèn Not 0.1666667
bêlon Not 0.1666667
wadon Not 0.1666667
puguh Not 0.1666667
omonganye Not 0.1666667
NULL bucket 1.0000000
NULL setinggi 1.0000000
ijinnye" they 1.0000000
inpormasinye. meluangkan 0.5000000
kelep meluangkan 0.5000000
NULL hati 0.5454545
Terbaèk hati 0.0303030
Ati hati 0.0303030
dikenalin hati 0.0303030
empati hati 0.0303030
ajè hati 0.0303030
ade hati 0.0303030
"Geroin hati 0.0303030
resik. hati 0.0303030
bêrhasil!" hati 0.0303030
Ngêrês hati 0.0303030
#Konyol" hati 0.0303030
rooms hati 0.0303030
ADÈ hati 0.0303030
orang?""" hati 0.0303030
nyêri hati 0.0303030
kagak memilhmu 1.0000000
NULL tutup. 0.5000000
tutup. tutup. 0.5000000
Beh... ini, 0.0555556
ini, ini, 0.0555556
jadi ini, 0.0555556
HWD ini, 0.0555556
nyata" ini, 0.0555556
NULL ini, 0.5555556
"Kejadian ini, 0.0555556
Oi ini, 0.0555556
"Sumpeh ini, 0.0555556
dipungkiri, banyaknya 0.5000000
NULL banyaknya 0.5000000
lengkep showernya 1.0000000
makasih" kamu" 0.1428571
mampet. kamu" 0.1428571
nyadar.." kamu" 0.1428571
NULL kamu" 0.5714286
http://bit.ly/1LmOHGZ lamban 1.0000000
nyok!" Ayyee!" 0.3333333
tenar Ayyee!" 0.3333333
lagi.... Ayyee!" 0.3333333
"Isêng "Maunya 0.1666667
ngêtès "Maunya 0.1666667
sêmuè "Maunya 0.1666667
isêng "Maunya 0.1666667
pêrangkat "Maunya 0.1666667
èlèktromagnètik "Maunya 0.1666667
NULL bertemu, 1.0000000
NULL [Penelitian 1.0000000
dèwèk<3 bersyukur 0.1250000
NULL bersyukur 0.6250000
alesannye, bersyukur 0.1250000
pembantu bersyukur 0.1250000
gaweannye, ciri 1.0000000
NULL mengucapkannya, 1.0000000
temen tahan. 1.0000000
babeh. kopi" 0.5000000
bareng kopi" 0.5000000
nutupin dirham." 0.2000000
#kiscorp dirham." 0.2000000
idupnye dirham." 0.2000000
semue dirham." 0.2000000
luke dirham." 0.2000000
NULL memaksa 0.5000000
maren memaksa 0.2500000
demen memaksa 0.2500000
ayalan why 0.5000000
NULL why 0.5000000
NULL kadang2 1.0000000
no. [Seo 1.0000000
NULL bni 1.0000000
mewekin kan, 0.2500000
Syahrini. kan, 0.2500000
"Ah kan, 0.2500000
panggilan kan, 0.2500000
"Puyeng psan2 1.0000000
kaya bentar 0.5000000
NULL bentar 0.5000000
deskripsiin cegah 0.5000000
sedari cegah 0.5000000
Aley bae 0.3333333
NULL bae 0.6666667
NULL berturut2 1.0000000
~0225" matanya 0.1250000
Bantuan matanya 0.1250000
@BeasiswaS1: matanya 0.1250000
:) matanya 0.1250000
http://beasiswaindo.com/5239 matanya 0.1250000
Trisakti, matanya 0.1250000
mao? matanya 0.1250000
"RT matanya 0.1250000
NULL tpi 0.5000000
disusehin tpi 0.1666667
budaya tpi 0.1666667
okehlah" tpi 0.1666667
NULL stlh 1.0000000
NULL besoknya 0.5000000
pula. besoknya 0.5000000
NULL NYATA 1.0000000
ama ramah.tapi 1.0000000
NULL Sedangkan 1.0000000
NULL lain2 1.0000000
Bandung) KTV) 1.0000000
Kenangan...!!!" http://dlvr.it/8dXNYd 1.0000000
care laboratorium) 1.0000000
kalo tingkat 0.5000000
iringan tingkat 0.5000000
masup, nak 0.0833333
korbannye.tulung nak 0.0833333
ora nak 0.0833333
NULL nak 0.7500000
non, berduka 0.3333333
NULL berduka 0.6666667
abang-abang nyaman. 0.1250000
NULL nyaman. 0.6250000
Mazagengkendeng: nyaman. 0.1250000
"Anteng nyaman. 0.1250000
minêral, "tempat 0.1111111
Kotak "tempat 0.1111111
"/rlt/ "tempat 0.1111111
ngêri "tempat 0.1111111
NULL "tempat 0.1111111
hore "tempat 0.1111111
amat "tempat 0.2222222
guah "tempat 0.1111111
secara mas, 0.3333333
Soesatyo mas, 0.3333333
NULL mas, 0.3333333
"Nêng, "check-in 1.0000000
NULL asal 1.0000000
NULL terluka,tapi 1.0000000
korsi #pembisnismuda 1.0000000
NULL gemetaran 1.0000000
"kesluruan digunakan" 0.1428571
dibenerin..." digunakan" 0.1428571
sise digunakan" 0.1428571
wipi... digunakan" 0.1428571
baek, digunakan" 0.1428571
tulung digunakan" 0.1428571
kureng digunakan" 0.1428571
GÊDÉ" #hazeeek 1.0000000
jatoh petani, 1.0000000
"mayan Pusat 0.3333333
têrjadi Pusat 0.3333333
nekuknye Pusat 0.3333333
"Harep ditatar.Bahan 1.0000000
ade tenag" 0.3333333
PDIP: tenag" 0.3333333
"Jagoan tenag" 0.3333333
"kerasan Yanga 0.2500000
resik Yanga 0.2500000
, Yanga 0.2500000
semue Yanga 0.2500000
NULL She 1.0000000
kliyengan"" Sadar 1.0000000
kan harga. 1.0000000
jadi detail 1.0000000
gimane Pengalaman 0.1250000
NULL Pengalaman 0.1250000
cara Pengalaman 0.1250000
bilang Pengalaman 0.1250000
sih Pengalaman 0.1250000
[Idm] Pengalaman 0.1250000
buat Pengalaman 0.1250000
alusnye Pengalaman 0.1250000
7 """"@melly_goeslaw: 0.2500000
""""@melly_goeslaw: """"@melly_goeslaw: 0.2500000
MAkasih """"@melly_goeslaw: 0.2500000
@Lady6igi """"@melly_goeslaw: 0.2500000
NULL cewek2 1.0000000
pdkt match 0.1666667
nyocok-nyocokin match 0.3333333
karang match 0.1666667
tinggal match 0.1666667
:(( match 0.1666667
yè """"udah 1.0000000
Alesan ditolak. 0.5000000
PKS ditolak. 0.5000000
NULL discuss, 1.0000000
NULL el 1.0000000
#Assadiqulhaq petir 1.0000000
Jelambar Keviralan 1.0000000
kalo nongkrong 1.0000000
tenar male 1.0000000
NULL tuh.g, 1.0000000
"Pengen prodi 0.2000000
Blanje prodi 0.2000000
Ririn prodi 0.2000000
mecing, prodi 0.2000000
anak prodi 0.2000000
teksturnye YU 1.0000000
ngeluh" http://antaranews.com/480952 1.0000000
daon FamilyRaffiah17 1.0000000
pêrtamè Kartosoewiryo 0.1666667
kagak Kartosoewiryo 0.1666667
"Èksprèsi Kartosoewiryo 0.1666667
pangkèng...sêpêrti Kartosoewiryo 0.1666667
pêrnèh Kartosoewiryo 0.1666667
masup Kartosoewiryo 0.1666667
""haha"", per 0.2500000
tetep. per 0.2500000
NULL per 0.5000000
NULL tubuh, 1.0000000
gè." pasien 0.2500000
"Dokter pasien 0.2500000
rapat pasien 0.2500000
NULL pasien 0.2500000
Sekoleh diharapkan 1.0000000
bbijaksane #jujur 0.1111111
berujung #jujur 0.1111111
Terime #jujur 0.1111111
cari #jujur 0.1111111
tapi #jujur 0.1111111
ngoceh #jujur 0.1111111
Jangan #jujur 0.1111111
sono-marih #jujur 0.1111111
pitnah. #jujur 0.1111111
NULL situasi 0.5000000
semue situasi 0.5000000
têrnyatè Soekarno 1.0000000
NULL ""Anak 1.0000000
NULL http://bit.ly/18aqpUr 0.5000000
mukanye http://bit.ly/18aqpUr 0.5000000
https://path.com/p/MlXUp #pasta 1.0000000
nyoba @TerasiSuper 1.0000000
Arit mamsee@Lady6igi 1.0000000
sebuah "Kesabaran 0.2000000
seriusan "Kesabaran 0.2000000
pergi." "Kesabaran 0.2000000
gondokin "Kesabaran 0.2000000
kate "Kesabaran 0.2000000
NULL selokan 0.1666667
bikinnye selokan 0.1666667
ngeri selokan 0.1666667
makin selokan 0.1666667
http://dlvr.it/8h4vVV selokan 0.1666667
soleh. selokan 0.1666667
NULL temuin 1.0000000
NULL JANGAN 1.0000000
NULL TIGERNYA 1.0000000
nyamuknye lingkungan 0.2000000
[URL]" lingkungan 0.2000000
she lingkungan 0.2000000
NULL lingkungan 0.4000000
Bam... Bawa2 1.0000000
NULL "Siapa 1.0000000
ayè pengaduan 1.0000000
aye nadi 1.0000000
NULL 142 1.0000000
udeh Min 1.0000000
mari Bedroom 1.0000000
NULL wangi.. 1.0000000
bangsa. Mbaq2, 1.0000000
Mandiri Uyul 1.0000000
"99. kepincut 1.0000000
NULL nasehat 1.0000000
"tapi "kurangin 1.0000000
T-T Dana 1.0000000
"Ya de' 1.0000000
NULL Karimata 1.0000000
NULL akhiri 1.0000000
ame lama/singkat-singkat. 1.0000000
#Jakarte buru-buru. 0.1250000
#Selase buru-buru. 0.1250000
#Indonesia buru-buru. 0.1250000
#Syantik buru-buru. 0.1250000
#Nyarap buru-buru. 0.1250000
#PizzaHut buru-buru. 0.1250000
#Plesiran buru-buru. 0.1250000
#Juande buru-buru. 0.1250000
saling ayuk 1.0000000
dicek found 1.0000000
kaga @PakBondan 1.0000000
NULL Refund 1.0000000
elu amin. 0.3333333
dewek amin. 0.3333333
omongan amin. 0.3333333
"Okè telunjuknya 0.2000000
mangkin telunjuknya 0.4000000
kê telunjuknya 0.2000000
mari telunjuknya 0.2000000
didugè http://bit.ly/1y125zo 1.0000000
NULL partai 1.0000000
hamdalah baikk... 1.0000000
kru #NETwaze 1.0000000
@inpo: (bisa) 1.0000000
banget, curhatan 0.5000000
NULL curhatan 0.5000000
NULL bersiap 0.5000000
lobby, bersiap 0.5000000
NULL sein 1.0000000
kêbangêtan minta 0.0357143
tambahan minta 0.0357143
koalisi minta 0.0357143
Kitanyah? minta 0.0357143
tatum minta 0.0357143
digonoin, minta 0.0357143
'Jurus' minta 0.0357143
NULL minta 0.6428571
aye minta 0.1071429
NULL Jumlah 0.7500000
[USERNAME] Jumlah 0.2500000
berpungsi" mah. 0.2500000
banyak" mah. 0.2500000
iye, mah. 0.2500000
NULL mah. 0.2500000
utm_campaign=related_left&utm_medium=bp&utm_source=news" dingin. 0.2000000
NULL dingin. 0.6000000
!!!" dingin. 0.2000000
Pimpinan kebetulan 1.0000000
sedie sejujurnya 1.0000000
Laut loh 0.1000000
loh loh 0.1000000
de loh 0.1000000
bonyok-bonyok loh 0.1000000
NULL loh 0.3000000
kêsêmpêtan loh 0.1000000
TIPInye loh 0.1000000
radiiitt, loh 0.1000000
bpjs?ada kelas 0.0666667
NULL kelas 0.4666667
ngeliatin kelas 0.0666667
guntur, kelas 0.1333333
satu kelas 0.1333333
namanyah kelas 0.0666667
seorang kelas 0.0666667
Arief arahan, 1.0000000
NULL Bali, 1.0000000
cet hadits2 1.0000000
baèk, positive." 0.2000000
Ranjang positive." 0.2000000
amat positive." 0.2000000
kêrêsikan positive." 0.2000000
cêbrik. positive." 0.2000000
NULL Takkan 1.0000000
Propesional prepare 0.2500000
ye prepare 0.2500000
siap-siap prepare 0.2500000
tutup. prepare 0.2500000
lah." melalui 0.2500000
NULL melalui 0.2500000
pajak melalui 0.2500000
~0228" melalui 0.2500000
sbm, masukin 1.0000000
@RaffiAhmadLagi" beri 0.0833333
http://bitly.com/1anbCGV beri 0.0833333
kasi beri 0.0833333
http://ow.ly/2USpru beri 0.0833333
NULL beri 0.3333333
dirékomèndasiin beri 0.0833333
ngeluh" beri 0.0833333
ama beri 0.1666667
NULL dana 0.8000000
dane dana 0.2000000
guah 30% 1.0000000
NULL ujung2nya 1.0000000
kite Cute 1.0000000
NULL gmn 0.6666667
"Risiko gmn 0.1666667
gini gmn 0.1666667
NULL bangettt 1.0000000
http://bitly.com/1anbCGV 5/10." 0.1666667
Gegares 5/10." 0.1666667
Nasi 5/10." 0.1666667
lime 5/10." 0.1666667
Kagak 5/10." 0.1666667
Keuntungan 5/10." 0.1666667
pertunjukan Oleh 1.0000000
suare, pembuatan 1.0000000
asing dunia, 0.2000000
kê dunia, 0.2000000
Bali dunia, 0.2000000
http://bit.ly/18abNEB dunia, 0.2000000
ningkat dunia, 0.2000000
sêbaèknyè. kerruh.! 0.2000000
pêluang kerruh.! 0.2000000
Diè kerruh.! 0.2000000
gunèin kerruh.! 0.2000000
kêduè kerruh.! 0.2000000
"sejauh staffnya 0.5000000
pangkengnye staffnya 0.5000000
selang lesu. 0.2000000
ajer.." lesu. 0.2000000
NULL lesu. 0.2000000
rade lesu. 0.2000000
juge lesu. 0.2000000
Bowo caratss, 1.0000000
mendukung tetap 0.0476190
"Tempat tetap 0.0476190
nganggep tetap 0.0476190
sertipikat.kite tetap 0.0476190
buat tetap 0.0476190
"Pelayanannye tetap 0.0476190
Sênèn tetap 0.0476190
Jadilah tetap 0.0476190
kêbangêtan tetap 0.0476190
NULL tetap 0.3809524
dibenerin!" tetap 0.0476190
"Penginepan tetap 0.0476190
ade tetap 0.0476190
Awal tetap 0.0476190
JAKARTE JAKARTA 0.3333333
: JAKARTA 0.3333333
- JAKARTA 0.3333333
orang "Kita 1.0000000
ngumbah teuteup, 1.0000000
? prasangka." 0.2500000
dil.. prasangka." 0.2500000
https://path.com/p/3R9CTM prasangka." 0.2500000
ame? prasangka." 0.2500000
haih" pulak 1.0000000
*jidatmunaaaay" temen2 0.5000000
ituh, temen2 0.5000000
"Kalo "Ekspresi 1.0000000
sekola, memposting 1.0000000
NULL Basyit 1.0000000
depannye.. tdr 0.5000000
NULL tdr 0.5000000
"Selesei gagal 0.2500000
New gagal 0.2500000
NULL gagal 0.5000000
"Selamet "gue 1.0000000
"pelayanan "paling 1.0000000
ganteng mati.dalam 1.0000000
"Temen berhubung 0.5000000
rohani berhubung 0.5000000
Bahase "Masa 1.0000000
ketahan kekeh 1.0000000
"Okè taruh 0.5000000
"Coba taruh 0.5000000
ènzim bsr 1.0000000
NULL Dewasa 1.0000000
AMAT Bosque! 1.0000000
jari... shower 0.0526316
kucuran shower 0.0526316
elu shower 0.0526316
pake shower 0.0526316
BENER shower 0.0526316
dibenerin..." shower 0.0526316
diepaluasi shower 0.0526316
NULL shower 0.5789474
payah shower 0.0526316
sehari. banyak 0.0104167
"Kurang banyak 0.0104167
kotoran" banyak 0.0104167
ari.." banyak 0.0104167
kudu banyak 0.0208333
mayan...tibang banyak 0.0104167
dêbu banyak 0.0104167
bekel banyak 0.0104167
bejibun banyak 0.0104167
kasih." banyak 0.0104167
bercaknye" banyak 0.0104167
#MakassarKêrasan banyak 0.0104167
Gubernur" banyak 0.0104167
galau banyak 0.0104167
biase-biase banyak 0.0104167
bakal banyak 0.0104167
ora banyak 0.0104167
ma'ruf banyak 0.0104167
kurang, banyak 0.0104167
kesetiaan banyak 0.0104167
satunye banyak 0.0104167
mahasiswe banyak 0.0104167
Kankêr banyak 0.0104167
nyiapin banyak 0.0104167
hehe""" banyak 0.0104167
ganggu banyak 0.0104167
dokter banyak 0.0104167
putri banyak 0.0104167
mungkin banyak 0.0104167
nyinyir banyak 0.0104167
NULL banyak 0.5208333
bekeluarge banyak 0.0104167
node banyak 0.0104167
Bejibun banyak 0.0104167
Onoh banyak 0.0104167
sangke. banyak 0.0104167
tau" banyak 0.0104167
kecoe banyak 0.0104167
Dilantik, banyak 0.0104167
Banyak. banyak 0.0104167
"Alhamdulillah banyak 0.0104167
empat banyak 0.0104167
lanang? banyak 0.0104167
dikasih banyak 0.0104167
sêdêrhana, banyak 0.0104167
sabrina. banyak 0.0104167
NULL "Feeling 1.0000000
ayè "Fasilitas 0.5000000
NULL "Fasilitas 0.5000000
balesannye." Selasamu, 1.0000000
NULL kelabang 1.0000000
rèsèpsionis deng... 1.0000000
haknye 8 0.1428571
NULL 8 0.1428571
kan 8 0.1428571
kek 8 0.1428571
tetep 8 0.1428571
sama 8 0.1428571
lebay 8 0.1428571
nyuri masa 0.0666667
iseng masa 0.0666667
Jike masa 0.0666667
kamar masa 0.0666667
brengsek masa 0.0666667
NULL masa 0.3333333
ame masa 0.1333333
jahat masa 0.0666667
benahin masa 0.0666667
paling masa 0.0666667
deh galfok 0.1428571
daripade galfok 0.1428571
kan. galfok 0.1428571
Ternyate galfok 0.1428571
Balik galfok 0.1428571
TO galfok 0.1428571
kagapokus galfok 0.1428571
NULL do 0.4000000
'blukusan'.#JokowiSekaliLagi" do 0.2000000
kemaren-kemaren do 0.2000000
haha. do 0.2000000
keluarge. Dikejar 1.0000000
bêkêcukupan. #ermanjatim 1.0000000
NULL ngeluarin 1.0000000
Lêbih jawab.. 0.2500000
kêrêsikan jawab.. 0.2500000
ditingkatin jawab.. 0.2500000
pangkèng. jawab.. 0.2500000
kagak an. 1.0000000
NULL denger2 1.0000000
ntu syarat 0.2500000
NULL syarat 0.2500000
syarat syarat 0.2500000
dua syarat 0.2500000
ade pagi-siang 0.2500000
pasilitas pagi-siang 0.2500000
"kagak pagi-siang 0.2500000
airy pagi-siang 0.2500000
Keputusan Ndalem, 1.0000000
kalo honorer 1.0000000
merad, riang 1.0000000
Kankêr meragukan 1.0000000
cakêp" ..." 0.3333333
lêbih ..." 0.3333333
sudutnyè ..." 0.3333333
kebuke" musti 0.2500000
NULL musti 0.7500000
NULL dewasa 1.0000000
sêsêring Btw, 1.0000000
muatiare Semuanya 1.0000000
bae, sensasi. 1.0000000
NULL kesabaran 1.0000000
dandanan "Mbir, 0.1666667
@natalixia "Mbir, 0.1666667
menor "Mbir, 0.1666667
lebih "Mbir, 0.1666667
dari "Mbir, 0.1666667
Syahrini. "Mbir, 0.1666667
asilnye ditransfer 1.0000000
http://bit.ly/1Lo54Fh http://bit.ly/1Lo54Fh 0.1666667
dalêm http://bit.ly/1Lo54Fh 0.1666667
kêsèrèt http://bit.ly/1Lo54Fh 0.1666667
Syahrini http://bit.ly/1Lo54Fh 0.1666667
Fe... http://bit.ly/1Lo54Fh 0.1666667
kasus http://bit.ly/1Lo54Fh 0.1666667
lupe dulunya 0.5000000
NULL dulunya 0.5000000
NULL army, 1.0000000
beginilah 2018, 1.0000000
brengsek mendatang 1.0000000
pênumpang cengir? 0.5000000
Para cengir? 0.5000000
eni" ngartik" 0.1428571
cinte, ngartik" 0.1428571
aye ngartik" 0.1428571
pagi ngartik" 0.1428571
"karne ngartik" 0.1428571
mesem ngartik" 0.1428571
alesan ngartik" 0.1428571
kurang PPP 0.1000000
NULL PPP 0.1000000
pêlayanan PPP 0.1000000
bakal PPP 0.1000000
baèk. PPP 0.1000000
digenangin PPP 0.1000000
cakêp.. PPP 0.1000000
http://twitter.com/YunniPhotograph/status/472660102462185473/photo/1pic.twitter.com/Lw2GBVrJ4G PPP 0.1000000
mayan PPP 0.1000000
adè PPP 0.1000000
@_kngdaniel96 merasa 0.0500000
dirasain.. merasa 0.0500000
NULL merasa 0.5000000
"Ouwww... merasa 0.0500000
masi merasa 0.0500000
mantep merasa 0.0500000
"Karna merasa 0.0500000
ade merasa 0.1500000
babeh-enyak merasa 0.0500000
"Kawinan Thank 1.0000000
pangkeng sedapnya 1.0000000
babak kelereng 1.0000000
NULL kehotel 1.0000000
rapetinnye Kurir 1.0000000
sinis KPK 0.0833333
"Tadi KPK 0.0833333
begantung KPK 0.0833333
#YakinJokowi KPK 0.0833333
#sekitarkudus KPK 0.0833333
NULL KPK 0.3333333
saatnye KPK 0.0833333
gawean KPK 0.0833333
Dikire KPK 0.0833333
NULL dikejar 1.0000000
NULL """"minta: 0.7500000
bakal """"minta: 0.2500000
NULL nyeri 0.5000000
sakitnye nyeri 0.5000000
berjanji #Lounge 0.1428571
inget #Lounge 0.1428571
"Ape #Lounge 0.1428571
dulu #Lounge 0.1428571
lu #Lounge 0.1428571
kaga #Lounge 0.1428571
pernah #Lounge 0.1428571
siraman Hajar 1.0000000
ada perabotan 1.0000000
NULL Cinta. 1.0000000
mengantup." nunduk 1.0000000
http://bit.ly/18abNEB loh. 0.5000000
penanganan loh. 0.5000000
HAHAHAHAHAKAGAKSÊMANGÊTHAHAHAHASUÈHAHAHAHAH driver" 0.3333333
sêlêsè driver" 0.3333333
sêkola driver" 0.3333333
NULL Harus 0.6250000
Kudu Harus 0.1250000
Allah! Harus 0.1250000
jokowi Harus 0.1250000
gè dihiasi 0.5000000
ora dihiasi 0.5000000
"Keseluruannye jualan. 1.0000000
dewekan. hambaNYA 0.5000000
NULL hambaNYA 0.5000000
NULL dicek, 1.0000000
NULL dri 0.5000000
nyuci dri 0.5000000
"gile M, 0.5000000
NULL M, 0.5000000
yekali Nurul 1.0000000
"Prawan "11.35: 1.0000000
didugè U.S. 1.0000000
nonton trisa 0.1666667
nyariin trisa 0.1666667
(bace: trisa 0.1666667
lage trisa 0.1666667
trisanye trisa 0.1666667
tapa trisa 0.1666667
kejailan begitu 0.0333333
"maap begitu 0.0333333
NULL begitu 0.6666667
nêrbitin begitu 0.0333333
""haha"", begitu 0.0333333
syarat" begitu 0.0333333
sakit begitu 0.0333333
"Biase begitu 0.0333333
begituh begitu 0.0333333
delokin begitu 0.0333333
Sêmêntara begitu 0.0333333
pelayan "[USERNAME] 0.0138889
NULL "[USERNAME] 0.4722222
"Ngenes! "[USERNAME] 0.0138889
http://ask.fm/a/c25j7oia" "[USERNAME] 0.0138889
kêluarga "[USERNAME] 0.0138889
besok" "[USERNAME] 0.0138889
Asil "[USERNAME] 0.0138889
#bali "[USERNAME] 0.0138889
[USERNAME] "[USERNAME] 0.0694444
sumur "[USERNAME] 0.0138889
detikcom "[USERNAME] 0.0138889
"[USERNAME] "[USERNAME] 0.0972222
"Ya "[USERNAME] 0.0138889
make "[USERNAME] 0.0138889
disini....." "[USERNAME] 0.0138889
"(1) "[USERNAME] 0.0138889
taun "[USERNAME] 0.0277778
juga." "[USERNAME] 0.0138889
"Ini "[USERNAME] 0.0138889
ngelangkah "[USERNAME] 0.0138889
kicit-kicit "[USERNAME] 0.0138889
Pangkèng "[USERNAME] 0.0138889
"Èksprèsi "[USERNAME] 0.0138889
si." "[USERNAME] 0.0138889
Bujubuneng. "[USERNAME] 0.0138889
juge.. "[USERNAME] 0.0138889
"Rumor "[USERNAME] 0.0138889
Pagi "[USERNAME] 0.0138889
NULL waptrick) 1.0000000
NULL ngeluh, 1.0000000
"Selesei lama 0.0333333
arti lama 0.0333333
nyuksesin lama 0.0333333
Situasi lama 0.0333333
jêngah-jêngahin.. lama 0.0333333
apè, lama 0.0333333
trèpêl lama 0.0333333
NULL lama 0.4333333
ada lama 0.0333333
MUASIN lama 0.0333333
rumèh? lama 0.0333333
kolokan" lama 0.0333333
lu. lama 0.0333333
"kagak lama 0.0333333
selamanye?" lama 0.0333333
rokok lama 0.0333333
penundaan lama 0.0333333
nyuapin lama 0.0333333
amin. JAR" 0.5000000
bengis JAR" 0.5000000
kurang "Humorku 1.0000000
bener """"UTC"""" 1.0000000
aye goals, 1.0000000
NULL seger2 1.0000000
mayoritas, kondensasi 0.3333333
disusehin kondensasi 0.3333333
bakalan kondensasi 0.3333333
ora klo 0.0454545
d... klo 0.0454545
spy klo 0.0454545
kenalan. klo 0.0454545
sêorang klo 0.0454545
NULL klo 0.4545455
cêkrèkan klo 0.0454545
"Lagu klo 0.0454545
Anèh, klo 0.0454545
ATI" klo 0.0454545
isi klo 0.0454545
wakil klo 0.0454545
ujan" klo 0.0454545
HAHAHAHA." rumah. 0.2000000
SAKIT rumah. 0.2000000
YANG rumah. 0.2000000
NULL rumah. 0.4000000
NULL itu.... 1.0000000
Makin terperosok 1.0000000
NULL separuh 0.5000000
#Kabarin separuh 0.5000000
NULL @rezky_fjsi 1.0000000
èmang" Tangan 1.0000000
dapêt menyakitkan.. 0.1666667
jadi menyakitkan.. 0.1666667
bêgono.. menyakitkan.. 0.1666667
50% menyakitkan.. 0.1666667
kamar menyakitkan.. 0.1666667
diskon menyakitkan.. 0.1666667
budaya porses 1.0000000
#ARMYSelcaDay yakini, 1.0000000
wangsit nampak 1.0000000
digonoin, ditungguin, 1.0000000
bau" #siap2 1.0000000
"Dane selebihnya 0.2000000
http://antaranews.com/480952 selebihnya 0.2000000
#ARMYSelcaDay selebihnya 0.2000000
bae" selebihnya 0.2000000
NULL selebihnya 0.2000000
dêbat...sèdèng alangkah 1.0000000
NULL buru 1.0000000
pengen 'lagi' 1.0000000
usah Gamau 1.0000000
NULL tommy 1.0000000
#voil dirasakan 1.0000000
NULL slalu, 1.0000000
sêidup siap. 0.2500000
sêmati, siap. 0.2500000
buat siap. 0.2500000
ikrar siap. 0.2500000
NULL iyakan 1.0000000
ngebekas." ajalah 0.5000000
NULL ajalah 0.5000000
Depok setara 1.0000000
pêrkawinannyè wastapel 1.0000000
NULL lembab 0.4000000
ntu. lembab 0.2000000
nyaruh, lembab 0.2000000
Walo lembab 0.2000000
NULL snacky 1.0000000
NULL cemas, 1.0000000
NULL dan, 1.0000000
anak-anak priyonggo 1.0000000
per cawapresny 1.0000000
ama resmi 1.0000000
tanye mah 0.0555556
#RuangTunggu mah 0.0555556
NULL mah 0.4444444
mureh. mah 0.0555556
rusak" mah 0.0555556
Pêmêrèntah mah 0.0555556
kagak mah 0.1111111
udahlah!" mah 0.0555556
sêjati mah 0.0555556
hehe.. mah 0.0555556
keresikan" ada,,kloset 0.2500000
nyang ada,,kloset 0.2500000
bocor,layanannye ada,,kloset 0.2500000
kurang, ada,,kloset 0.2500000
diatasin dimarah2. 1.0000000
NULL PERBAIKI, 1.0000000
trus" The 0.2000000
Terbaèk The 0.2000000
elu,suatu The 0.2000000
dihias The 0.2000000
yang The 0.2000000
jauh jauh 0.1304348
rêsik jauh 0.0434783
kangênin jauh 0.0434783
NULL jauh 0.4782609
kêrasan,tapi jauh 0.0434783
sobat jauh 0.0434783
kebelet jauh 0.0434783
penye jauh 0.0434783
gede." jauh 0.0434783
"/rlt/ jauh 0.0434783
kote." jauh 0.0434783
dalêm bener, 1.0000000
"jangan "Dah 1.0000000
samè kurang.. 0.3333333
NULL kurang.. 0.6666667
"#Ruangngasoh miskin, 1.0000000
bênêr flashnya 1.0000000
Anies Hmm 1.0000000
doktêr, kebutuhan 0.3333333
ayè kebutuhan 0.3333333
NULL kebutuhan 0.3333333
kagak-sêmangêt pada 0.0163934
nerus pada 0.0163934
pênulisan' pada 0.0163934
ncing" pada 0.0163934
http://dlvr.it/8g1tyq pada 0.0163934
diri. pada 0.0163934
http://goo.gl/fb/3sgdCI pada 0.0163934
nyinyir pada 0.0163934
muraan pada 0.0163934
titik pada 0.0163934
nganggepnye pada 0.0163934
Padahal pada 0.0163934
""Udèh pada 0.0163934
roti pada 0.0163934
#satrionkri pada 0.0163934
~0225" pada 0.0163934
roko, pada 0.0163934
sêmbari pada 0.0163934
NULL pada 0.6393443
ah. pada 0.0163934
"Katekan pada 0.0327869
"Gacoan pada 0.0163934
ngaish gembyor 1.0000000
flu sepiku 1.0000000
"ame things. 1.0000000
onoh gaperlu 0.2000000
guah gaperlu 0.2000000
udahlah!" gaperlu 0.2000000
lakuin gaperlu 0.2000000
NULL gaperlu 0.2000000
NULL Ngiler 1.0000000
NULL http://www.bhinneka.com/mob_products/sku01414004/hp_pavilion_x360_-_red.aspx 1.0000000
CPNS?" tipsnya 1.0000000
NULL Anjir 1.0000000
